2106 10
하 0.5069882 0.11242443 0.59403586 -0.30923453 -0.6663136 -0.3762535 1.0678234 0.50525016 -0.1952643 -0.5298519
이 0.011213367 -0.5795943 0.35048893 -0.08002796 -0.6997256 -0.2745149 0.7124902 0.53526866 -1.0356231 -0.1686964
. 0.1707762 -0.2654618 1.0301614 0.03548681 -0.37456754 -0.06722174 0.76452243 0.04696448 -0.5066622 -0.48103932
는 -0.34448564 -0.1400561 0.10109772 -0.29411468 -0.25606492 -0.014486004 1.3222446 0.43876106 -0.5733344 0.03741577
고 -0.29457438 0.121570945 0.40921786 -0.5097826 0.15508129 0.5434816 1.3656371 0.44519448 -0.017599426 -0.2715024
ㄴ -0.31664285 -0.4720184 0.03410128 -0.07152284 -0.14945227 -0.11330441 1.2552613 0.49158937 -0.52169305 -0.08108609
가 0.056593582 -0.25663704 0.30365106 -0.44711557 -0.33169055 0.28616384 0.8112595 0.5962813 -0.6368639 -0.2653976
들 -0.1574621 -0.3467612 0.16925427 0.059377395 0.29840484 -0.28199118 1.157616 0.4377352 -0.8091438 0.07960836
다 -0.5338974 -0.13178921 0.9083171 -0.12707636 -0.40649176 0.37679696 1.0287298 0.25844535 -0.3956273 -0.16501054
을 -0.16443922 0.18872644 -0.040056538 -0.35763118 -0.009466455 -0.06841287 1.5165927 0.53975636 -0.15956579 -0.29921684
은 -0.4876723 -0.6739256 0.18298744 0.06696172 -0.010678927 -0.14625692 1.3046473 0.23509865 -0.5210866 -0.18560067
에 0.1290143 -0.43001884 -0.26186034 -0.09886778 -0.15054542 0.45862356 1.0180769 0.24307123 -0.5057042 -0.64904845
도 -0.18837053 -0.30060783 0.17257069 -0.53967655 -0.3087524 0.20766257 1.2116687 0.13005583 -0.5881379 -0.20807865
지 -0.008421195 -0.25687647 0.6149928 -0.58875525 -0.48104763 0.36518452 1.4322904 0.4180837 -0.16379048 0.32302567
어 -0.10824153 0.51438147 0.53704035 -0.42027214 0.27763993 0.8525936 1.1832906 0.9714989 -0.055763442 -0.028477103
? 0.39747337 -0.53617615 0.7104038 -0.2311343 -0.8905238 0.7740425 0.08931552 1.214973 -1.184434 0.012568036
것 -0.5520366 -0.42847627 0.2150199 -0.64505273 -0.58175427 -0.5145669 0.88743055 0.6918601 -0.8751694 -0.6085872
ㄹ -0.61161137 -0.1479445 0.4817076 -0.97633696 -0.17971364 -0.17290615 1.5394254 0.23752727 -0.33983448 -0.23167998
있 0.041432455 -0.050602436 0.4934166 -1.07586 0.14521551 -0.24013819 1.1422132 -0.12922682 -0.9759434 -0.31679267
되 0.8355163 0.17168783 0.4708435 -0.3733128 -1.260037 -0.12047392 0.9262735 0.22372858 -0.6579725 -0.28962034
나 0.047380242 -0.11293649 0.7022488 -0.419973 -0.217308 0.48791632 0.7792165 0.4593754 -0.5773208 -0.1775188
아 -0.1992526 -0.6022064 0.7974851 -0.30912802 0.563062 0.6105403 1.113029 0.9431649 -0.04323136 0.10854335
게 -0.042551294 -0.53250414 0.057922676 -0.93476325 -0.06871174 0.03682654 1.0858039 1.1122053 0.08625974 -0.9072391
의 -0.051431723 -0.33589646 -0.37470928 0.68821514 -0.20283529 -0.3056329 1.3006368 0.2977173 -0.6270311 -0.49738118
를 0.17179981 -0.1927032 -0.31398836 -0.16958039 0.057520006 0.07536912 1.4766333 0.8176995 -0.010621677 -0.25586706
네 -0.59344167 -0.21921234 1.34374 -0.30912367 -0.009705808 0.85687435 0.6509522 0.4544373 -0.6483893 -0.1166526
보 0.71022636 -0.043123886 0.8353857 -0.7235767 -0.26781186 -0.02200064 0.81398535 0.6499063 -0.5600562 -0.103756905
면 -0.18423033 -0.38159823 0.2922959 -0.30336037 -0.33453634 0.5093726 1.0230151 0.8920625 -0.040670507 -0.3664339
었 0.17632328 -0.5192287 0.64717674 -1.0530404 0.5235816 0.32038662 0.8122551 0.100163125 -0.5234907 -0.8341774
ㅂ니다 -0.44433597 0.12232269 1.10822 0.7299363 -0.38863784 -0.71947104 1.4512589 0.5126036 0.42904893 -0.99940383
시 0.07709116 0.7520572 1.4007057 -0.1989206 0.74703795 -0.41889262 1.1164291 0.6695758 -0.04071095 -0.68016946
, 0.31209108 -0.036899704 -0.22861081 0.3986609 -0.22741942 0.31473744 1.3212448 -0.16897479 -0.6792637 -0.2521235
! 0.5130303 -0.0978116 1.6609241 1.0741802 -0.45862564 -0.023926826 1.3758737 0.4324334 -0.1616838 0.5730929
없 -0.017921846 -0.17884365 0.47375253 -0.83648413 -0.085607246 -0.31986192 1.0879431 -0.46155435 -1.2975411 -0.21241112
만 0.15526381 0.017085997 0.34128213 -0.2463986 0.04954218 0.6543223 1.0151879 0.36074194 -0.32980967 -0.3232883
으로 0.38771328 -0.5068214 -0.4037435 0.044126153 0.053709026 0.12266451 1.2959026 0.35324594 -0.2184095 -0.6151789
거 -0.2339937 -0.59333885 0.5048684 -0.7788546 -0.47082695 -0.05939086 0.6527615 1.1487696 -0.78241205 -0.2292862
여 0.025917253 0.26170897 0.31307113 -0.2843282 0.3719059 -0.049961273 1.3810163 1.3205428 0.25633162 -0.2960428
로 0.2760882 -0.13479885 -0.09164695 -0.19314598 -0.16316186 0.48098046 1.2094411 0.47517428 -0.27898952 -0.20144606
말 0.22823058 -0.07890423 0.6198872 -0.6146177 -0.23242284 -0.28066856 0.9953303 0.5800632 -0.53213197 -0.13810799
ㅋ -0.32529113 -0.45656833 1.2935055 -0.5362916 0.8231096 1.1694636 0.5494244 0.5762801 -1.6462911 0.37697342
안 0.34069595 -0.23346774 0.32176822 -0.71397626 -0.5741653 0.38527793 0.95551217 0.46391857 -0.23562613 -0.58566475
기 -0.28590605 0.19636638 0.36029714 -0.44293448 0.29285657 0.30936685 0.98726594 0.85114604 -0.020024536 -0.90233254
주 0.67420244 0.8115082 0.80710906 -0.48041517 0.5217474 -0.043047745 1.1463335 1.0164173 -0.27565485 0.051546734
.. 0.19259627 -0.72962993 0.8896439 -0.27071765 -0.29497603 -0.07146634 0.6250545 0.34522882 -0.6689547 -0.3637504
아니 0.2623668 -0.23407616 0.41569728 -0.04962852 -1.0081534 -0.044076882 0.5906372 0.6633889 -1.5169269 0.41454804
ㄴ다 0.18982908 -0.57993835 0.5857 0.21024787 -0.6429795 0.32922584 1.3655554 1.0535103 0.7019287 -0.31474102
라 -0.36621624 0.23917352 0.523481 0.29925206 -0.21222225 0.25082177 0.88827336 1.2794893 -0.5351103 0.25565356
사람 -0.5024624 -0.4922425 -0.104580015 -0.49107477 0.14084986 -0.46242726 1.0868889 0.7704237 -0.7330513 -0.51778984
님 -0.003620843 -0.17930695 1.0553377 1.3582869 0.8000627 -0.9162942 0.92975885 0.6343265 -0.40289614 -1.2088109
는데 -0.26455015 0.039285462 0.24617587 -0.69981265 -0.79604733 0.9218611 0.9852121 0.54073995 -0.29292917 -0.6147148
니 -0.014981034 -0.24208239 0.61923933 -0.24041595 -0.112412624 0.33562207 0.6465247 0.9603229 -0.5040729 -0.208987
- -1.0568109 -0.5393135 1.6219434 1.6592484 -1.2938306 0.732827 2.2005851 -1.2785306 -2.3867075 -0.8699161
에서 0.18499523 -0.6109197 -0.47003213 -0.018874465 -0.07529411 0.42315155 1.1227391 0.50227505 -0.37377447 -0.5475372
... 0.08076225 -0.6409111 0.88494414 -0.31155583 -0.28735527 0.08693737 0.58317655 0.3098826 -0.86762786 -0.22316179
았 0.2536777 -1.4711413 0.52507067 -1.3346467 0.7125761 0.50304717 1.1909065 0.09637077 -0.30548793 -0.5226926
ㅋㅋ -0.030279052 -0.53493446 1.2577422 -0.5432793 0.5693434 1.0743916 0.36945117 0.5728764 -1.368874 0.17717548
냐 -0.3858934 -0.19951539 0.61382365 -0.33993796 -0.6935777 0.8142945 0.5823911 1.4682891 -0.8517154 0.28425056
였 0.58054394 -0.9530605 0.39943936 -1.0152802 -0.059887692 -0.27573436 0.9090275 0.24910048 -0.17455962 -1.264423
그 0.24203353 -0.19524124 0.10535107 -0.17380984 0.064462736 0.06367088 0.92188925 0.22443838 -0.9373851 -0.17984873
같 0.008012022 -1.0800722 0.82072574 -0.38602757 0.103254795 -0.6249413 1.1271523 -0.3175951 -1.2638817 0.21798411
국민 -0.113568425 0.09236777 0.07751958 0.12136254 0.27244723 -0.8494526 1.3524284 0.8382715 -0.46803117 -0.32562467
겠 -0.013096676 -0.873922 1.4173491 -1.2607471 0.09812225 0.10829071 0.8277063 0.23760684 -0.35147527 -0.7218048
~ 0.2719729 -0.052548867 1.4151186 0.6945663 -0.12667824 0.38183632 0.60565305 0.25674742 -0.6021431 -0.21107559
않 0.4642216 -0.69332486 0.6383956 -0.93641883 -0.4157539 0.05865222 1.3557636 -0.14217094 -0.47121513 0.17786968
과 0.0011139858 -0.43623418 -0.62363154 0.71823657 -0.17194483 -0.31044397 1.4118791 0.18971778 -0.5001324 -0.80941254
잘 0.102997884 0.10117076 0.8530028 -0.65541285 0.031939007 -0.30874765 1.0405849 0.71485806 -0.071033336 -0.68021
ㅁ -0.2560911 -0.26255593 0.6425931 0.20120655 -0.49186096 0.33898634 0.9357619 0.7932247 -0.17234495 -0.17108469
저 0.019564759 -0.3703047 0.4766877 -0.17508572 -0.019622289 -0.3292379 0.6589032 0.46793965 -1.1766909 -0.12324525
적 -0.05929576 0.12292877 -0.58331263 0.15360218 -0.5224163 -0.37467742 1.6080545 0.1013067 -0.8423562 -0.10531066
대통령 0.23924434 -0.29477948 0.43391615 0.79569507 -0.5574641 -0.86962306 0.9073409 0.6249823 -0.4730337 -0.85927457
어요 -0.5159264 1.0260903 1.7097504 0.033631384 0.60358787 0.11216871 1.0681106 1.0659231 0.18439022 -0.70042753
어서 -0.27644336 0.35838076 -0.10725026 -0.38842523 0.11603204 0.50257516 1.309035 0.8864616 -0.027036777 -0.50940746
수 -0.7254417 0.64152265 0.44446313 -1.4309713 -0.2648155 -0.023803007 1.0518551 0.13751452 -0.9379355 -1.0832866
살 0.73532796 -0.076763794 0.5202482 -0.6082592 -0.25136417 0.0430061 1.114664 0.11921972 -0.43271664 -0.23512417
야 -0.37358686 0.07061582 0.9882257 0.29981822 -0.65469766 0.37812045 0.5744388 1.0356872 -1.0194684 0.42532092
뭐 0.048917472 -0.56868607 0.62009495 -0.70032275 -0.71662694 -0.04802562 0.24500473 1.047878 -1.2471291 -0.31565842
일 -0.2083048 0.06757213 0.043914348 -0.22043815 -0.48146698 0.04782452 0.97374624 0.25558564 -0.6375084 -0.7544215
알 0.22610192 -0.028859893 0.78195757 -1.4368987 -0.46254563 -0.37355652 0.9471601 0.45818084 -0.9467445 -0.26419964
어야 0.21771337 0.76957905 0.5441512 -0.19547778 -0.81806827 0.33004677 1.118554 1.1825054 0.26557 -0.568165
한 -0.05868444 0.5102206 0.33542746 0.30135044 0.21770142 0.26521593 1.1386093 0.07749867 -1.0856563 0.28217766
오 0.69385356 -0.040609658 0.8543608 -0.57971126 0.26743287 0.18155085 0.5423082 0.54509485 -0.786446 -0.29572743
아서 -0.30377758 -0.63580656 0.06374182 -0.71779245 0.4761075 0.601176 1.0914285 0.86908394 0.029332628 -0.8112236
왜 0.26460916 -0.5975875 0.22483101 -0.5154377 -0.15678251 0.13759173 0.5533568 1.1154598 -0.7554988 -0.295697
내 0.43611783 0.55645543 0.60729325 -0.24239276 0.22119652 0.040869147 0.7922734 0.85007083 -0.5459533 -0.2821387
자 0.023465006 -0.15968409 0.35673982 0.10988016 0.04929549 -0.006456432 1.0903591 0.94678825 -0.18438782 -0.1005567
못 0.068696596 0.1572739 0.4616668 -0.81641924 -0.07599871 0.13756636 0.97035384 0.5405248 -0.56725043 -0.30614978
받 0.8342367 -0.05787671 0.14632876 -0.904431 0.22957565 0.26497892 1.2902532 0.012664776 -0.40148136 -0.38762045
좋 0.55554175 -0.51335007 1.3269539 -0.76159525 -0.1732214 -0.25178012 1.0738558 -0.66027856 -0.80113834 -0.29808617
ㄴ데 -0.8205899 -0.10403103 0.18402742 -0.15268925 -0.43285832 0.2655282 0.83178675 0.6644932 -1.0788119 -0.08775838
나라 0.2239781 -0.08758059 -0.0020285915 -0.14696975 -0.21996081 -0.12591943 0.8506735 1.2450514 -0.4159526 -0.42864507
습니다 -0.74509174 0.31053647 1.2635014 -0.1654129 -0.60474974 0.08005429 1.5093119 -0.51571095 0.07293094 -1.1139438
진짜 -0.13463944 -0.5425581 1.0331888 -0.17490526 0.20437418 0.04495862 0.5399876 0.5499709 -0.7716036 -0.2525965
으면 -0.4133824 -0.073179014 0.5588393 -0.92742383 -0.5832692 0.95658964 1.4120302 0.003243716 0.05826183 -0.74432635
여서 0.117549546 -0.023052732 -0.50029135 -0.2745282 -0.1338295 0.12856585 1.576828 0.79354376 0.28995678 -0.8582575
먹 0.7568397 0.1947597 0.4987818 -0.8687453 0.5129836 0.5848426 1.2659638 0.32069036 -0.59186745 0.37052926
여야 0.5150419 0.3561822 0.33982882 0.016458927 -1.2179048 -0.3344707 1.2445599 0.9065729 0.26813272 -0.75302845
생각 0.37548 -0.10216392 0.5882069 -0.66534144 -0.8111243 -0.7168588 1.0976927 0.37933138 -0.36060616 -0.68259066
돈 -0.26066527 0.116180696 -0.09104779 -0.84491044 0.7278358 0.5209836 1.3091583 0.37027922 -0.7927151 -0.12881923
여자 -0.4812982 -0.6710363 0.116553605 -0.14594215 0.23410936 -0.20549527 0.66296136 0.3490818 -1.2521648 -0.7029417
때 -0.3031949 0.5319863 0.052494925 -0.679033 0.13190623 0.5645357 0.5944725 0.7635939 -0.6172383 -1.3582993
더 -0.2572856 -0.2193852 0.41162932 -0.48702157 0.08087624 -0.19927698 1.1844072 0.25004885 -0.6045255 -0.20854
라고 -0.27872923 0.085509986 0.5338056 -0.20434484 -0.38685197 -0.12968886 0.9100322 1.0549511 -0.4279265 -0.16703808
까지 0.1461941 0.24886326 0.33454657 -0.33733428 0.16874447 0.25775102 0.8726996 0.22740681 -0.3841813 -1.0394037
나오 0.9542753 -0.05756282 0.5971861 -0.669799 -0.31026646 0.48723853 0.5046959 0.3460496 -0.85945326 -0.43824226
많 0.06552234 -0.7863989 0.6498862 -0.6576424 0.5607195 -0.6741783 1.1239293 -0.28902373 -1.1555291 -0.2367011
음 -0.88434064 -0.05134986 0.72513574 -0.6812297 -0.5397763 0.9205967 1.1001896 -0.034774367 -0.5944312 -0.47824898
대 0.30355823 0.24895479 0.22521691 0.38917336 0.047615778 0.8119185 0.9592546 0.21869981 -0.8421333 0.08536149
요 -0.09687244 -0.0044681844 1.421505 0.26594272 0.287203 0.16085806 0.6705714 0.47191414 -0.4802286 -0.27347004
다고 -0.2375566 -0.119925246 0.61393654 -0.9107726 -0.8254439 0.63650787 1.1576945 0.14383064 0.049711373 -1.0300224
이런 -0.19561218 -0.21281219 0.20949832 -0.26611534 -0.33306882 -0.22609866 1.0945677 0.4584103 -1.0191278 0.253849
모르 0.46023735 -0.21957457 0.8859465 -1.3234855 -0.75100297 -0.18496604 0.6619136 0.20887063 -1.3183469 -0.19824639
인간 -0.22312832 -0.7231831 0.07027679 -0.11558814 -0.06898068 -0.31891856 0.9109818 0.6175834 -0.8483047 -0.27079466
년 0.3653945 -0.33621094 -0.16718495 0.2375313 -0.11512374 1.4921523 0.76054645 -0.34523025 -1.1200947 -1.0072299
와 -0.21312483 -0.21290569 0.063230835 0.67888814 -0.019128801 0.07718163 1.1575558 0.280403 -0.46730635 -0.4311152
좀 0.35134313 -0.05455805 0.93163806 -0.3332998 0.19247109 0.056986336 1.2246102 0.97740877 0.1468671 0.092388265
그냥 0.096617565 -0.24859703 0.5329678 -0.51948625 -0.013284101 0.26366296 0.80259025 0.5070933 -0.7087754 -0.12485915
민주당 -0.07309752 0.047905732 0.37690312 0.23304272 0.06347692 -0.3547458 0.87222415 0.6390547 -0.72366685 -0.3600012
만들 0.76389474 0.5896683 -0.30825043 -0.48035586 -0.12204735 0.17484425 1.5763607 0.73185 -0.5141924 0.33470994
네요 -0.63735116 -0.34964317 1.4800739 -0.26456517 -0.57274604 -0.022151846 1.0284575 0.095008746 -0.096831575 -0.70564103
ㄴ가 -0.74260366 -0.5267467 0.450695 0.15657237 -0.7313128 0.2923707 0.60430056 1.2881019 -1.2665814 0.37060308
면서 -0.35255477 -0.14213158 -0.08333097 -0.5267572 0.20537007 0.33276087 1.3182639 0.8159241 -0.09208399 -0.4624592
윤석열 0.24526516 0.17286956 0.10157537 0.7711646 -0.30625188 -0.29604712 1.1109886 0.478552 -0.6339841 -0.4079126
쓰 0.61142826 0.35345733 0.21080768 -0.74565554 0.01046998 0.32025522 1.0960892 0.4339347 -0.7483841 0.11021409
서 0.11875301 -0.27458903 0.50383633 -0.035464395 -0.17695978 0.5195715 0.6350821 0.47757164 -0.7438024 -0.22227713
대한민국 0.080113 -0.046236154 0.29740974 0.718547 -0.4145405 -0.66705734 1.0699104 0.694706 -0.5733859 -0.34613937
놈 -0.48685545 -0.6624759 0.14128579 0.07276516 0.045462012 -0.06442371 0.98804015 0.66540253 -0.86086905 0.029443456
너무 -0.26658943 -0.5759533 1.0312679 -0.13451292 0.32614622 -0.34351948 0.75483495 0.12551266 -0.5894114 -0.792421
너 0.2208861 -0.22825874 0.45932183 -0.038685303 -0.07837374 -0.018851837 0.6588322 0.8394193 -0.79002666 -0.10120053
참 -0.15826166 -0.52020144 1.2399623 -0.18311352 -0.32740057 -0.19943984 0.77464646 0.20790154 -0.6081305 -0.22358999
던 -0.43934909 0.07086543 -0.091341354 -0.75736827 -0.452784 0.5172502 1.0044726 0.15359014 -0.9538302 -0.6009216
시키 0.93894196 0.79352367 0.20759216 0.22221597 -0.39914718 0.15432262 1.260269 0.7380717 -0.23319116 -0.053878125
누구 0.015271449 -0.30300376 0.4699916 -0.4939059 -0.22998343 -0.10978872 0.3493226 1.1265129 -1.1971228 -0.20559394
애 -0.2957791 -0.7431095 0.16125667 -0.51338065 0.38562956 -0.105708465 0.77545017 0.73212874 -0.8982548 -0.4106756
개 0.22791632 -0.35668075 0.26687443 0.15465982 0.27484307 0.45533258 0.95562166 0.107224904 -0.64567083 -0.2198684
싶 0.16077511 -0.25065413 1.1921784 -1.0743953 0.34155238 0.017680528 1.2934706 0.048666466 -0.43370882 0.14802258
검찰 0.4294984 0.23189917 -0.5768911 0.52693325 -0.5480479 -0.03088517 1.298371 0.56875986 -0.61995715 -0.3221917
리 0.00020257806 0.12577885 0.6891121 -0.13667946 0.2842157 0.46915087 0.6898669 0.8971011 -0.55927646 -0.13734666
지만 -0.68183756 -0.13497524 0.51058775 -0.43663234 -0.6882451 0.18276136 1.2742553 -0.094484836 -0.3859237 -0.6611355
에게 0.11706086 0.056341015 -0.23951037 -0.099446006 0.24238355 -0.40049812 1.297993 0.46540162 -0.6493972 -0.33173972
정치 0.40340027 -0.15295495 -0.30697635 0.07506391 -0.5171486 -0.4434924 1.0254009 0.8240182 -0.6988282 -0.39615294
맞 0.41520163 -0.57294685 0.8449257 -0.58640933 -0.4959083 -0.41123018 0.9522156 0.11414984 -0.91129965 0.13127112
한테 0.017687196 -0.43705732 -0.091753915 -0.3572065 0.2208121 -0.057884328 0.9728085 0.5942968 -0.65654385 -0.41627923
듯 -0.36988708 0.009289001 0.5590559 -0.68630576 -0.3974579 0.20592277 0.69526106 0.701298 -0.5921761 -0.6029794
ㅎ 1.1593779 -0.7704182 2.046554 -0.13497236 -0.18425237 0.69445086 0.19095647 0.52729565 -0.64018023 -0.79382724
저런 -0.10009219 -0.4565514 0.16698706 -0.20687026 0.2405825 -0.50032806 0.9041181 0.46004865 -1.2122766 -0.0683893
ㅋㅋㅋ -0.22339007 -0.72622806 1.1731508 -0.464297 0.3902645 0.90413624 0.39886165 0.6854171 -1.3201444 0.26474094
아야 -0.13756503 0.03840395 0.7464558 -0.6560113 -0.17207408 -0.050015654 1.211482 0.96378094 0.12825836 -0.43212548
이것 -0.15595908 -0.40343812 0.54266894 -0.06566322 -0.63785225 -0.18967678 0.5364726 0.8065781 -0.977312 -0.23680131
아라 -0.19227402 -0.3172786 0.9304539 -0.23317508 0.3255518 0.13248508 1.5465046 1.0065019 0.41507584 0.20076686
우리 0.032629613 0.13230209 0.311012 0.29184005 0.07555046 -0.61722666 1.037523 0.39001372 -0.600671 -0.7184243
정말 -0.096024565 -0.30385408 1.0820125 0.14349966 -0.14648758 -0.68561053 0.9278574 0.08114546 -0.5405903 -0.61948836
명 0.21922581 0.55219865 0.3316842 0.8103713 0.14429128 0.63120735 0.40451938 0.6977765 -0.84807396 -0.9860337
1 0.22139363 0.30122602 0.1407374 0.7313366 -0.2543757 1.0290161 1.0877184 -0.3837358 -0.96112025 -0.40392345
남자 -0.23560598 -0.45756653 0.0764996 -0.2241961 0.2385878 0.014786172 0.668276 0.631261 -0.87625134 -0.6987117
2 0.2956942 0.055301014 0.34763736 0.7727725 -0.07510225 1.2944999 1.1295997 -0.61519724 -0.8131845 -0.6584562
분 -0.4034543 0.117274754 0.6130959 0.0134184295 0.17085399 -0.5012403 0.81077594 0.34549713 -0.6731126 -1.0349605
ㅡ -0.030401314 -0.33628127 1.0715823 -0.47871333 0.62155443 0.79406846 0.023091987 1.1912072 -0.8077756 -1.1942893
) 0.15644039 -0.127471 0.32442987 0.9781103 0.10854964 0.96236235 1.2452016 -0.74835515 -0.9864929 -0.56788695
사 0.74514943 0.038555503 0.53049535 -0.26008067 0.17861415 0.4196889 0.56610066 0.74617106 -0.50737 -0.481093
치 0.68938565 -0.039913468 0.18110383 -0.45736358 0.37904772 0.45778883 1.0009434 0.8250052 -0.6670053 0.28332242
원 0.59676147 0.54258364 0.29682228 0.38723344 0.24645591 1.1818364 0.4775264 0.028450653 -0.90225184 -1.1662915
이제 0.36336347 -0.24812335 0.34288946 -0.40729782 -0.21620758 0.056777954 0.66989654 0.4133119 -0.6761279 -0.6504111
ㄴ지 -0.7094444 -0.5798232 0.86986583 -0.6407427 -0.6177797 -0.2410194 0.7691595 0.70009136 -1.033197 -0.058950763
( 0.393731 -0.17357512 0.44854295 0.8804218 -0.11320227 0.8213551 1.1342275 -0.72057503 -0.75393224 -0.6526053
.... 0.23264213 -0.5115572 1.0608448 -0.22711278 -0.33047953 0.22734118 0.6846526 0.062411603 -0.69230634 -0.19187462
전 0.42545182 -0.2614085 -0.42377618 0.38285312 -0.18408889 0.64632547 1.0997368 0.22036834 -0.5508302 -0.5524126
이재명 0.28487 -0.0011199097 0.36452216 0.48392376 -0.123043716 -0.29195732 0.9218603 0.58701307 -0.50032234 -0.42070505
데 -0.29786715 -0.18974993 0.36045152 -0.5815202 -0.35732612 0.37001005 0.63428956 0.5051355 -0.9745159 -0.4542386
: 0.4348292 0.172828 0.99836886 1.3157371 0.15110648 1.4566973 0.7004419 -0.26467943 -1.3218739 -0.53003913
그렇 0.37084144 0.074695826 0.34843525 -1.1940904 -0.4382983 -0.23464616 1.1381928 0.35650966 -0.8512669 -0.08024155
어도 -0.21688414 0.0022479985 0.27286986 -0.5785346 -0.41287315 0.943595 0.99935174 0.9219592 -0.091652125 -0.4375224
당 0.1870126 -0.15901268 0.27895203 0.26127607 -0.067290194 -0.035838533 0.88323116 0.60676533 -0.57435775 -0.2770679
지금 0.107247464 -0.047880065 0.32343677 -0.234918 -0.23465346 -0.09538276 0.70543045 0.68890756 -0.6395559 -0.59446263
사기 0.9802465 -1.3696294 -0.21762636 0.3776438 -0.29866213 -0.08983281 0.62215227 1.0157137 -1.2729062 0.0055478625
~~ 0.27019903 -0.279347 1.4548252 0.44363454 -0.10126296 0.18124446 0.5714591 0.6852606 -0.48577508 -0.050352998
씨 0.27472192 -0.39305055 0.6349716 0.45748276 0.08947103 -0.17532182 0.33390993 0.6431967 -0.6724186 -1.0049464
위하 1.1156034 -0.10446714 -0.78245157 0.15875083 0.28950444 -0.75637174 1.99118 1.4197646 0.060845498 -0.115958706
어라 0.11377266 0.37086597 0.6698068 0.10814067 0.3850856 0.80352354 1.1053762 1.2330345 0.2755662 -0.20978199
짜 0.36721087 -0.5553658 1.5177914 -0.059103586 0.46870992 1.05138 0.38896605 0.8962391 -0.29445377 -0.51253533
일본 0.2831482 -0.05536922 -0.33479843 -0.007146613 -0.009000012 -0.08207932 1.0324734 0.48667064 -0.7675779 -0.4779528
장관 0.0417412 -0.20408973 1.1489705 1.4870116 0.30825552 -0.8719011 0.8026835 1.0803334 -0.6696363 -0.80992776
니다 0.37917575 -0.096783735 1.2289011 0.89227366 0.414467 -0.04380319 0.7625256 0.5232827 0.117011815 -1.6057054
다는 -0.62093425 0.33066693 0.46786106 -0.7150382 -1.1499197 0.0692867 1.5274417 0.08239002 -0.5671076 -0.14559627
놓 0.92435503 0.004029446 0.2312244 -0.5897368 0.57990474 0.79310673 1.2606446 0.5428983 -0.48322195 0.41992313
결혼 0.24924858 -0.44318476 0.024666436 -0.38789815 -0.22989494 -0.12467997 1.0287554 0.2476804 -0.44618136 -0.739304
라는 -0.61337245 -0.062048424 0.20510514 0.16946435 -0.3048982 -0.42760664 1.1161673 0.55726266 -1.1289226 0.22489752
그것 -0.21731636 -0.13183555 0.4325985 -0.75548875 -0.53834057 -0.26756772 0.7087331 0.6861413 -0.904864 -0.54166454
이나 0.06836395 -0.12629475 -0.025109617 -0.09494164 0.1289215 0.42213106 0.956762 0.38980407 -0.6324734 -0.3842534
보다 0.08075763 -0.9324036 0.14351302 0.07923124 -0.046648316 -0.33761102 1.1318256 0.16754973 -0.65926164 -0.24220747
보이 0.6031085 0.53063345 0.8299258 -0.6054111 0.009622816 -0.0018165857 0.9916786 0.6317078 -0.56571317 0.07560244
응원 0.22868708 0.76924294 1.7850099 0.860083 0.12993276 -1.0210296 1.3957096 0.37330797 0.12634043 -1.4136274
수사 0.642914 0.54856884 -0.32851776 0.025479058 -0.6596428 0.21584888 1.505727 0.47355878 -0.2002048 -0.28414983
입 0.41051137 0.22593117 0.9517123 0.2667596 -0.15941142 0.20112889 0.55811363 0.16742554 -0.45307845 -1.0683609
번 -0.10493894 0.7741172 0.23448734 0.33159038 0.31813213 1.0454843 1.1999809 0.26835722 -0.73301387 0.043527417
진 -0.40311232 -0.97483206 1.1373626 0.11668665 0.67074883 1.0465745 0.78862625 1.0417231 -0.14900114 -0.34401888
의원 -0.142418 -0.56468445 0.8377552 1.2080154 0.037883364 -1.040457 0.8618016 0.5794717 -0.6932779 -0.958969
남 0.4765081 -0.27285692 0.17973194 -0.21552888 -0.033483192 0.26624435 0.68083733 0.41271022 -0.9549881 -0.22981787
부터 0.33892396 -0.13701656 0.18979755 -0.07347046 0.03366116 0.2948706 0.835038 0.47049978 -0.5330917 -0.3909338
탄핵 0.6204945 0.39353505 0.47551498 0.5379865 -0.7311865 -0.21288066 0.90689546 0.7179346 -0.32452944 -0.4644292
이렇 0.24147795 0.48297906 0.35274658 -0.86720914 -0.081539154 -0.4812189 1.14578 0.776508 -0.80136895 -0.0368835
구 0.058873624 0.004372838 0.97927064 -0.17015627 0.10872087 0.7398961 0.52335256 0.8026563 -0.55175835 -0.15154606
꾼 0.19752006 -0.54861146 -0.3049031 0.31749776 -0.019538203 -0.15645048 0.36242658 0.9861781 -2.0791962 -0.28067294
또 0.17746678 -0.3994132 0.36482972 -0.2224899 -0.22168492 0.3800211 0.8527873 0.45526877 -0.5298364 -0.21076305
ㅠ 0.5052648 -0.6612832 2.0154424 -0.20577672 -0.47312406 -0.6206157 0.5302686 0.14077775 -0.5174902 -1.0522732
든 -0.6807723 0.29879782 0.38190132 0.18221654 -0.56661534 -0.34541425 0.5491997 1.0042865 -0.89714354 -1.0984946
3 0.308509 0.095589906 0.24523099 0.74026227 -0.09610486 1.2555209 0.84356385 -0.42085758 -1.1763037 -0.6052312
제 0.03711656 0.029391414 0.4652441 0.28656822 -0.40382934 0.37436786 0.950387 -0.07378477 -0.7479931 -0.27524322
법 0.13112299 -0.05276481 -0.46205088 0.08905962 -0.21213968 -0.25622734 1.3509538 0.81082815 -0.4883075 -0.21400934
❤ -0.27859396 0.7965079 2.1184902 1.2427275 0.72020346 -0.43466717 1.2097068 -0.101044945 -0.5837431 -1.7417552
죽 0.6671229 0.097565435 0.5986125 -0.64729863 0.21706264 0.052645545 1.0852433 0.3224435 -0.6241357 0.05782123
죠 -0.5281901 -0.17406121 0.92848843 -0.32546484 -0.90982354 0.14577238 0.8055698 0.5293108 -0.63103324 -0.1773094
버리 0.8697368 0.4245681 0.7602384 -0.59772867 0.08925937 0.47057712 1.1302875 0.5798855 -0.35880122 0.23790829
?? 0.17224322 -0.4768771 1.130486 -0.7048704 -0.7500662 0.7179585 0.19631894 1.0437833 -1.1652884 0.07765709
한국 0.10646128 -0.2947299 -0.2368611 0.2674254 -0.09023909 -0.10282261 1.0258309 0.34994358 -0.96640193 -0.26178783
ㄴ다고 0.060102068 -0.014668282 0.32063952 -0.48467508 -0.6339738 0.06918589 1.1719403 1.0786483 0.10242776 -0.4796632
두 0.09179807 0.32516134 0.40565342 -0.21922867 0.25009376 -0.06272766 1.152613 0.30685416 -0.7485228 0.05086882
어떻 0.31143373 0.2659726 0.30845773 -0.90940094 -0.38515493 -0.46787065 0.8008038 1.0307064 -1.0814872 -0.016996462
문제 -0.21945311 -0.38292077 0.22472322 -0.33494318 -0.8022097 -0.21833226 0.8466564 0.47022414 -0.9530899 -0.2872997
줄 -0.32539502 -0.1892919 0.77701944 -1.4861761 0.026823618 0.047935415 0.90110487 1.018761 -0.57565415 -0.3580981
처럼 0.17149681 -0.037255537 0.20878296 -0.14062442 0.15088195 -0.058748525 1.1625942 0.5032168 -0.4134925 -0.15592957
며 0.1581793 0.31018725 -0.31288373 -0.002358456 0.1292747 0.14110824 1.4222567 0.7084885 -0.015866773 -0.54267913
국가 0.34976932 -0.04072743 -0.5484206 0.57073855 -0.31542954 0.13985379 1.0326424 0.80351835 -0.7592191 -0.26842707
중 -0.1347377 0.007405191 -0.0685992 0.41678903 -0.13337061 0.21566723 0.9918819 0.104380935 -1.093359 -0.15332583
죄 0.020139841 0.053820495 -0.14528127 -0.54161346 -0.5191029 -0.0961479 0.9704842 0.68299556 -1.0128928 -0.18313347
한동훈 0.3710545 -0.03499716 0.88929945 1.0257661 0.30244973 -0.3699271 0.8199494 0.6151523 -0.5466548 -0.625904
는지 -0.4562582 -0.005234587 0.64682186 -1.0687194 -0.4724688 0.38430616 0.96358716 1.0239081 -0.21933758 -0.4774332
잡 0.8256157 0.010666165 0.40166456 -0.66097665 0.13497011 0.25328928 0.90670615 0.55328614 -0.6795572 0.001230911
때문 0.06852739 -0.3323767 -0.18632782 0.110326365 -0.20897599 0.046332926 1.3089902 0.1226337 -0.52548563 -0.35541153
대표 0.3173539 0.30790293 0.23117594 0.97187996 0.014673385 -0.5357994 0.78392357 0.94098437 -0.6719713 -0.8485746
그러 0.93619645 -0.36950094 0.80682904 -0.7713708 -0.34358802 0.037786387 0.73820806 0.70456785 -0.62787646 -0.023929076
으니 -0.42479733 0.17670703 0.20314524 -0.77951074 -0.56963295 0.8552801 1.1834137 0.26638436 -0.30906808 -0.6680696
구속 1.0172298 0.5895244 -0.014657541 0.3802022 -0.68800056 0.5101508 1.0053024 1.3027213 0.06189328 -0.6096306
니까 -0.15734808 -0.14349136 0.28458107 -0.5252869 0.272792 0.37676436 1.0614188 0.7539785 -0.34782574 -0.24926746
짓 0.009427786 -0.28275225 0.2842841 -0.52027416 -0.07395597 -0.23414023 0.7415674 0.40751648 -1.1017883 -0.2884953
랑 -0.27930266 -0.49757603 0.2564508 -0.11665399 -0.054214872 0.34262064 0.728743 0.4687842 -0.839078 -0.32269636
ㅋㅋㅋㅋㅋ 0.0773919 -0.48535445 1.03643 -0.31360167 0.61386037 1.0951859 0.43544888 0.72415346 -1.292338 0.39403585
무슨 -0.08960953 -0.3812397 0.33187824 -0.249176 -0.38846377 0.070711166 0.5726328 0.68850696 -1.2519071 0.014716916
자기 -0.10958254 -0.183012 0.092561364 -0.41815326 -0.03838303 -0.18126209 1.1971705 0.5455384 -0.5116442 -0.21540152
국회의원 -0.10506559 -0.23039362 0.45977733 0.19709219 -0.1680851 -0.5130929 0.83171535 0.37372482 -0.8596184 -0.35672343
" -0.18462645 -0.10049276 0.29271454 0.7394962 -0.10290645 0.14206852 0.8592593 0.42875275 -0.931176 -0.12456432
건 -0.12876005 -0.45247298 0.30277818 -0.22507212 -0.35398546 0.098601125 0.6033699 0.51563036 -0.91429704 -0.50725293
근데 -0.18803437 -0.53630966 0.5645964 -0.44980788 -0.2563667 0.21759991 0.66520137 0.43024823 -0.8270654 -0.3439543
정부 -0.029949186 -0.21295002 0.050740305 0.45337585 -0.62789166 -0.32189667 1.0246718 0.4969687 -0.7197837 -0.30197787
' 0.33193904 -0.25527802 0.28561845 0.8384279 0.60208684 0.7604216 1.2258968 -0.4085653 -0.64048684 -0.81448793
정신 0.35940647 0.026415488 0.9694893 0.12627026 -0.123444594 -0.16030255 1.133383 0.90192705 0.12286792 -0.10525482
믿 0.31316048 0.21079053 0.8068139 -0.5784179 -0.039572015 -0.5563584 0.9316855 0.41178578 -0.65287286 -0.3712151
당하 0.5195163 -0.111132205 0.12067976 -0.9167495 -0.46817383 -0.1770568 1.0087886 0.73048264 -0.4678407 -0.54302627
어디 0.36310878 -0.28061256 0.47032902 -0.7741678 -0.34869796 0.60033214 0.34954402 0.5477018 -1.2418348 -0.26304695
많이 0.06231933 0.12746425 0.54634494 -0.76300615 0.25216833 -0.21060379 1.1550026 0.45314506 -0.2619521 -0.60546595
본인 -0.040061705 -0.25101924 0.037590194 -0.3794858 -0.23726594 -0.23797017 0.92820156 0.5391232 -0.817055 -0.33973742
잘못 0.029951261 -0.2672183 0.08705957 -0.61372447 -0.9149848 -0.29761505 0.8893792 0.72000384 -0.6911426 -0.5626667
다니 0.14779401 0.043969877 0.44652095 -0.6294067 -0.13344766 0.26651588 0.9579441 0.5111586 -0.5965295 -0.11212885
라도 -0.1967546 -0.0051072566 0.1599889 -0.579081 -0.025320293 0.08354381 1.1302086 0.5848856 -0.38354567 -0.4264617
크 0.15085919 -0.030837763 0.117547415 -0.50180334 -0.33531576 -0.50349104 1.0494219 0.27178118 -0.8835315 -0.41402364
제발 0.07731029 0.06285608 0.9070158 0.1375441 0.14179935 -0.28134724 1.0463818 0.77912706 -0.1941546 -0.19006136
차 0.7036589 0.20263205 0.6111644 -0.010363259 -0.15026717 0.42077026 0.9519361 0.16568018 -0.3280097 -0.3579937
윤 0.063725665 -0.1513766 0.62937075 0.7848202 -0.22241591 -0.39131433 0.7045538 0.47785962 -0.8671066 -0.59150976
부모 -0.0624683 -0.113571085 0.2398656 0.03782584 0.03758498 -0.6274468 0.70334905 0.47699267 -1.0257667 -0.77407914
답 -0.1766143 0.14425454 1.0455817 0.015786547 -0.44363964 -0.1625679 0.6912509 0.5107065 -0.7901721 -0.09624826
뽑 0.6545235 -0.124794275 0.44787008 -0.50125295 -0.37139618 -0.2949095 1.0839272 0.6048367 -0.7624527 0.24337041
여도 0.11963871 -0.16236053 0.44453844 -0.5038283 -0.353373 0.15610133 1.064761 0.65327984 0.04722625 -0.6241696
이상 0.20901632 -0.22282182 0.062228132 0.1407884 -0.26801962 0.0228259 1.0839173 0.20827338 -0.71532273 -0.17729789
힘 0.071594946 0.7658822 0.60680467 0.75077575 0.054420505 -0.4598877 0.9956959 1.0319021 -0.7055065 -0.13894626
듣 0.40374726 0.0028408759 0.70627385 -0.8378827 -0.053602893 0.10386051 1.2186946 0.104117654 -0.4886658 -0.06533039
여라 0.0818338 0.22275274 0.5595849 0.030583609 0.08093286 0.17973085 0.9912165 0.91859233 0.11573402 -0.5906802
ㄹ까 -0.35797244 -0.41783255 0.87250143 -0.2319874 -0.46094668 0.14889215 0.67913735 1.2127886 -0.48108086 -0.08155606
못하 0.18223862 0.07605775 0.23451665 -0.6712449 -0.4044512 -0.3071606 1.4435352 0.38484886 -0.4156213 0.080319844
몇 0.30182496 0.3351875 -0.060983732 -0.0849005 0.12755927 1.2338923 0.7499475 0.19680566 -1.0194541 -0.53449714
마 0.3608981 -0.104651146 0.98835146 0.14641975 0.16555724 0.44611293 0.6961025 0.58002996 -0.60527587 0.140547
저렇 0.28825885 0.12572652 0.391666 -1.1890385 -0.106879264 -0.28279135 1.0667201 0.76484656 -0.7939562 0.0038501604
세금 0.26470023 0.53194636 -0.25458285 -0.023230061 0.08265405 0.083353944 1.538324 0.4763936 -0.5387386 -0.0260362
만나 0.46612152 0.012337785 0.3477686 -0.7139263 -0.12518424 -0.4195795 0.89497316 0.41902965 -0.809076 -0.5347785
… 0.26642334 -0.44870576 1.0172371 -0.22390519 -0.36325765 -0.11655074 0.54992104 0.6121767 -0.5993746 -0.32865804
걸 -0.020988228 -0.3561482 0.095447235 -0.5967974 -0.049280655 0.1237532 0.76429236 1.1599325 -0.68863815 -0.22006564
인 0.19822496 -0.45128912 0.325464 0.31952032 0.2166979 0.35445166 0.88079494 -0.08419876 -0.9072538 -0.21686491
싫 0.6738383 -0.7036393 0.9201679 -0.6290386 0.28903714 -0.08953365 1.2398713 0.17671727 -0.19786124 -0.035070598
아요 -0.4746881 -0.92579603 1.3326005 -0.02974088 -0.42122623 -0.17853548 1.4039773 -0.035390925 0.05123375 -0.30904976
홍준표 -0.0002687018 0.02646392 0.63973004 0.40064165 0.12269248 -0.019850545 0.73779964 0.36386275 -0.7351799 -0.33249757
질 0.49730983 -0.02999588 0.16239731 -0.106629685 0.020265128 0.10337936 1.0883917 0.47179666 -0.38736162 -0.21137103
쓰레기 -0.1569809 -0.79027766 0.2551136 -0.17248015 -0.28156337 -0.17552619 0.8571952 0.33905995 -1.0722744 -0.11722406
화 0.23844841 0.30136374 0.53004736 0.7357821 -0.38036835 -0.24067615 1.0890738 0.2654246 -0.22707221 -0.7516532
넘 0.38553026 0.022365248 0.6696869 -0.01402562 0.043084804 0.36702955 0.8426437 -0.11946767 -0.6515589 -0.41936767
미치 0.13183297 -0.023088679 0.8208121 -0.55551684 -0.24600492 0.49263713 0.62073594 0.36286017 -1.1585754 0.21301928
집 0.16033302 0.1757715 0.070982225 -0.25645968 0.3381143 0.42694384 0.8145597 0.4150083 -0.8145356 -0.48458913
아도 -0.3357373 -0.35011342 0.5903848 -0.31484234 0.26307732 0.2904694 1.1548997 0.6365731 -0.282764 -0.051375434
은데 -1.0569925 -1.1246027 0.85590506 -0.5653369 -0.76841414 0.0032490632 1.2454803 0.24289134 -0.8283861 -0.003580662
꼭 0.18790026 0.22604595 0.5834778 0.038913406 0.15430836 -0.23790613 1.1824601 0.6668373 -0.07437576 -0.35912567
소리 0.31019554 -0.35377166 0.43998274 -0.53636724 -0.17996106 0.1410064 0.98474306 0.5309887 -0.44379258 -0.059626255
까 0.30466473 -0.1987722 0.8257269 -0.5430537 -0.024554806 0.46595156 0.51502246 0.637994 -0.835439 -0.12760535
려고 0.16825223 0.043047115 0.08940452 -0.6108732 0.15271983 0.4019266 1.0050522 0.89571637 -0.30199942 -0.34557933
재명 -0.2916293 -0.20431918 0.44217825 0.14462088 -0.299224 -0.17479569 0.74431956 0.6122615 -0.8621964 -0.27463806
무 0.30037975 -0.14782675 0.2131359 -0.09893168 -0.23141105 0.18785635 0.7278245 0.47357786 -0.8754688 -0.18533124
ㅋㅋㅋㅋ -0.06876436 -0.53182185 1.0301963 -0.23823039 0.33962822 1.2399715 0.44758844 0.53847474 -1.4221239 0.3638431
러 -0.038667228 -0.36508712 0.61542565 -0.40339804 -0.17242551 0.14078784 0.6807267 1.0874927 -0.6435498 -0.076915435
스럽 0.15249562 -0.199603 0.95639974 0.39420682 0.07687354 -0.6905462 1.107312 -0.14163207 -0.4151116 -0.70255965
같이 0.477911 0.027983055 0.21574824 -0.350761 -0.06994333 0.16619512 1.1548868 0.44526318 -0.30624008 -0.25869378
ㆍ 0.2515397 0.51254433 0.61953026 0.22390567 -0.37966418 -0.13513792 1.1529442 -0.06177189 -0.29976383 -0.81554955
아직 -0.12612715 -0.20984676 0.4296926 -0.40214384 -0.19055764 0.3496543 0.8846941 -0.0071474384 -0.87772495 -0.26229593
가족 0.079453245 0.08697003 0.15977545 0.40051046 0.060434304 -0.4314248 0.8799478 0.65350705 -0.8103622 -0.4060043
형 0.0625494 -0.040315684 0.6085329 0.21612334 0.19955184 0.22017376 0.5896489 0.5268584 -0.6904686 -0.5253395
국 0.15306377 -0.35375366 0.65228 1.0100139 -0.27654663 -0.30085745 0.73692673 0.547392 -0.84602416 -0.2203443
방송 0.24343793 -0.118738845 0.43424398 -0.013838443 -0.009957001 0.08821938 0.5829447 0.65736645 -0.74596995 -0.43431684
우 0.23146246 -0.077079445 0.8030242 0.079963244 0.24335116 0.3663825 0.6078519 0.5912763 -0.7328344 -0.124487065
해 0.28627035 -0.04079374 0.5110077 -0.05663246 0.1745085 0.5688859 0.7506398 1.0262401 -0.48453027 -0.001628239
앞 0.3118351 0.16711335 -0.23828332 0.13394561 -0.24477082 -0.28794047 1.3058854 0.068002164 -0.74018854 -0.49861696
이유 -0.17802995 -0.13591214 0.062133137 -0.3181884 -0.87192035 0.35403422 0.7942728 0.3360305 -0.7815535 -0.5935885
범죄 0.21276891 -0.20420283 -0.39071095 0.13645093 -0.35060936 0.2194699 0.9076688 0.5850658 -0.8757209 -0.2995596
가지 0.23313443 0.07085649 -0.19677205 -0.3865816 0.045597915 0.2705766 1.1522189 0.29138458 -0.6889309 -0.25705668
재 0.018327637 0.32257825 0.5120827 0.49499488 0.28424233 0.33283484 0.39252678 0.39003202 -1.2185657 -0.752788
이준석 -0.014043789 -0.37237722 0.447616 0.19791903 -0.17803565 -0.038846433 0.7197279 0.7089034 -0.6286623 -0.2988028
힘들 0.41244096 -0.16159372 1.0756176 -0.81407857 0.020355478 -0.24049295 1.2941524 0.0050435853 -0.24982916 -0.28403446
세상 -0.37436336 -0.28400174 0.51359254 -0.29098713 0.16906925 -0.08671279 0.93745875 0.47292158 -0.61358374 -0.33170462
판사 0.038884223 -0.03727877 0.3625797 0.34436655 -0.14248496 -0.2586098 0.7515819 0.70765907 -0.7604253 -0.27852932
성 -0.24142037 -0.08239918 -0.009223993 0.14737427 -0.106958464 0.16566293 0.83633095 0.3785033 -0.9189271 -0.42623878
다가 0.16064419 0.19630809 0.3171433 -0.82675016 0.088308685 0.9824649 0.98472816 0.5766194 -0.3502414 -0.29744875
다른 0.10861263 -0.14592355 -0.12770976 -0.28731126 0.04711105 -0.16041142 1.1908045 0.28154886 -0.81472063 -0.17414194
달 0.5425257 0.057736944 0.08471201 0.081672475 0.10523748 0.63846296 0.8266681 0.50757986 -0.7982193 -0.07605592
얼마나 0.00089699886 -0.1909257 0.56960225 -0.56626916 -0.2152443 -0.19945525 0.8040084 0.43855828 -0.62229276 -0.5850815
터 -0.013841058 -0.15243965 0.2878129 -0.750092 -0.34782067 -0.02803819 0.32334155 0.52274024 -1.3526168 -0.94744956
모든 0.267088 -0.06663025 -0.292774 0.38312066 -0.1466162 -0.37270322 1.2900785 0.2202823 -0.5841277 -0.49906263
속 0.32240486 0.13660803 0.6746735 -0.07246979 -0.24293819 -0.25260964 0.710276 0.34650734 -0.6952808 -0.55131847
찍 0.28813398 0.30200136 0.6446886 0.09868431 0.16423723 0.6127603 1.043145 -0.1757002 -0.76035106 -0.06371675
권 0.20979169 0.0287438 -0.23190868 0.26929754 -0.1935252 0.2445604 1.2257612 -0.11486762 -0.6614873 -0.5202441
그런 0.068805404 -0.013916807 0.28416887 -0.527507 -0.28912264 -0.09281563 1.0119678 0.42957708 -0.84353423 -0.057754416
다시 0.29658088 0.061238855 0.59312314 -0.52658373 0.14305502 0.24471286 1.07001 0.43123373 -0.28240743 -0.18863577
남현희 0.07159297 -0.3699468 0.27654952 -0.012115739 -0.35508373 0.24421048 0.5808483 0.46330363 -0.9736595 -0.33160377
감사 0.2036533 0.8489938 1.497946 0.3766323 0.18545505 -0.72005147 1.0852256 0.2272678 -0.14710896 -1.3758808
보내 0.7241693 0.43342003 0.57504076 -0.15566011 -0.1977035 -0.13387479 0.9247934 0.8394829 -0.36095607 -0.16674146
5 0.21915482 0.16125621 0.34609663 0.79272705 0.13675888 1.2797971 0.8454192 -0.26879206 -0.9243553 -0.9848206
구나 -0.3595978 -0.008609987 0.7857821 -0.5393963 -0.5885939 0.7214382 0.7781321 0.24650602 -0.6215557 -0.40611926
조 0.17425634 -0.11084321 0.19983006 0.39991063 -0.08612164 1.0934148 0.52979505 0.3306167 -1.2215872 -0.10461385
😂 -0.19785517 0.48765084 1.839213 0.7538816 0.58363926 0.2427454 0.5653737 0.31826162 -0.79332983 -0.6953855
필요 -0.2935413 0.23533176 0.398494 -0.49438956 -0.43535188 -0.37947565 0.90334904 0.36480385 -0.8203673 -0.61632395
그리고 0.021455692 -0.1797308 0.61288404 0.18126477 0.046221413 -0.10008202 0.7311544 0.29280144 -0.70245624 -0.49304742
하나 -0.14228104 0.15431978 -0.11981139 -0.1960611 -0.29662994 0.2856705 1.0037868 0.28937504 -0.9637357 -0.24286821
사실 -0.107380755 -0.13527632 -0.027861964 -0.0909528 -0.3580878 -0.18776855 1.0177195 0.3298737 -0.8472692 -0.25815043
저것 -0.28497678 -0.24497871 0.5194618 -0.36637294 -0.44485775 -0.24483421 0.5080007 1.0020528 -1.0909381 -0.21810994
사랑 0.17394683 0.3330429 0.7387616 0.39282843 0.10485159 -0.6071818 1.0455749 0.54535997 -0.22833478 -0.7523761
^ 0.55640006 -0.36875537 2.472761 0.9659471 -0.40220198 0.41304758 0.6907254 0.05443624 -0.26939204 -1.0047835
정도 0.14153545 0.17252319 0.29942393 -0.19846347 -0.6774928 0.38729906 0.68259984 0.21966605 -0.77380896 -0.782744
거짓말 0.38485718 -0.14924483 0.3691138 -0.20107299 -0.4323571 -0.2836185 0.82000756 0.6360036 -0.6392939 -0.31877333
사건 0.15168522 -0.0007475816 -0.57257015 0.09242781 -0.35725987 0.26955536 1.0601659 0.34081572 -0.88664055 -0.49750036
우리나라 0.17599986 -0.16890396 0.4067133 0.37264544 -0.24854968 -0.12880778 0.8449889 0.4766011 -0.68858826 -0.24262948
나요 -0.11172724 0.057944253 0.7693784 -0.82016945 -0.9275298 0.7416645 0.64722204 1.0828656 -0.6359299 -0.06467327
대단 -0.024708662 -0.23591433 1.2990148 0.11645503 0.16703565 -0.4252712 0.628567 0.52456266 -0.44446564 -0.6611614
계속 0.25697547 -0.008929615 0.40454334 -0.33358267 -0.16304986 -0.0061378228 0.85358906 0.48798773 -0.4696089 -0.5183238
바 0.19215995 0.02528567 1.016693 -0.16771272 -0.11181748 -0.059221674 0.61174744 0.4922467 -0.54698277 -0.55045927
런 -0.48435095 -0.64098567 0.47044563 0.012874486 -0.33338898 -0.43239263 0.85785437 0.92331576 -1.098535 0.08472855
나가 0.62831116 0.021280432 0.6572052 -0.6665558 -0.12370456 0.21289662 0.7341332 0.57374054 -0.5923119 -0.28289744
증거 0.2708534 -0.05281013 0.14927979 -0.5332408 -0.655521 0.22566155 0.8456951 0.22846907 -0.6542448 -0.66032463
국회 0.34357238 0.13419838 -0.13488609 0.115165286 -0.44926137 -0.25530672 1.0666337 0.96346015 -0.5230883 -0.1677549
망하 0.44642052 -0.04158514 0.2155538 -0.5126678 -0.86974275 -0.3622033 1.0365646 0.6318462 -0.46226948 -0.50464374
최고 0.33750287 0.082508445 1.130542 1.2448634 0.0046450053 -0.43378142 0.87757 0.3039639 -0.562648 -0.81622916
얼굴 0.08092007 -0.17156209 0.3377582 -0.53026444 0.11770664 0.32278046 0.8052085 0.5824007 -0.70227855 -0.25022048
ㅂ 0.27094758 0.2351455 1.4382197 0.20438996 0.28675827 0.14707308 0.3512173 0.80274236 -0.37839234 -0.9608219
4 0.19346866 -0.06562806 0.15241456 0.9857707 -0.069319345 1.0954076 0.80468607 -0.1714264 -1.3977805 -0.45048508
!! 0.30247787 -0.20658506 1.6633248 1.1039059 -0.59070927 0.14446908 1.1395379 0.37029332 -0.2345672 0.26892453
끝 0.17927821 0.4830507 0.71113586 0.033895757 -0.061687388 0.076138236 0.7690335 0.104561806 -0.45530668 -1.202161
ㅉ 0.5323275 -0.5698955 0.7873901 0.14727 -0.03482606 0.95052326 -0.21120127 0.67047465 -1.4966718 -0.9127361
없이 0.04938415 0.065789804 -0.11800631 -0.39460248 -0.2933385 0.19271637 1.3206774 0.10837955 -0.5111574 -0.36885002
길 0.12155883 0.14792508 0.66650003 -0.51476157 0.098307975 -0.23278002 1.0777969 0.62425935 -0.23006588 -0.49160305
노 -0.2399059 -0.51477075 0.82249916 -0.16116123 -0.18873005 0.8011243 0.6272353 0.6554399 -0.7917268 0.107736394
을까 -0.3716799 -0.0075752893 0.62552714 -1.1325529 -0.73694164 1.0427996 1.0244074 0.5260062 -0.59894115 -0.076187424
검사 0.2206325 0.058853995 0.22876938 0.53877443 -0.09809854 -0.19368304 1.118542 0.39674702 -0.54434323 -0.27766293
눈 0.06383841 -0.13588639 -0.08895351 -0.5180027 0.07648458 0.24218544 1.069918 0.18596965 -0.8142885 -0.3409064
피 0.32189324 0.035223447 0.14070028 -0.13061385 0.21100883 -0.04857647 1.0584154 0.6774686 -0.39510587 -0.39229655
마음 0.16547316 0.12018633 0.34344178 -0.1704442 0.087040335 -0.3287838 1.0399951 0.32938698 -0.5433593 -0.4916548
벌 0.39194772 0.23960711 -0.07028302 -1.0264652 0.6057216 0.45746726 1.1709985 0.6715134 -0.82016474 -0.08583092
미 0.03128759 -0.29987347 0.25345504 0.375583 -0.006522838 0.64484704 0.59952575 0.5983149 -1.0683142 -0.021116082
생기 0.3497155 0.13768163 0.51960063 -0.7669112 -0.4066238 0.009233451 1.1556007 0.19369303 -0.65723926 0.024791136
억 0.42948464 0.059783716 -0.02551864 0.22267376 0.2857693 1.307682 0.83174527 0.05267372 -1.007766 -0.28837007
둘 -0.057866883 -0.44318715 0.5519794 -0.18166631 -0.06331059 0.2554072 0.6751506 0.15349177 -0.98973024 -0.20658359
중국 0.2238239 -0.12066102 0.5329703 0.4167404 -0.09188354 0.007188745 1.1303979 0.2689644 -0.36909774 -0.12580746
아이 0.04584739 -0.25203246 0.3494574 -0.2692738 0.05348254 -0.22005619 0.95477384 0.36855772 -0.5910578 -0.46692073
인생 0.14161965 -0.30829164 0.10713488 -0.22800483 -0.04286262 -0.14399502 0.85847133 0.6632385 -0.5945075 -0.5245283
곳 -0.31045115 -0.08136814 -0.09999717 -0.45859188 -0.3344576 -0.08385274 1.0681767 0.41853702 -0.85735285 -0.38181126
어야지 0.119937904 0.33563873 0.60478026 -0.5081965 -0.035743423 0.75407463 0.7856275 0.9744964 -0.37187588 -0.16733047
지키 0.40462703 0.54979193 0.09605116 -0.5594287 0.10934379 -0.47863218 1.5035834 0.67744184 -0.3280134 -0.26668525
수준 -0.34820807 -0.17679788 0.36720705 0.0064841188 -0.07936525 0.003919053 0.7621857 0.62037736 -1.0001745 -0.07255866
이거 -0.004543485 -0.4062263 0.79561526 -0.20325272 -0.06436726 0.35467675 0.6303914 0.50941795 -0.69910604 -0.18435591
영상 -0.035691295 -0.13217145 0.34120616 -0.39757642 0.012188423 0.3632072 0.7128423 0.6665231 -0.68577886 -0.34668475
대하 0.59953725 0.07731077 -0.45352903 0.03885887 -0.07933238 -0.33712205 1.4287926 0.5365399 -0.41205063 -0.40384
10 0.40262717 0.0033814565 0.40081507 0.6021761 -0.13797085 1.2372397 0.67012995 -0.2238363 -1.0044082 -0.82216495
물 0.60348797 -0.06685116 0.13141157 -0.41157776 0.19229251 0.31193292 1.1113436 0.48519018 -0.41119742 -0.17492652
제대로 0.23061746 0.03459455 0.39358273 -0.69154006 -0.37066525 -0.057942767 1.0594946 0.64521754 -0.38724127 -0.30714348
으 0.044760153 0.11152649 0.9435628 -0.16540948 -0.06973522 0.30081776 0.69418937 0.45059478 -0.5762409 -0.3539479
용혜인 0.3421595 -0.08801178 0.85211414 1.186031 0.10395218 -0.7191648 1.0755 0.5187924 -0.578465 -0.8029451
함 0.27208686 -0.14935692 0.591911 0.032112867 -0.32510105 0.35700014 1.1679537 0.5700209 -0.021374019 -0.085758366
막 0.525415 -0.037119012 0.2617341 -0.6242689 -0.3776776 -0.11366461 1.3793646 0.44407707 -0.26296368 -0.029121887
요즘 0.034170702 -0.34572953 0.4377456 -0.08908508 0.010314868 0.16404058 0.70781565 0.28601584 -0.82490224 -0.38165188
어떤 0.14431669 -0.26601273 -0.0053495774 -0.24866244 -0.13671982 -0.102196485 1.0226173 0.18960269 -0.98241985 -0.15668595
범죄자 0.254594 -0.100358784 0.19254164 0.07790185 0.0195217 -0.07145782 0.83272284 0.68970317 -0.6255097 -0.29483065
다르 0.14616096 -0.35865384 0.49790713 -0.24841473 -0.4230641 -0.11331646 0.49103898 0.48289323 -1.2215251 -0.25034723
팔 0.6791012 -0.12753943 0.4319931 -0.53302073 0.16610806 0.34396213 1.0118022 0.60869026 -0.47235516 0.10470123
란 -0.232855 -0.23145479 0.12602077 0.2762899 -0.2442223 -0.3356729 1.1273962 0.34424144 -0.9581386 0.033809233
뿐 -0.29321915 0.042930968 0.32311806 0.009289939 -0.36096972 -0.28954378 0.86624837 0.19631116 -1.1872243 -0.22469826
다면 -0.20344052 0.21172632 0.35503218 -0.6455106 -0.7821189 0.2836873 1.0503616 0.2663571 -0.49368915 -0.6590005
ㄴ다는 -0.29233375 -0.095524006 0.3368318 -0.50503165 -0.4730078 -0.27483532 1.2507368 0.7707205 -0.3936327 -0.042741776
~~~ 0.36839494 -0.028472729 1.0688058 0.51362354 0.1764966 0.2517261 0.52477276 0.65812147 -0.5438892 -0.34173226
죽이 0.7965299 0.2223559 0.11910478 -0.61082435 -0.03945238 -0.011196297 1.2568554 0.45705363 -0.41947612 -0.24920656
친 -0.108524226 0.08137591 -0.0064358907 0.40692258 -0.16685529 0.19881915 1.1523077 0.11796554 -0.9416913 -0.0857379
등 0.22969207 -0.0145990355 -0.2806601 0.29836366 -0.0028312292 0.5276188 1.1567721 0.18648149 -0.80077475 -0.13190463
신 0.15964042 -0.24605523 0.3527353 0.28600058 0.066555776 -0.10321049 0.74018866 0.41548344 -0.79991055 -0.36109257
지지 0.27808452 0.39289367 0.6689006 0.5344786 0.04533537 -0.51844805 1.2384304 0.12931763 -0.11196099 -0.9065553
올리 0.43965638 0.08278595 0.39758626 -0.60926336 0.097783126 0.16798438 0.8272555 0.4320409 -0.67134094 -0.34647724
정권 0.29066697 -0.098474815 -0.2258239 0.24474157 -0.21603635 0.062731795 0.9348856 0.40332797 -0.60519344 -0.8213863
자식 -0.1532894 -0.21313672 -0.046301372 -0.022442019 -0.18652599 -0.4806664 0.9409326 0.5885452 -0.84257567 -0.5472587
웃기 -0.013295061 -0.39036128 0.94138813 -0.39683998 0.29649618 0.38156015 0.6059493 0.30711922 -1.1799859 0.23543172
👍 0.7801554 0.35247347 1.8674418 1.2626524 0.44111592 -0.08990968 0.8561394 0.09993344 -0.70696366 -1.4033982
한심 -0.059828985 -0.30644962 1.1796732 0.014180989 -0.26981017 -0.28587472 0.8060196 0.45881072 -0.5048959 -0.10764274
날 0.053322762 -0.08783463 0.41745505 -0.21660024 -0.005362812 0.35847023 0.8277379 0.29415962 -0.49732557 -0.61524796
정 0.08047593 0.06986817 0.3732044 0.29542992 0.09267028 0.0033251694 0.76933706 0.36162278 -0.7409101 -0.5384499
역시 0.09644045 -0.22769758 0.8746304 0.7188418 0.13967568 0.1215786 0.5074827 0.41513392 -0.8252839 -0.40298012
모두 0.14471416 0.1963182 0.06892352 -0.013995763 -0.050786164 -0.23786646 1.2156256 0.43670407 -0.42491826 -0.39473364
아야지 -0.14970651 -0.059665572 0.48537567 -0.42701638 -0.027209712 -0.0370064 1.1118454 0.9679391 -0.226128 -0.120700054
이해 0.32802626 -0.04085632 0.36822596 -0.77396894 -0.7370367 -0.30503494 1.0357418 0.5667872 -0.51660055 -0.3790412
나쁘 0.10309508 -0.4681696 0.25528142 -0.41720012 -0.24388644 -0.38249993 0.96618354 0.13729121 -1.0993974 -0.027025122
% 0.45723355 0.0475314 0.34004095 1.1833423 -0.0711736 0.79463035 0.71280384 -0.062273 -1.0162884 -0.61664546
위 0.3283949 -0.009447161 -0.03561763 0.6636714 0.06723266 0.33472443 0.9898975 0.29592177 -0.6957144 -0.43497163
처벌 0.70554143 0.21411438 0.38066247 -0.30442947 -0.2403139 -0.323369 1.5409715 0.8210002 0.23941663 -0.26663056
으시 -0.31289732 0.37697932 1.1229366 -0.28030893 0.42545232 -0.47576353 1.302641 -0.1721342 -0.37731344 -0.78291893
얘기 0.17208196 -0.15217496 0.389033 -0.4555383 -0.160321 -0.068537556 0.8520041 0.46835026 -0.6019577 -0.5007859
세계 0.3438767 -0.06614257 -0.42936215 0.7357279 -0.2181576 0.09237976 0.9497355 0.44200706 -0.79099494 -0.8636401
지방 0.14424892 -0.10554913 0.089643165 0.32853338 -0.2228411 0.21114793 1.0787292 -0.06048953 -0.7677097 -0.3045872
시간 0.05623552 0.29653054 0.24263029 -0.42057443 -0.22167595 0.26382366 1.0004883 0.24291863 -0.4832291 -0.6198131
조사 0.67016244 0.27632397 0.24005105 -0.24269284 -0.30278978 0.12421869 1.0730535 0.80059975 -0.153592 -0.37310207
피해자 -0.055203345 -0.1409141 0.21599163 -0.28310737 -0.10126551 0.013965507 0.8423308 0.4878399 -0.71006644 -0.38425297
엄마 0.07929209 -0.26393756 0.48031873 0.099843994 -0.10946219 -0.10255044 0.5800083 0.50786597 -0.94487566 -0.36776048
모 0.05448311 0.015020602 0.3263123 0.08279807 -0.22621632 -0.13612553 0.55876136 0.56605023 -0.9739455 -0.6127227
세요 0.092322834 0.59428453 1.2148815 0.5923631 0.34092104 -0.24095961 1.0248543 0.76595724 0.14409827 -1.1084384
바라 0.6318925 0.5742246 1.2168783 -0.36938912 -0.55809706 -0.6238717 1.0806642 0.5765744 -0.05250489 -0.74283195
다음 0.34847364 -0.02275566 0.0022538856 0.37985018 0.1449494 -0.107742555 0.99272317 0.4927981 -0.6631437 -0.39031857
= 0.44799373 -0.1657592 0.08977235 1.4080359 0.05797568 0.8448828 0.9797673 -0.38671038 -1.3267158 -0.57684714
결국 0.019045956 -0.1966093 -0.040473245 -0.40143093 -0.20837751 -0.10787577 0.97854877 0.3366551 -0.8326111 -0.42742455
20 0.37542 0.058890626 0.42530388 0.89380896 -0.02678046 1.2561226 0.8319498 -0.07791001 -0.9103656 -0.44029516
열 0.56035304 -0.12099893 0.49407965 -0.2918823 -0.096130684 0.28320262 0.7940737 0.40847299 -0.4031798 -0.5012968
/ 0.36637002 -0.0061544296 0.4599997 1.2428427 -0.12028357 0.81310964 0.79192066 -0.46442783 -1.1607655 -0.8006635
배우 0.24198681 0.13727617 0.68196875 -0.3574821 0.026415441 -0.22863284 0.9471657 0.43776456 -0.55600345 -0.2871805
타 0.4921447 -0.1752182 0.436768 -0.10428005 -0.055844955 0.26775047 0.848039 0.39220712 -0.4181057 -0.41322348
라면 -0.5650282 -0.18407272 -0.0025214327 0.039903693 -0.21240872 -0.13753755 1.0209416 0.519069 -0.9682299 -0.17172585
ㅂ시다 0.14214846 0.30136636 0.8268207 0.3223292 0.004709954 -0.1715345 1.3911501 0.674461 0.37594414 -0.4262454
그만 0.33847132 0.063620724 0.7630919 -0.5203983 0.00025410228 -0.07121982 0.9857473 0.6924873 -0.17692664 -0.33957312
상 -0.09209116 -0.42091018 0.37972632 -0.07047589 -0.12059523 0.103064924 0.8776471 0.22803618 -0.84326714 -0.12654155
키우 0.4234674 0.3123516 0.2380311 -0.7366578 0.22077172 -0.1325927 1.1130555 0.5259435 -0.65986824 -0.23562467
비 0.152013 -0.155223 0.12497621 0.16882181 -0.1546195 0.16866407 0.8808876 0.3683965 -0.7709513 -0.24315459
찾 0.6158333 -0.12561496 0.35818952 -0.9042193 -0.29926386 -0.058818743 1.1502064 0.3699883 -0.39070773 -0.31642058
장 0.12491701 0.07849354 0.5348596 0.4990831 0.204002 0.63058853 0.5339761 0.31631356 -0.933584 -0.5258027
뻑 0.46353048 -0.222273 0.8238634 -0.1739533 -0.12527403 0.32453388 0.40364808 0.70511144 -0.9035225 -0.089572266
행동 -0.055091396 0.05432351 0.049949963 -0.27772266 -0.33744043 -0.40056774 1.0761695 0.6297512 -0.66555023 -0.35081822
ㅂ니까 -0.2420649 0.044070248 0.6974958 -0.26969165 -0.2945486 -0.124663174 0.7683439 1.1807501 -0.66054666 0.10729016
자신 0.022903597 0.1387184 -0.09690091 -0.13466506 0.078764245 -0.1878794 1.2190075 0.45827872 -0.6552571 -0.19796267
제주도 0.40529183 0.14789218 0.309228 -0.021715486 0.12515669 0.15913427 0.86575377 0.35317406 -0.6392605 -0.41015103
경제 0.11533026 -0.055114195 -0.18286017 0.16414985 -0.1961999 0.22983696 1.1445525 0.12050343 -0.56692994 -0.50219977
기업 -0.018367907 -0.029082997 -0.08457334 0.16510814 -0.3456551 0.27730748 1.028013 0.46264744 -0.7253873 -0.20355207
세 0.2810182 0.22194903 0.61111796 0.41524443 0.19377956 0.32473117 0.81289107 0.486179 -0.45404148 -0.4862465
언론 0.13704357 0.16071929 -0.22859497 0.13083434 -0.20931277 0.03125815 1.0651429 0.40327275 -0.7585222 -0.39641547
이러 0.33057383 -0.12298475 0.7146432 -0.4974714 -0.014229294 0.2524407 0.72546214 0.45626077 -0.7023969 -0.12825404
계 0.1484767 0.39135996 0.6222655 0.2785336 0.20945598 -0.19694883 0.88555413 0.47432032 -0.4077496 -0.8410925
뒤 0.49125406 0.1287465 -0.15904352 -0.15891282 0.11070924 0.45880583 0.87113506 0.23445542 -0.834343 -0.64992005
키 0.51194227 0.40620482 0.947125 -0.42346334 -0.051163305 0.31011254 0.65160704 0.9394418 -0.4540754 -0.21220489
사회 0.13338587 -0.11599674 -0.22054844 -0.118893385 -0.07059407 -0.0742568 1.1952777 0.62598175 -0.53328884 -0.2671183
똑같 0.22871959 -0.6438384 0.5211909 -0.0770322 0.09458134 -0.26809552 0.6629357 0.16224393 -1.1490817 -0.29527435
빨리 0.58721894 0.2271351 0.8115651 0.018196689 -0.17741485 -0.049115185 0.86230004 0.75101805 -0.06990526 -0.614206
는다 0.18558171 -0.33951634 0.58021694 -0.27617118 -0.28411537 0.58229077 1.3220751 0.35523778 -0.03268552 0.079836845
말씀 0.17973101 0.32653806 0.79958 0.52718693 0.2602911 -0.5415335 0.90033036 0.17547214 -0.5310449 -1.1409134
자리 -0.092547104 -0.06784638 -0.0916716 -0.18359852 -0.11764439 -0.16917934 1.1214262 0.4987187 -0.6446609 -0.4829318
꼴 0.11041517 -0.4135114 0.9114778 -0.36793166 -0.21308401 0.18590063 0.74102724 0.88206035 -0.34564984 -0.1642331
건강 0.15220359 0.5903065 0.75993276 0.05838453 0.2527987 -0.66229576 1.1561284 0.5188905 -0.23029703 -0.9028674
생 0.19690232 -0.060704857 0.46480793 0.1218957 -0.0002827881 0.8127766 0.6390432 0.15011115 -0.78126013 -0.49679232
뉴스 0.2543275 -0.042366505 0.37631166 -0.0047991304 -0.09214214 0.38583046 0.7442979 0.55218816 -0.53210044 -0.46625072
간 0.16243625 -0.3165991 0.1023421 0.25960237 -0.025864592 0.75988686 0.69917125 0.045207214 -0.9234229 -0.5841392
래 -0.2570847 -0.13901825 0.6486922 -0.2738159 0.044030916 0.44353852 0.81678075 0.44416323 -0.6124457 -0.33285674
ㄴ가요 -0.54637456 -0.32079172 0.58363134 -0.07275594 -0.5737275 0.124085404 0.5239674 1.4324121 -1.2927797 0.26845062
후 0.24784182 -0.092013314 0.14586586 0.23162119 -0.115162455 0.4332802 0.8908404 0.24313766 -0.51679605 -0.5066192
미국 0.1406918 -0.109162755 -0.03890516 0.23266864 0.013501175 0.06050384 1.0431561 0.18676843 -0.86404544 -0.24723116
려 0.29047355 0.1540507 0.3373908 -0.102129996 -0.16016619 0.17296964 0.96547526 0.8383713 -0.09916857 -0.57363945
거짓 0.20245758 -0.06464375 -0.28901035 0.4150239 0.0073410375 -0.20206386 1.1151798 0.37892336 -0.820893 -0.46473163
바로 0.24239643 -0.24385293 0.27493232 -0.29621282 -0.14201292 0.22753134 0.90367264 0.54788476 -0.5516724 -0.18952173
부 0.045547433 -0.073884696 0.16808964 0.17112897 -0.037009917 0.15087666 0.84504956 0.51164407 -0.5259442 -0.5744613
😢 0.4125074 -0.16204116 1.5926611 0.18607289 -0.061929908 0.36223 0.37165794 -0.2003683 -0.9396615 -0.49965256
불 0.15606777 -0.16988547 0.22497523 -0.10704019 0.19958472 0.16843678 0.96814907 0.36572418 -0.5823099 -0.3358748
디 0.2380902 -0.15682071 0.8219554 -0.29648852 -0.07272723 -0.0143244695 0.66758025 0.47493768 -0.6459632 -0.29339263
당신 0.024991114 -0.016960196 0.541582 -0.13307355 -0.049000274 -0.4893975 0.9693683 0.4500369 -0.5416194 -0.58445346
스 0.20258842 -0.16968405 0.5315095 0.08690511 -0.03524075 0.397624 0.6358194 0.47162062 -0.7482606 -0.16274576
는가 -0.27870908 0.0546599 0.4343276 -0.856257 -0.62780434 0.4064845 0.90893394 0.68141824 -0.5647783 -0.34901193
새끼 0.00022955841 -0.49252537 0.12088646 0.058913823 -0.022562014 -0.019667178 0.740525 0.7515104 -1.062572 0.067655794
웃 0.3477527 -0.28974962 0.71410584 -0.62856716 0.21420377 0.46628803 0.7430144 0.10323087 -0.85173064 -0.12701869
시장 0.27568516 -0.11125181 0.39996654 0.80533934 0.13186197 -0.26203966 0.8294476 0.2878346 -0.66956043 -0.7731663
,, 0.40161216 -0.2401732 0.14628729 -0.052792642 -0.21166348 0.38822442 0.80579644 0.4395491 -0.5951224 -0.4630224
더니 0.016161075 -0.051691864 0.6418997 -0.5208027 -0.28174177 0.57550937 0.8721059 0.50053555 -0.21853529 -0.5850522
자체 -0.31474626 -0.19613682 0.19510143 -0.44188985 -0.32013768 -0.0065124244 0.91665125 0.57038033 -0.9801792 -0.014608093
저러 0.1372999 -0.2847819 0.9044564 -0.8932416 -0.28157297 0.1694884 0.8331809 0.38591194 -0.8903777 0.10119752
임 -0.10747823 -0.29186422 0.44062304 -0.22134796 -0.3099882 0.33962536 0.7526483 0.4069312 -0.9639139 -0.033342723
뉴스타파 0.16473554 0.43785048 0.9550587 0.71542317 0.15553285 -0.41045913 1.0114616 0.42354417 -0.21572724 -0.9221807
발 0.22563392 -0.07969535 0.38089788 -0.013669758 -0.05066907 0.36813757 0.8663496 0.28390506 -0.5294869 -0.44402722
거나 0.15444037 0.03387988 0.061344963 -0.44587934 -0.15360178 0.07570975 1.1417993 0.7094772 -0.38558826 -0.17785601
..... 0.13488021 -0.32120815 0.6679802 -0.12283032 -0.37562162 0.043889713 0.78570914 0.18830319 -0.63123095 -0.37384117
뭔 -0.1193413 -0.26734444 0.27317798 -0.35821295 -0.38989723 0.25512722 0.67315525 0.6833057 -1.0698148 -0.031240959
죄명 -0.06240125 -0.26375908 0.52940094 0.28396642 -0.1233464 -0.08601284 0.7696659 0.6530287 -0.80260366 -0.026980415
서울 0.18311122 0.008687418 0.10327651 0.25299728 -0.038972713 0.14288293 1.0474429 0.10307462 -0.72641784 -0.37266976
마약 0.07811621 -0.011704705 0.06879024 -0.1567955 -0.26853314 0.11369054 0.9235134 0.57596755 -0.810999 -0.14192924
머리 0.13213596 -0.31219742 0.39238194 -0.1757841 -0.009098394 0.1088947 0.7236808 0.42272505 -0.8437218 -0.26418516
이미 0.1290131 -0.082878456 0.2505604 -0.3873615 -0.2799266 0.109634146 0.95398384 0.21584015 -0.66072565 -0.47816232
100 0.5300038 0.4092075 0.37089574 0.45903438 0.085605085 0.65949327 0.71148616 0.10987014 -0.76150876 -0.7648248
그래서 0.033935267 -0.19417723 0.6141687 -0.22891554 -0.19132479 0.14690326 0.6559616 0.51200306 -0.75667155 -0.30703124
정상 -0.10286125 -0.3838954 -0.1467783 0.034431174 -0.6941372 -0.38730285 1.1206534 0.638664 -0.9659196 0.011222254
지구 0.20845464 -0.1408553 0.2766645 -0.09877548 -0.3676784 -0.08792434 0.91233104 0.43598765 -0.64386886 -0.3385276
무섭 0.22999369 -0.35117638 0.6592464 -0.5659681 -0.1826024 -0.20814557 0.7809323 0.4366184 -0.92966306 -0.01079401
운전 0.54554653 0.014242926 0.33309108 0.27255377 -0.20521025 0.36346796 1.0299742 0.28515115 -0.27758747 -0.31137753
늘 0.30472088 0.37335953 1.009909 -0.03119184 -0.0016931406 -0.12477471 0.83213115 0.37606648 -0.31903696 -0.59939826
나이 0.06826722 -0.0084068235 0.4058976 -0.3890344 0.1526833 0.113224134 0.8273992 0.34352174 -0.6687663 -0.56657696
여기 0.18379956 -0.007857543 0.80303824 -0.052742627 -0.12960184 0.089337476 0.5331246 0.4336542 -0.9465445 -0.31949624
부르 0.56017756 0.002538946 0.33731768 -0.5231346 -0.0023209688 0.047018472 0.99694365 0.6230573 -0.46557683 -0.16318923
아주 0.1543148 -0.27172655 0.88508594 -0.33284864 -0.08496879 0.122565284 0.7189721 0.5030714 -0.5741716 -0.12271272
따르 0.58333296 -0.056369215 0.157956 -0.25186178 0.06625014 -0.15044254 0.7945223 0.68705875 -0.8227497 -0.21144998
욕 0.23016644 -0.011996359 0.4130959 -0.45660198 -0.30809003 0.5230791 0.7784336 0.6489069 -0.55563444 -0.23922393
영화 0.006275476 -0.37188816 0.22772601 -0.064952224 -0.27421027 0.15659586 0.94237953 0.44173676 -0.62534016 -0.29959893
지요 -0.17529483 0.047603533 0.8009101 -0.33277884 -0.5528908 0.115794815 0.80230224 0.39532906 -0.54562736 -0.39319456
음주 0.47381324 -0.14738357 0.13591832 0.2087854 -0.0151447 0.5107027 0.89619726 0.4445009 -0.5177107 -0.27316228
시대 0.07218491 -0.22257744 0.23212355 0.054296654 -0.09010386 0.12844692 0.71350956 0.49274102 -0.8844729 -0.32787195
떠나 0.83409363 -0.17417437 0.3475053 -0.24299932 -0.3826847 -0.07434356 0.8134318 0.64683425 -0.52955323 -0.39095098
그럼 0.13128862 -0.14129107 0.49157813 -0.46078396 -0.30237412 0.4701995 0.700115 0.72027576 -0.8274403 0.07677928
너희 0.043128423 0.11066146 -0.02384 -0.1331872 0.14096801 -0.087311454 0.9595018 0.6800245 -0.6262238 -0.52471596
어찌 0.09255118 -0.30087444 0.3785277 -0.57304513 -0.43513566 -0.012574289 0.7686101 0.52342594 -0.66472304 -0.50090533
똑똑 0.054238737 -0.122606285 0.76745266 0.15184194 0.16782537 -0.5711209 0.80811435 0.47647005 -0.571378 -0.55244476
가장 -0.041620616 -0.27240413 -0.14300983 0.07453063 -0.41307795 -0.17674808 1.1565298 0.27834344 -0.73406607 -0.3582926
파 0.26147467 0.12426846 0.6170381 0.31794193 -0.09189 0.027618656 0.94418144 0.325804 -0.3666518 -0.5228548
민 0.08212277 -0.020269768 0.4590035 0.7520766 -0.123401254 -0.22089927 0.79333717 0.54053193 -0.87591517 -0.2692306
김건희 0.39871636 0.09614364 0.13449845 0.85340947 -0.027652744 -0.06726141 1.0042115 0.25606436 -0.8096486 -0.5517265
땅 0.32763243 0.022311967 -0.1906912 0.24123262 0.020029018 0.01830222 1.1491847 0.34786454 -0.60346 -0.47806317
언제 0.14500871 -0.09480588 0.42901444 -0.15757847 -0.10145771 0.4250122 0.5324561 0.60601383 -0.8123689 -0.42807195
이재 0.16792566 0.5656419 0.6121078 0.6911871 0.30594513 0.06499468 0.65239763 0.4083995 -0.98096585 -0.9783688
빨 0.4956996 0.1596179 0.42032176 -0.28627408 0.21221095 0.41883075 0.83621025 0.7599044 -0.5256945 -0.16141315
질문 -0.05988515 -0.044764746 0.5419315 -0.2399602 -0.19989298 -0.2552151 0.6407251 0.74525243 -0.8379339 -0.35793313
30 0.23285311 0.07917564 0.2410765 0.6526852 0.04774146 1.0779544 0.94412965 -0.23973222 -0.8688162 -0.68342733
경찰 0.112423055 -0.10689151 0.23787332 0.028192334 -0.22391461 0.00209903 0.89759105 0.38639164 -0.65080446 -0.30689144
어느 0.3052704 -0.27677757 0.19499011 -0.1750927 -0.082283236 0.23545058 0.8532139 0.46706164 -0.7293396 -0.23668201
절대 0.15666938 -0.12789461 0.33536154 -0.4767639 -0.5306767 0.16622944 1.1837381 0.5145355 -0.29956266 -0.10725828
썩 0.38291243 -0.22731312 0.3270969 -0.047330607 0.0527812 -0.048043102 0.9893003 0.4683961 -0.53471386 -0.1272842
정치인 -0.18435487 -0.2672582 0.39189026 0.016863434 -0.23147483 -0.4117534 1.0881896 0.5320473 -0.44054374 -0.31308088
존경 0.09584179 0.42564568 1.1762366 0.76396585 0.10101098 -0.7005074 1.0127437 0.21838474 -0.32388428 -1.2003698
낳 0.416527 -0.32258093 0.24557246 -0.5821003 0.08407697 -0.042101406 0.94444907 0.441961 -0.87501717 -0.1008823
가능 -0.005778615 -0.0513704 0.12902895 -0.31467593 -0.60935557 -0.02741061 0.7721478 0.2639042 -0.9422817 -0.54894775
이용 0.31739992 0.19239691 0.057539903 -0.46436766 -0.1765522 -0.0049295668 1.2227963 0.46887103 -0.2597265 -0.56720704
북한 0.23017544 -0.2062288 0.27673522 0.12287805 -0.21199976 0.18148668 0.8244995 0.41381675 -0.67313135 -0.2235603
경 0.2790726 0.02437327 0.3158927 0.8834939 0.08531005 0.39705426 0.7565707 0.054355834 -1.1093144 -0.48957407
걱정 0.19945136 -0.058219157 0.84860647 -0.18805598 -0.28800017 -0.39787105 0.89458084 0.5212436 -0.43906096 -0.3302551
항상 -0.015339435 0.22473125 0.80679554 0.33963475 -0.02150703 -0.7183456 1.0298861 0.28261787 -0.43785077 -0.82949513
용 0.33154646 -0.015805608 0.5595057 0.4377829 0.33789605 0.065777026 0.7611593 0.48688656 -0.5976203 -0.3900929
힘내 0.4376117 0.8757711 1.6587445 0.83280945 0.51723653 -1.019518 1.1958265 0.722785 -0.28448343 -1.3217322
잇 0.22246967 -0.1948303 0.5731344 -0.41405237 0.07618203 -0.0085550705 0.864175 0.20988727 -0.74636096 -0.17854865
겁 0.3412884 0.08125261 0.83190143 -0.16258256 -0.11021802 0.14078625 0.61977303 0.29462558 -0.51738566 -0.7275547
하나님 0.033062153 0.22863983 -0.09845459 0.6776763 0.3656922 -0.33621022 1.0616435 0.24313466 -0.7955272 -1.0412941
감옥 0.40066892 0.17525995 0.2623897 -0.115054965 -0.3094264 -0.06712463 1.078572 0.815273 -0.34075692 -0.2252928
돌아가 0.22699991 0.077334955 0.68399364 -0.7210146 0.022035982 0.034612082 0.9893907 0.41929 -0.6132516 -0.13703233
어쩌 -0.05441599 -0.16367695 0.8830381 -0.9202186 -0.46519065 0.06505236 0.66233224 0.26079753 -1.0319151 -0.42047885
여야지 -0.046666186 -0.017238107 0.44895434 -0.392519 -0.044839226 0.18786435 1.0056529 0.5234076 -0.30370805 -0.35316187
손 0.3169246 0.13052519 0.25909257 0.14665861 0.09147725 -0.039912276 0.7983285 0.4044504 -0.6515576 -0.62694985
밝히 0.68742895 0.5890797 0.45782176 -0.19157413 -0.08346496 -0.25022888 1.1809733 0.60581255 -0.20412643 -0.41433316
들어가 0.6388531 -0.03721192 0.3464905 -0.20906755 -0.1085984 0.24659978 0.7091963 0.6554257 -0.6382394 -0.3206746
조작 0.26507056 0.00415778 0.12800883 0.4078185 -0.08821907 0.4727398 0.86886597 0.4667953 -0.6799856 -0.15152074
상황 -0.09049742 -0.33673814 0.0913394 -0.33072358 -0.52609944 0.13034196 0.85319823 0.38527223 -0.8416904 -0.43007848
서로 0.2930041 -0.062285747 0.14129077 -0.5125574 -0.014811801 -0.080179624 1.2313647 0.2461969 -0.44653967 -0.4174635
밖 -0.078947105 0.21161488 0.034195807 -0.7653827 -0.2710916 0.32690868 1.1250279 -0.053503774 -0.83387774 -0.6134269
회사 0.38958198 -0.09906394 0.1276416 -0.24510306 0.10981227 0.051785 0.8670297 0.44350994 -0.6590036 -0.40147775
윤석렬 0.16443102 -0.32372692 0.514628 0.2777374 -0.037921205 -0.17366984 0.86192906 0.45695367 -0.6094987 -0.38547158
라니 -0.28140527 -0.30307487 0.64473397 0.63292474 -0.111322224 -0.19542603 0.6553383 0.4797414 -0.9798905 -0.3151058
무식 0.031041777 -0.22009487 0.38366205 0.14694124 -0.18836267 -0.29749238 0.7948632 0.47392994 -0.7424348 -0.38276216
께서 0.42138302 0.31703994 0.32637724 0.760431 0.41360602 -0.4745978 0.9549951 0.5338539 -0.54661626 -1.10864
능력 -0.28606743 0.08745264 0.23880179 -0.64267236 -0.35011637 -0.1392078 1.1032007 0.14929006 -0.6952285 -0.50517344
야당 0.2719224 -0.09200896 -0.04586607 0.33572024 -0.015866375 -0.37779632 1.1034068 0.56229705 -0.6249767 -0.45063367
딱 0.034982957 -0.41358596 0.682118 -0.07923402 0.035508003 0.5019248 0.70554256 0.5779683 -0.570252 -0.17597796
지나 0.52429503 -0.22292183 0.26416266 -0.14162345 -0.34992343 0.61218464 0.64439046 0.2042979 -0.81216586 -0.54734
군 -0.024607278 -0.016440552 0.5724459 0.12186978 -0.3313965 0.33919173 0.75540143 0.35583284 -0.7138672 -0.25816014
끝나 0.27380958 -0.22032587 0.40133128 -0.6671458 -0.52698743 0.38970387 0.759013 0.29427546 -0.81863534 -0.35626107
던데 -0.058931082 -0.26941776 0.7243729 -0.4463996 -0.087932706 0.503283 0.72506 0.6164453 -0.3410536 -0.45817235
싸우 0.35257518 0.35338393 0.34673762 -0.39811832 0.18712367 -0.06783164 1.1116168 0.33969826 -0.5938609 -0.35696557
이번 0.16382301 -0.14998898 0.21583152 -0.008469845 0.021610288 0.041765597 0.7438004 0.3206532 -0.8050211 -0.55253416
내용 -0.10552357 -0.22780913 0.39526093 -0.54090774 -0.13303249 0.066107444 0.8823798 0.41090798 -0.7106354 -0.34324074
도록 0.032638706 0.22633292 0.1264862 -0.4072145 -0.30812585 0.07236025 1.4172351 0.41864583 -0.09209251 -0.43221515
처음 0.22679836 -0.12778462 0.2691562 -0.1388535 -0.00426808 0.079723686 0.6752248 0.4741523 -0.9003855 -0.47198614
전청조 -0.01055394 -0.44851685 0.18152247 -0.15630682 -0.24092594 0.17496379 0.6435938 0.4005258 -1.0486364 -0.39642507
모습 -0.09671365 -0.20872253 0.2523145 -0.08633946 -0.13021314 -0.16824792 1.1885653 0.34692794 -0.2990378 -0.46589845
* 0.08742959 -0.011147589 0.7899187 1.1205859 0.2068998 1.057271 1.0086644 -0.3709053 -0.8840044 -0.6504447
ㄷ 0.821926 -0.43405044 0.97326374 0.14596336 0.19576661 0.9620958 0.17470954 0.43201765 -0.8948941 -0.53160846
차리 0.53692436 0.38038838 1.3752881 -0.19356541 0.035289347 -0.36703315 0.8988099 1.1208136 -0.1333357 -0.36244503
내리 0.54007775 0.42759347 0.49507257 -0.40026373 0.075939454 -0.10256802 1.0254992 0.6357352 -0.43095627 -0.21508569
놀 0.28401476 -0.05525198 0.61278194 -0.66028225 -0.15910588 0.26314282 0.9713075 0.28261432 -0.58482647 -0.12895523
소 0.25934184 -0.021433294 0.7929412 -0.087310724 0.13132618 0.24127863 0.771255 0.4387944 -0.413825 -0.3555957
따 0.15194748 -0.10549807 0.390422 -0.23874561 -0.069078416 0.44270432 0.76295865 0.73409075 -0.7360637 0.0025502665
불쌍 0.07500647 -0.47191423 0.68606174 -0.21434322 0.09951813 -0.04248725 0.80440503 0.41318855 -0.45716065 -0.43881932
이야기 0.0867595 -0.124472566 0.17898569 -0.56533366 -0.27365488 -0.10471037 0.877896 0.42319214 -0.7285372 -0.5833898
팅 0.3878265 0.14654751 1.4382492 1.256537 -0.11196529 -0.20193687 0.87473655 0.25447762 -0.3020861 -0.9776152
싸 0.3335331 -0.24026434 0.6285645 -0.3131795 -0.07642773 0.22804712 0.7009791 0.44831204 -0.7369739 -0.1378388
르 0.1579326 0.030611012 0.75239575 -0.269856 -0.089609444 0.18942615 0.8098497 0.3408518 -0.71787906 -0.13716386
봐 0.057830896 -0.033110667 0.31409675 -0.15037379 -0.22476973 0.16027488 0.805949 0.77619076 -0.79977065 0.010666302
도대체 -0.23721552 -0.26542443 0.3869925 -0.38123792 -0.39758286 0.1469472 0.58062166 0.7601899 -0.96918166 -0.3591861
진실 -0.028820831 -0.021622945 0.4495813 -0.16621421 -0.22976278 -0.23392174 1.0298734 0.59500456 -0.33190563 -0.36825985
ㅈ 0.26143226 -0.32837555 0.49642012 -0.15632021 -0.12840267 0.5734776 0.6693432 0.34807816 -0.6416658 -0.30979943
넣 0.724529 0.14130339 0.6797706 -0.50120527 0.13148716 0.21764718 1.0647687 0.9650059 -0.32922852 0.27938086
ᆢ 0.39532635 -0.10044835 0.68211025 -0.1488902 -0.03406113 -0.1349469 1.051072 0.28027713 -0.21706441 -0.50823164
뻔뻔 0.16677196 0.036294755 0.5934621 -0.041677535 -0.2504843 -0.18957226 0.803584 0.5847952 -0.58039874 -0.22234622
묻 0.43020597 0.040176317 0.58976424 -0.69154763 -0.24086207 0.07359439 0.96850425 0.29022047 -0.695116 -0.1471762
화이팅 0.2911472 0.33346868 1.6258433 0.9276472 0.3566816 -0.25451428 0.9116383 0.45825633 -0.19099958 -0.93781763
0 0.4353607 -0.015416952 0.7474421 0.95122945 -0.019724058 1.1117833 0.7506299 -0.108148515 -1.0476898 -0.448836
완전 0.27070403 -0.08903415 0.591361 0.1754872 0.019976491 0.12811503 0.6546527 0.36553502 -0.6976403 -0.36556762
집단 -0.081426814 -0.26740795 -0.108899765 0.43746167 -0.06104225 0.004652093 0.8647581 0.5146612 -0.9296733 -0.4009556
걍 0.16681497 -0.18859597 0.25520277 -0.16820334 -0.0514687 0.5464887 0.6457316 0.81068933 -0.69311845 -0.20338166
현실 -0.015595692 -0.20462713 0.0592223 0.0031140256 -0.3790785 -0.25483117 1.0430288 0.32322493 -0.79882306 -0.25192755
중요 -0.15510872 -0.2214534 0.42895347 -0.28467643 -0.53714776 -0.4353497 1.0749488 0.34951288 -0.64631283 -0.218802
딸 -0.06890696 -0.4194261 0.16532294 0.07346741 0.047355875 0.17515995 0.67506963 0.41906875 -1.0003484 -0.3514693
해결 0.1486367 0.12628631 0.29769617 -0.88155377 -0.69679123 -0.31467113 1.217572 0.60536164 -0.31362095 -0.54723656
사진 0.091791146 -0.12984867 0.29070702 -0.26642898 0.09715679 0.5936687 0.6796338 0.6087113 -0.7436501 -0.27009994
월급 0.16936055 0.05232747 0.13813691 0.2631952 -0.09058148 0.519182 0.99362516 0.055614997 -0.7294136 -0.43104854
시작 0.36456084 -0.0015930631 0.34832716 -0.02997089 -0.4453596 0.27882457 1.0535828 0.387861 -0.22241095 -0.4287502
심판 0.2369183 0.24625175 0.08060385 -0.01292905 -0.011182089 -0.32447416 1.2423319 0.5393746 -0.3996928 -0.45086518
삼 0.1168608 -0.07002616 0.5988066 -0.50766516 -0.08110516 0.35661986 0.8284754 0.16993538 -0.81149226 -0.20707445
냐고 -0.19399399 -0.23443499 0.67820454 -0.6142596 -0.14657009 0.54410905 0.73742783 0.823378 -0.65853083 -0.03018796
멀 0.17103745 -0.1618058 0.3587099 -0.43116304 -0.30045804 0.3194088 0.898646 0.39992473 -0.63766885 -0.18189201
마다 0.18906775 -0.044742763 0.23796184 -0.22694804 0.16266824 0.35878754 0.97378683 0.25479648 -0.52702963 -0.4497418
거기 0.027818164 -0.21691743 0.64997685 -0.038979273 0.0056190453 0.31249535 0.49059227 0.5623465 -0.90246165 -0.27506575
🎉 0.3763644 0.44377688 1.31953 1.0306983 0.16824761 -0.08742358 0.9767913 0.230702 -0.22153619 -0.8880036
인구 0.22237058 -0.032210834 0.11378288 0.35867393 -0.18496424 0.32454124 1.0199881 0.016301198 -0.62134415 -0.5615454
여성 -0.0049857935 -0.2999009 0.08397146 0.34990188 -0.103548 -0.093781345 0.8974942 0.28651807 -0.8394273 -0.4231455
아무 -0.1628097 -0.041630186 0.3265049 -0.7458798 -0.38517693 0.019790124 1.0708799 0.34552273 -0.79588896 -0.23463503
드 0.2150948 0.34882766 0.62215054 -0.16744368 0.2294857 0.1776108 0.7727096 0.4098329 -0.652742 -0.46978635
목소리 0.036584742 -0.21595494 0.62472266 -0.10148079 -0.027359571 0.086239666 0.68822104 0.350004 -0.6657613 -0.45106596
개인 0.011641876 -0.26754868 -0.072116904 0.18251806 -0.40803263 -0.2552409 1.0512513 0.3101806 -0.7482863 -0.4926316
절 0.3717863 0.24918903 0.44808114 0.286425 0.11098759 0.32086223 0.97211885 0.022061998 -0.6195502 -0.38873604
쉽 0.12917043 -0.26266798 0.5694125 -0.7373065 -0.36450785 -0.2264845 1.171852 0.38631234 -0.53863746 -0.07987692
단 0.08983257 0.009985429 0.70917696 0.18214923 -0.12001259 0.15622455 0.97256935 0.17048971 -0.45578074 -0.3637727
혼자 0.21139811 0.03150553 0.50012493 -0.54704785 -0.15226237 0.08132311 0.94295853 0.4251606 -0.41658205 -0.36327478
멍청 0.13786004 -0.27333638 0.4111653 -0.28539035 -0.2059461 -0.1709803 0.93514335 0.37979996 -0.71470106 -0.059473846
상대 0.19227424 0.042864077 -0.089706376 -0.23550756 -0.11379187 -0.032563392 1.3163307 0.46041822 -0.5538623 -0.12494885
재판 0.2107429 0.013888346 -0.0077509033 -0.05647766 -0.12065124 0.2285657 1.0793957 0.47570884 -0.48209792 -0.36830747
얘 -0.0012135333 -0.3851376 0.6319695 -0.0942944 -0.03111315 0.17136611 0.7431735 0.45747635 -0.7509908 -0.061755873
기자 0.081292324 -0.09616613 0.39801168 0.7049004 0.25089416 -0.42020652 0.790142 0.44222802 -0.8266047 -0.68115675
시민 0.035642013 0.042541806 -0.0064458186 0.21818838 -0.055803277 0.0066992403 1.0103402 0.50689065 -0.69592613 -0.3367469
박 0.19686103 -0.059709534 0.50512034 0.105182864 -0.09007718 0.3184087 0.71650684 0.26067838 -0.81745434 -0.24273896
젊 -0.00424819 -0.3433986 0.13907374 0.06354998 0.024396092 -0.3796066 0.93501 0.30698204 -0.98027223 -0.29286277
이기 0.38044322 0.23936659 0.23133062 -0.07613237 -0.19567801 -0.3072099 1.2496988 0.4943593 -0.36438024 -0.24449635
느끼 0.32797396 0.15954338 0.47275576 -0.63481796 -0.40393198 -0.10827041 1.0918695 0.45291206 -0.72746605 0.11173141
배 0.27676165 0.19564015 0.17023289 0.20663832 0.16084552 0.5268842 0.8064203 0.26989496 -0.75430644 -0.47589287
바꾸 0.61746895 0.32482594 0.42998633 -0.01873803 -0.2672493 0.049269635 1.228602 0.5657173 -0.27189583 -0.036807798
존 0.42039037 -0.30195168 1.1087986 -0.1478636 0.1933039 0.26740655 0.554362 0.42908213 -0.74304605 -0.09469283
천 0.41651198 -0.09477129 0.2073301 0.46507916 0.17879625 1.1166393 0.67452335 0.07243497 -0.96913457 -0.7089296
지옥 -0.052465707 -0.26616082 0.067763984 0.5721946 -0.057854787 0.3663649 0.9503089 -0.07916147 -0.94893664 -0.31859517
께 0.116181925 0.26353505 0.7836969 0.4358082 0.24058332 -0.30949455 0.7649185 0.57632035 -0.4373235 -0.88273174
김진태 0.010179911 -0.33463493 0.67476016 0.37956837 -0.08996976 0.14225517 0.7069246 0.38403183 -0.60582113 -0.32787657
권력 0.0029798078 0.03476575 -0.12098977 0.02019627 -0.02621151 -0.16032876 1.1251686 0.32448012 -0.78371346 -0.38141304
술 0.27104542 0.005706095 0.38181552 -0.21732806 -0.04741313 0.3828734 1.0960978 0.30038884 -0.33976147 -0.1903686
아들 0.07124357 -0.03874195 0.20366289 0.048295263 0.05229298 0.053723846 0.6894646 0.4956497 -0.7823746 -0.62916213
😊 0.19011118 -0.018379698 1.1622895 0.3400736 0.23285058 0.16360068 0.64873844 0.020016328 -0.48511013 -0.59155905
비리 0.17323127 -0.1255325 -0.29165515 0.22784333 -0.22098252 -0.17619358 1.0643718 0.3258822 -0.8341173 -0.46194097
자꾸 0.09540394 -0.048392322 0.39340615 -0.5215913 -0.36712787 -0.02527154 0.8238579 0.81617707 -0.65638065 -0.32648355
드리 0.36859155 0.56706685 1.0103093 0.45799482 0.23783444 -0.36853382 1.0274256 0.24736136 -0.28770635 -0.7519996
배달 0.32860938 0.12420325 0.29267642 -0.3073047 -0.16598243 0.37252384 0.97883546 0.22820848 -0.4346104 -0.5293551
자격 -0.30070287 0.2274119 0.42452008 -0.4267739 -0.6971093 -0.0036143344 0.91703993 0.45257705 -0.71395767 -0.34489802
무조건 0.34184274 0.08511664 0.39261344 -0.23014913 -0.14102381 0.19573234 0.9320389 0.5128664 -0.5238859 -0.19443908
표 0.2223677 0.04891971 0.47423384 0.44596738 0.1382252 -0.035548527 0.7462005 0.32624644 -0.68066406 -0.56064147
더라 0.09519811 -0.09876064 0.7913534 -0.5889658 -0.23834415 0.27773726 0.96396947 0.56250703 -0.25024763 -0.30250874
역사 0.12433067 -0.04202127 -0.1051587 0.20633447 -0.30285594 -0.091570556 0.93343633 0.52280694 -0.7237421 -0.545394
반성 0.17705211 -0.079889335 0.53042233 -0.5020101 -0.07394523 0.09142296 0.85638 0.5167336 -0.48040563 -0.49106145
좌파 0.20867585 -0.24222828 0.10553742 0.14161392 0.032537766 0.039185144 0.69874936 0.5335052 -0.9432497 -0.30151418
대로 0.072114415 -0.1965817 0.46010947 -0.14597234 -0.20286576 -0.0722928 1.0031697 0.44719958 -0.5671657 -0.113793254
안타깝 0.18907279 -0.3897168 0.92004573 -0.53998214 -0.12642702 -0.4293394 0.811597 -0.023470268 -0.84283787 -0.5404345
으면서 -0.17452617 0.050558627 0.27284965 -0.6375801 -0.0017372591 0.77255356 0.9253798 0.49695757 -0.5228433 -0.4410667
ㅋㅋㅋㅋㅋㅋ -0.085743405 -0.39793313 0.80889505 -0.18911648 0.46953437 1.0536876 0.4952288 0.58882916 -1.4081466 0.21179622
부끄럽 0.01358749 -0.29166356 0.8672314 -0.63227654 -0.07346636 -0.22019868 0.9798183 0.27323368 -0.53461874 -0.21534324
14 0.3060421 -0.3979155 0.42804837 1.2842684 0.08570791 0.89142203 0.983596 -0.63532877 -1.4336864 -0.6309677
공무원 -0.06726154 -0.25505167 0.15253767 0.233831 -0.08828828 0.4326266 0.7770533 0.28520662 -0.8610175 -0.34977248
옳 0.118063115 -0.029613044 0.670758 0.1930663 0.0020674514 -0.5323537 1.0572633 0.11891342 -0.57413524 -0.4392051
쪽 0.09125182 -0.16222298 0.45537645 -0.1946545 0.044695005 0.2537178 0.8736556 0.48250574 -0.5045691 -0.3258105
국방부 0.19333637 -0.27706662 0.523679 0.5164358 -0.029854054 -0.073347494 0.49960664 0.62093914 -0.8060633 -0.4550808
정의 0.43315804 0.092749305 0.13936216 0.10117363 -0.3002675 -0.2926666 1.0509664 0.7597062 -0.37391612 -0.36075854
함께 0.20051181 0.19832657 0.15628684 0.4187398 -0.06479369 -0.28832808 1.1649324 0.3966715 -0.49109596 -0.65019655
사라지 0.11603268 0.067520075 0.55778646 -0.48357338 -0.41063502 -0.031600915 1.0226862 0.49859637 -0.5011534 -0.16230401
저거 0.2453277 -0.18903373 0.50840306 -0.056590475 -0.15394552 0.37335715 0.61288023 0.7130095 -0.8523379 -0.12089178
척 -0.058176078 -0.101725355 0.4082086 -0.7050917 -0.17164819 0.075827286 1.0383906 0.5898797 -0.44002163 -0.25940326
궁금 0.057221998 -0.26263055 0.88411933 -0.4842915 -0.116372384 -0.01296627 0.6528442 0.4090436 -0.82212055 -0.26890546
아무리 0.11240041 -0.21364985 0.65222126 -0.27974796 -0.046904765 0.1741296 0.7276379 0.4446891 -0.5449226 -0.3759313
상식 0.09469471 -0.2844869 -0.37773192 0.10246837 -0.3899048 -0.26654804 1.099579 0.21822917 -0.9475159 -0.35904655
안보 0.48596522 -0.25674358 0.28763562 -0.06634945 -0.20363297 0.11117479 0.8021578 0.6014294 -0.56701946 -0.34727144
렇 -0.074628085 -0.07526035 0.44214457 -0.29876217 -0.19485432 0.12120884 0.8222606 0.7910797 -0.72221047 -0.1838497
징역 0.63231677 -0.109832115 0.31461108 0.37845814 -0.014362668 0.7497933 0.69278085 -0.019792393 -0.7168493 -0.7694671
반대 0.23033765 0.0818992 -0.05718109 -0.018864123 -0.18677776 -0.014200311 1.1271809 0.28699526 -0.5847715 -0.33333078
자랑 0.055531673 0.16365272 0.65918005 0.33582267 0.024854517 -0.39994964 0.9912507 0.17862935 -0.56901705 -0.8732112
새 0.16815162 -0.057603832 0.16436163 -0.13734688 0.028270612 0.349165 0.9089136 0.5398709 -0.60672265 -0.24993195
돌 0.45256808 0.02658275 0.81808746 -0.5399292 -0.029072395 0.4351486 0.71332866 0.40261126 -0.6513254 -0.26934925
좋아하 0.35814717 -0.18555456 0.24596766 -0.5373386 -0.30974802 -0.12767442 0.9822014 0.18869351 -0.7214427 -0.43122074
스스로 0.24293905 0.062106658 0.090845525 -0.21563667 -0.27274075 -0.082763135 1.0562181 0.45510557 -0.45332372 -0.41038698
그런데 0.1729943 -0.14044872 0.54007626 0.27217498 -0.2755019 0.15721393 0.6733835 0.29743102 -0.7839055 -0.5187981
유 -0.07792485 -0.045503072 0.57662016 0.50178844 0.054019596 0.18904401 0.65299016 0.16967134 -0.9116024 -0.5392069
기본 0.12809363 -0.18795581 0.22012708 0.28282863 -0.0083497055 0.15209483 0.82261294 0.3326979 -0.70630103 -0.28747004
간첩 0.1717252 -0.044777278 0.34363097 0.02059201 -0.12597829 0.17917493 0.72740376 0.54200995 -0.7884881 -0.2766151
관상 -0.07982397 -0.52478063 0.33265585 0.23863323 0.09150359 0.33640376 0.60460836 0.43623745 -0.93757606 -0.1131875
반 0.34444442 -0.08512906 0.11796661 0.35638756 0.08877853 0.28325945 0.9309467 0.4312676 -0.5569994 -0.39163515
굥 0.24791597 0.03977412 0.24800634 0.010337416 0.06951112 0.067187786 0.92136186 0.6486103 -0.6651764 -0.15811415
챙기 0.4791204 0.46578658 0.4844764 -0.27841318 0.15711893 -0.104841195 1.2932285 0.4747186 -0.18282437 -0.31109652
책임 0.13931909 0.13201758 0.1434779 -0.34510854 -0.1140813 -0.09077667 1.0619657 0.45708057 -0.6704777 -0.19922404
[ 0.2395667 0.17302477 0.055066712 0.87147903 0.33695218 0.2737833 0.88369095 0.37433356 -0.73920447 -0.8628733
평생 0.35854325 0.16790983 0.39339918 -0.28040108 0.26976418 0.19942868 0.9938669 0.37550154 -0.43873206 -0.39198577
친구 0.094363056 -0.015074365 0.2059672 -0.16682291 0.037653666 0.06084448 0.92425644 0.39723843 -0.6407259 -0.5324473
자유 0.29387066 0.04993831 -0.10261035 0.28263637 -0.29379717 -0.30451474 1.0282621 0.4302736 -0.70844597 -0.50829506
글 -0.14304084 0.16859947 0.3998455 -0.07847156 -0.12856063 -0.07559313 1.0016559 0.44123435 -0.5187347 -0.44653904
비싸 0.34699783 -0.101959705 0.5226905 -0.40209603 0.032279328 0.15627904 0.7726727 0.3220337 -0.6402895 -0.46506512
밖에 -0.14092204 0.016200142 0.5069562 -0.62552154 -0.60045505 0.09747668 1.0728202 -0.08192189 -0.6234604 -0.6246602
인정 0.20369491 -0.016498562 0.7280455 -0.6323392 -0.35863414 -0.03746757 0.8544284 0.6189284 -0.3905264 -0.3461371
낫 0.017447863 -0.27597085 0.54553306 -0.43924218 -0.015443495 -0.11575084 0.948598 0.21154466 -0.7320629 -0.21644911
국힘 0.09284005 -0.13625641 0.20102789 0.063602164 0.048666604 -0.017574547 0.913994 0.3512491 -0.75733346 -0.46884516
걸리 0.26715523 -0.22957164 0.34887993 -0.23490307 -0.17182846 0.34995386 0.8092985 0.22187899 -0.8314783 -0.21524824
ㅅ 0.24030788 -0.020178298 0.7957267 0.16958798 0.20501415 0.41644073 0.4689881 0.5458487 -0.8124879 -0.24158296
열심히 0.39170727 0.23248968 0.4091639 -0.3426499 -0.18719788 -0.26108855 1.3298011 0.58874786 -0.1324085 -0.43869048
선거 0.30999762 0.10962211 0.014307024 0.0760718 0.14187367 0.24160594 0.944937 0.40793577 -0.5449051 -0.6068709
솔직히 0.1538921 -0.13427794 0.2359161 0.012364892 -0.12498443 -0.07597254 0.88271 0.41681802 -0.8264689 -0.24077882
돌리 0.47196585 0.16382739 0.22582361 -0.41549844 -0.25055128 0.25144842 0.998471 0.41868508 -0.63325757 -0.14872582
보도 0.30325684 -0.074639365 0.1797993 -0.4156876 -0.2726939 0.05454657 0.9249125 0.454986 -0.54902023 -0.40138766
끌 0.5034621 0.28813434 0.4274544 -0.63819206 -0.05063007 0.2034383 0.98921543 0.5619329 -0.47685716 -0.2069251
노무현 0.3316422 -0.09610813 0.8948908 0.54279715 -0.00733305 -0.5648192 1.0482337 0.32884854 -0.49991214 -0.92700994
] 0.22138111 0.19485374 0.14854364 1.0300939 0.40552875 0.27236503 0.9116598 0.27609634 -0.65554917 -0.88369685
뻔 0.08859497 -0.15417424 0.54950964 -0.37071776 -0.21809094 0.08747603 0.7517758 0.4810565 -0.51556283 -0.5083795
입장 0.020062555 -0.1754571 0.06275289 -0.11015182 -0.077916004 -0.35503852 0.95245206 0.4681611 -0.9148453 -0.39011034
공감 0.21665405 0.20151079 0.5183404 0.008630867 0.023315582 -0.27577856 1.1127316 0.1812592 -0.34890464 -0.63467014
;; 0.175188 -0.40458748 0.7364929 -0.1669294 0.10611255 0.41418773 0.62928426 0.4223844 -0.7746365 -0.16476241
ㅎㅎ 0.61209947 -0.45481977 1.2138478 -0.084648214 0.04544836 0.577326 0.44983217 0.3478004 -0.5156817 -0.48222432
지역 0.20287724 -0.043615837 0.028166268 -0.04385558 -0.16621903 0.24842228 0.87701344 0.29339266 -0.745341 -0.3811016
히 0.29484203 0.1268681 0.6137038 0.33863533 -0.30751038 0.011709911 0.74879897 0.47038585 -0.7827918 -0.1470877
시원 0.35827926 0.12712283 1.0618676 0.35203168 0.031594824 -0.071288124 0.97688144 0.23316863 -0.1324873 -0.59341335
??? 0.050890498 -0.3144606 0.51839966 -0.34133282 -0.38045216 0.3238219 0.5884534 0.72068435 -0.81514627 -0.1480021
반드시 0.42890814 0.32268953 0.30791557 0.19790246 -0.28649035 -0.25788885 1.2353914 0.63157946 -0.03307035 -0.63891035
씩 0.3481615 0.3330193 0.16876696 0.033339087 0.18162946 0.6799574 0.9921199 0.28415763 -0.57723045 -0.4373635
50 0.28755733 -0.004677394 0.26690117 0.5352857 0.05156491 0.8527701 0.7566881 0.010136289 -0.94840634 -0.42924818
행위 0.35285616 -0.071274035 -0.26646784 0.33039153 -0.25389907 0.0480457 1.1205587 0.577905 -0.51101667 -0.42619947
차관 0.20955908 -0.18839312 0.76162124 0.46283457 -0.049723998 -0.2052962 0.5407956 0.47383267 -0.7465915 -0.5532948
빠지 0.39840758 0.017362462 0.37288132 -0.39988348 -0.122599535 -0.06396935 0.9899435 0.24580431 -0.6672684 -0.30494747
당연 0.04333437 -0.21494296 0.5495538 -0.606884 -0.3893804 -0.330203 0.94358474 0.64271307 -0.68509734 -0.040764417
대선 0.13595137 0.15056689 0.08505442 0.15806118 -0.041290797 0.3519561 0.81599975 0.42902085 -0.70395046 -0.6194511
고생 0.27512398 0.10800537 0.69769424 0.033971123 -0.19532058 -0.13070245 0.9654642 0.3775506 -0.2094137 -0.6268013
관 0.42812878 0.3141997 0.6545477 0.9200288 0.4245482 -0.7431299 1.0425143 0.30211937 -0.67077476 -0.9059484
+ 0.28633425 -0.38814276 0.33396447 0.54694444 -0.05337255 0.4146299 0.52762777 0.17943867 -1.0604872 -0.3838697
사법 0.3623044 0.05185919 -0.37321943 0.59090364 -0.14339721 0.21186577 1.0986989 0.24252097 -0.84303427 -0.468228
어렵 0.22794703 0.05334547 0.264571 -0.4645021 0.006879505 -0.31202897 1.118998 0.5481215 -0.5271221 -0.20336868
롭 0.2625973 -0.04938911 0.30728814 -0.07830512 -0.19763911 -0.12598631 1.0434569 0.48345494 -0.5136477 -0.18427858
지랄 0.26935747 0.04018265 0.6023402 -0.3163794 -0.0051928423 0.0516275 0.8202552 0.44808632 -0.63079154 -0.17073585
여요 0.23256563 0.091725074 0.5122259 0.15007761 0.008377688 -0.31810924 1.0988574 0.53224987 -0.17480251 -0.50541013
이름 0.1271758 0.014688894 -0.03223641 0.17952552 0.0097007975 0.009514211 0.9465101 0.51288235 -0.74797076 -0.3963145
수박 -0.029950906 -0.027356062 0.43576524 0.23222177 -0.02574646 -0.3416144 1.0061576 0.40384337 -0.58860755 -0.25493723
인성 0.17687534 -0.16228372 0.4881973 -0.1131196 -0.18037234 -0.12685996 0.7743321 0.31687713 -0.82234526 -0.2716308
공개 0.30831632 -0.042166047 0.20027074 -0.25999287 -0.33260778 0.012785949 0.9076094 0.7751581 -0.3328692 -0.48234507
진심 0.1594616 0.059196014 0.7020784 -0.020486608 0.1989368 -0.25377652 0.9376584 0.39665693 -0.5281471 -0.40693817
멋지 0.36008707 0.06891672 1.1821867 0.37605658 0.21249995 -0.4172842 0.79286236 0.28985935 -0.4962153 -0.6263487
당장 0.31723562 0.05161529 0.3134221 0.07457762 -0.19482337 -0.08550235 0.9062696 0.78229094 -0.46530223 -0.460365
꺼 0.046214968 -0.16915596 0.395768 -0.55420053 -0.329873 0.19256577 0.78013325 0.5532058 -0.7706962 -0.33487445
던가 0.095063746 -0.080306165 0.42186067 -0.3544837 -0.14267801 0.54338634 0.7580882 0.57006216 -0.5100227 -0.33474708
스윙스 0.025227332 -0.09419985 0.80196136 -0.0036130028 -0.05373029 0.09163348 0.7432882 0.58797383 -0.44704407 -0.35847732
미래 0.11331532 -0.05560738 0.29235408 0.13649404 -0.22176072 -0.18412293 0.8784318 0.42501196 -0.5729378 -0.5099789
6 0.35428903 -0.033078592 0.6715831 0.9943387 0.26261747 0.92806774 0.78439075 -0.20576507 -1.0007153 -0.7912004
존재 -0.023591913 -0.101114586 0.19865312 0.09609272 -0.47892305 -0.20759517 0.9862093 0.37988025 -0.53130347 -0.47150254
구만 0.008999647 -0.30721462 0.9640822 -0.39320576 -0.46053243 0.34880978 0.706327 0.33704245 -0.4155775 -0.46399978
더럽 0.07439553 -0.19431853 0.5532175 -0.20887384 -0.03392748 0.018642189 0.89732677 0.3151849 -0.77156234 -0.026678499
무엇 -0.05584125 -0.11271974 0.17141886 -0.31106895 -0.3332395 -0.28870496 0.8239237 0.7149618 -0.90161854 -0.29426384
알리 0.5245336 0.5597367 0.578432 -0.53295696 -0.06369374 0.053381816 1.1340731 0.85464835 -0.21583626 -0.2091787
남편 0.19121371 -0.07062428 0.14875853 -0.1766583 0.06319941 0.016206592 1.0095989 0.43833047 -0.4313152 -0.62914693
처먹 0.57745767 0.065046825 0.45949954 -0.2752705 -0.107463725 0.40179798 1.052104 0.34470734 -0.43396395 -0.047466032
이혼 -0.01114855 0.03870934 0.3902561 -0.08163244 -0.025763843 0.006503132 1.0119405 0.2160936 -0.4519275 -0.5614083
없애 0.48905814 0.09044699 0.3478113 0.21036747 -0.20103611 0.049176525 0.97357213 0.7963695 -0.35717517 -0.08989239
개월 0.33259857 -0.2511514 0.26256004 0.6642391 0.16039148 1.1025422 0.795777 -0.160028 -1.0272182 -0.78118247
싫어하 0.14117053 -0.10090139 0.45457238 -0.7258708 -0.44612995 -0.09186956 1.1454059 0.40867925 -0.51618236 -0.12614022
사형 0.4834028 0.10632725 0.3843005 0.1803231 -0.22084066 0.30715367 1.1957538 0.7282405 -0.081691876 -0.16445956
녀 -0.039776705 -0.17146331 0.25688505 0.2730013 0.27624696 0.215016 0.7326614 0.4488459 -1.0751556 -0.24101216
선수 0.18389867 -0.0675421 0.0983147 0.14257787 0.13163207 0.222363 0.7464701 0.49783552 -0.73554116 -0.4290204
통 -0.009832031 -0.11291956 0.6171534 0.20532854 -0.027686594 -0.039498728 0.92478305 0.3747593 -0.49916783 -0.40628025
무시 0.1577043 -0.03385714 0.07945141 -0.2993719 -0.37024075 -0.18094967 1.1700337 0.49994367 -0.36064118 -0.4961012
카 0.32030293 -0.17814995 0.17737807 -0.034938216 0.041325882 0.2856298 0.917937 0.45840088 -0.6439404 -0.26972756
살리 0.4570766 0.26064113 0.4007225 -0.12526897 0.033701226 -0.01444586 1.0077726 0.5751273 -0.3475737 -0.38161165
댓글 0.1135482 -0.14363946 0.52299374 -0.13007705 0.00058935164 0.17383188 0.8896589 0.33474335 -0.57268894 -0.22178766
,,, 0.20275742 -0.15746592 0.54782623 -0.2736968 -0.16501208 0.26486817 0.7808518 0.3783187 -0.5669167 -0.3271042
ㄹ지 -0.11001034 -0.19860712 0.48110166 -0.5168535 -0.3295353 0.020320985 1.0611274 0.6032209 -0.28285095 -0.33633024
떨어지 0.30349094 0.035378892 0.3745799 -0.119182244 -0.072526306 0.18193047 0.7295824 0.35152212 -0.8820268 -0.27002332
석열 0.113740526 -0.2033233 0.5117983 -0.03548137 0.01375923 -0.1917865 0.767808 0.46126536 -0.7523848 -0.38651925
머 0.24791911 -0.38912603 0.69993514 -0.38734543 -0.31235284 0.105669394 0.6540393 0.5732309 -0.78700507 -0.1587114
바보 -0.08099219 -0.13758765 0.36468828 -0.04727759 -0.2868119 -0.15912847 1.0194986 0.641264 -0.7284061 0.0044402517
견주 0.5029413 0.035410736 0.24268013 -0.006904568 0.19468197 0.09640398 0.9648927 0.6334609 -0.32426494 -0.44039157
대부분 -0.022890158 -0.3501857 -0.08298354 0.045588575 -0.15134867 -0.17424554 0.94503146 0.426761 -0.8255355 -0.38264775
선 0.29978698 0.04854246 0.53011554 0.21660213 0.079753116 0.2944681 0.77735025 0.19918007 -0.7019977 -0.34971246
총선 0.22446321 -0.13988641 0.12857513 0.026577301 0.130587 0.26258808 0.96834534 0.22116444 -0.5728946 -0.5601587
급 0.12870795 -0.04388821 0.4563112 0.29289863 -0.19999886 0.53712904 0.49792737 0.2626017 -0.958692 -0.5322896
용서 0.28179112 0.14087285 0.43642378 -0.36554235 -0.15689805 -0.10747562 1.0565087 0.64028203 -0.36884943 -0.2701287
어리 0.12530111 -0.00883756 0.07084669 -0.3099814 0.028959764 -0.008673457 0.8717407 0.37903967 -0.9194395 -0.49886084
끼 0.07049632 -0.006399218 0.40948144 -0.25745162 0.10255713 0.49603614 0.60370475 0.688967 -0.94188076 -0.32505903
딴 -0.2139436 -0.29390693 0.4060956 -0.12506591 -0.30057588 -0.17694233 0.8120746 0.7887265 -0.6749788 -0.29900604
욕하 0.26876464 0.026637038 0.36835223 -0.477411 -0.25491008 0.086149246 0.79494643 0.67521906 -0.58951753 -0.4297306
준석 0.36954537 -0.048366208 0.6356313 0.15773664 0.06399201 0.12156119 0.70625854 0.47966635 -0.6135527 -0.34686622
관련 0.2590183 -0.20180814 0.009964117 -0.010321399 -0.48294032 0.059420746 0.8967711 0.5072906 -0.6668566 -0.38067582
심각 0.22806074 -0.15549277 0.45915923 -0.17555377 -0.23092711 -0.1614297 0.7868581 0.45381606 -0.63036054 -0.39681944
선동 0.46246314 0.016294725 -0.03711762 0.014247828 0.011017441 -0.0076422626 0.9899357 0.48267153 -0.6270522 -0.4472692
떨 0.47533014 0.0135642225 0.5087862 -0.40472087 -0.01966493 0.19273697 0.79328996 0.43454966 -0.5781253 -0.31434223
행복 0.15065348 0.14737104 0.68973035 -0.41807356 0.029058876 -0.3364686 1.1454165 0.3735671 -0.2047099 -0.56654114
물가 0.24815346 -0.22664902 0.35345802 -0.24532673 -0.1271174 0.2022027 0.80834234 0.3608118 -0.55477124 -0.42133096
하늘 0.49846116 0.16529968 0.28509462 0.308803 0.15182416 0.19672254 0.7762288 0.42938069 -0.5759371 -0.5149379
민주 0.23147467 -0.24211258 0.18032081 0.12214117 -0.024175541 -0.040971477 0.9393835 0.55815446 -0.60731375 -0.2574053
탓 0.13752143 -0.17851469 0.31713971 -0.10461684 -0.06840483 0.10541829 0.8638171 0.35704982 -0.78126 -0.16158585
홍 0.12469515 -0.109149665 0.5255666 0.6271582 0.3291057 -0.2818832 0.844936 0.12991384 -0.8033408 -0.79796517
설명 0.11984349 0.06880853 0.6766254 -0.7561416 -0.0941202 -0.11006257 0.9990531 0.5275993 -0.29709667 -0.55601305
던지 0.18390198 -0.029864494 0.4184533 -0.3121051 -0.052144177 0.15307292 0.98312193 0.47379407 -0.3629023 -0.2308488
51 0.3046498 -0.29877082 0.38493755 0.19967586 -0.100004725 1.0488523 0.47950613 0.24795596 -1.3008101 -0.15742029
오늘 0.28827238 -0.26294693 0.34808746 -0.043716542 0.09558956 0.35881582 0.7208127 0.47686297 -0.59566903 -0.4168938
경우 -0.0010955449 -0.07899644 -0.0038918757 -0.32189626 -0.3068704 0.0039437935 1.018963 0.38145918 -0.73182935 -0.3902212
식 0.13171478 -0.2125326 0.21937005 -0.04241224 0.006377 -0.012752231 0.87292576 0.45791748 -0.7435001 -0.29548693
높 0.12519483 -0.27197912 0.33274797 -0.1613824 -0.021531284 -0.2266821 0.935854 0.17835945 -0.82174915 -0.3379271
각 0.07564866 -0.23506165 0.31872073 0.34207985 0.032224055 0.3101429 0.7768282 -0.0057454263 -0.7370846 -0.5525009
망 0.39431572 0.03107477 0.34813842 -0.1280256 -0.1956192 0.34707668 0.8355423 0.6996715 -0.49317688 -0.2293857
동 0.13622336 -0.046207733 0.1621976 0.3815186 0.1975533 0.3432305 0.835792 0.23197128 -0.73909175 -0.46247312
일어나 0.22734573 -0.07386248 0.03475699 -0.09146621 -0.4029519 0.10603993 1.1191336 0.37901852 -0.6870327 -0.14234552
정당 0.011864598 -0.09341545 0.2208102 -0.07543292 -0.45963463 0.023317222 1.0391014 0.36018565 -0.56278926 -0.33548445
이랑 0.035520963 -0.3413137 0.16229959 0.07411434 -0.0064817527 0.21053486 0.7608467 0.29538038 -0.81708395 -0.3999959
군대 0.088848904 -0.09332099 0.28939578 -0.31319264 0.004285282 0.31004167 0.721292 0.5697012 -0.80916315 -0.32930398
카드 0.37532339 0.16302326 0.26729885 0.44834176 0.1685188 0.76991695 0.9404491 -0.00877449 -0.6280497 -0.51429886
버 0.42628947 -0.12544332 0.6226541 -0.46686122 0.11047628 0.39630428 0.8965918 0.44235474 -0.558166 -0.13308331
때리 0.562964 0.051371403 0.33512342 -0.3031773 -0.05182701 0.2950083 0.9781581 0.52866316 -0.40297526 -0.29005283
귀엽 0.10724877 0.024804827 0.7532452 0.14037687 0.23402698 0.1123201 0.7023484 0.32238638 -0.5985184 -0.47116694
편 0.3309034 0.03692856 0.43560335 0.11987323 -0.035322715 -0.13082682 0.94424134 0.34235883 -0.60123616 -0.23016328
심 0.07522314 0.11114379 0.28239128 0.036614656 0.20993161 0.5061451 0.9130299 0.2810002 -0.6125562 -0.44329762
전쟁 0.21996816 -0.09716745 0.24156739 -0.003658614 -0.009133138 0.04623778 0.970826 0.33439466 -0.5144596 -0.51401395
조폭 0.09800299 -0.049552035 0.3037318 -0.059516992 -0.15681344 -0.13406108 0.77596366 0.6202116 -0.79006755 -0.26135775
사과 0.33121344 0.055353187 0.40880746 -0.5273173 -0.35925046 -0.102030106 0.994612 0.45743015 -0.50278604 -0.35598543
똥 -0.007564166 -0.028338218 0.5752927 -0.03642768 -0.14658044 0.24753462 0.76644844 0.28821608 -0.80428475 -0.2031777
기각 0.1668674 0.023396488 0.41146573 -0.42292926 -0.5020023 0.21743813 0.8178544 0.72969985 -0.43063343 -0.38404313
7 0.15837513 0.04174386 0.52017426 0.87004834 -0.036347356 0.8707123 0.79705805 -0.2603405 -1.0192003 -0.70892954
허 0.23617817 0.0885188 0.63667035 -0.006401277 -0.017197507 0.22585204 0.840683 0.4288435 -0.49287337 -0.1533291
전부 0.16572563 -0.2204991 0.24407761 0.16873182 -0.15816389 0.07913827 0.8564707 0.25741312 -0.7760609 -0.34753928
조금 0.34047946 0.16151813 0.23859017 -0.35370386 -0.045623448 0.003396811 1.0409819 0.34518176 -0.4278568 -0.5592706
답답 0.21708493 -0.10523246 0.9886657 -0.30987838 -0.053921044 -0.029286006 0.6202821 0.48106027 -0.5067106 -0.61283
출신 0.13416892 -0.10265727 0.20184511 0.36318174 0.058248445 0.08662307 0.87708896 0.5262336 -0.67722976 -0.31438017
나중 0.41779286 -0.03582786 0.13426472 -0.14020316 0.028656164 0.113328256 0.8675608 0.3947123 -0.62476516 -0.47130653
세대 0.13250224 -0.103835784 0.10684829 0.18743104 -0.11649348 -0.39384946 1.0146108 0.52236253 -0.69986826 -0.40346932
ㅜㅜ 0.15117362 -0.25598007 0.7766372 0.052428942 -0.108396575 -0.08171873 0.73754346 0.16610934 -0.61110485 -0.47316176
이야 0.03480513 -0.106090516 0.29303986 -0.21217126 -0.24729708 0.09525123 0.7980073 0.5390453 -0.77422476 -0.24440292
음식 0.38507557 -0.026168259 0.26139086 -0.06565742 -0.015224398 0.3374694 1.1402428 0.41301405 -0.3536337 -0.22183573
찌 0.2577629 -0.18577905 0.41643894 -0.01004428 -0.041727196 -0.07727161 0.7813089 0.5073418 -0.8760068 -0.0914518
바뀌 0.24675241 -0.14929903 0.21303158 -0.11791399 -0.26942104 -0.040755603 0.8650601 0.3638771 -0.65889937 -0.38504496
악마 -0.032487042 -0.2448997 0.2812866 0.11247678 -0.2114429 -0.13476036 0.94212925 0.51021665 -0.6784897 -0.30993706
들어오 0.3387937 0.0052566547 0.33366567 -0.29152596 -0.062502235 0.09511731 0.8614766 0.31357548 -0.7411551 -0.25735345
당대표 0.17324348 -0.2356449 0.26488194 0.2827836 -0.07338234 0.004785699 0.7382991 0.46284685 -0.6998703 -0.61077106
; 0.11436255 -0.4595444 0.66089535 -0.18252659 0.0046433797 0.6508526 0.54256094 0.25454006 -0.9842315 -0.07116973
밥 0.39610398 0.13324784 0.22650087 -0.42487422 0.1767746 0.52041674 1.1276757 0.5709275 -0.392179 -0.1934104
판단 0.12460959 0.03816265 0.21839751 -0.4262413 -0.50380445 -0.35185713 1.169825 0.47549352 -0.38977087 -0.48755062
공정 0.07458763 -0.16626789 0.11823543 0.2919424 -0.058735397 -0.14526036 0.99916446 0.53638756 -0.5800249 -0.45120895
