2106 10
하 0.575874 0.246056 0.6111225 -0.36407602 -0.5839438 -0.3638365 1.0243068 0.5015707 -0.35607615 -0.37643299
이 0.11511807 -0.49304485 0.47503597 0.038742647 -0.5095555 -0.40042472 0.8146281 0.5536567 -0.95003706 0.04445087
. 0.09760778 -0.15740076 1.0638331 -0.012801767 -0.28522822 -0.14840934 0.7827918 0.081125855 -0.58465856 -0.3730882
는 -0.2907225 -0.21696262 0.066127166 -0.26622066 -0.26768962 0.066180766 1.4267008 0.4151244 -0.43068296 0.1279625
고 -0.35735723 -0.00623867 0.2758095 -0.52275217 0.05734294 0.47783327 1.3898679 0.41087583 -0.012061131 -0.4189036
ㄴ -0.28319752 -0.55301315 -0.02449286 -0.043495674 -0.11909572 -0.1309039 1.3776484 0.4303685 -0.49873528 0.06725548
가 0.068626516 -0.29074854 0.29405865 -0.3511067 -0.27590954 0.19585875 0.9732025 0.4753828 -0.59776753 -0.09217796
들 -0.28519756 -0.14498648 0.10841334 0.12789303 0.4193395 -0.3383935 1.2624383 0.53753567 -0.7304489 0.06960993
다 -0.62287956 0.10666512 0.9023513 -0.103712626 -0.3211545 0.24534447 0.9687292 0.42561218 -0.47646955 -0.14213362
을 0.0411217 -0.10672369 -0.061703693 -0.39933613 -0.097949706 -0.08341204 1.5169197 0.34658772 -0.09501308 -0.41563126
은 -0.46866634 -0.64453495 0.096214 0.09976724 0.08741367 -0.15567188 1.344299 0.24315839 -0.49797675 -0.16003497
에 0.094995506 -0.39193535 -0.25483957 -0.101790436 -0.052478336 0.42063126 1.1202532 0.20668274 -0.48040804 -0.5172835
도 -0.1505201 -0.44723937 0.30329236 -0.4439037 -0.2981887 0.16091926 1.2059377 0.16727965 -0.51100105 -0.0838323
지 -0.08048344 -0.11242835 0.6961972 -0.56388545 -0.45319524 0.4258376 1.3176922 0.4991058 -0.3018353 0.40185457
어 -0.09483118 0.37826684 0.4350115 -0.5426341 0.18541689 0.9861868 1.2182156 0.88418496 0.09435748 -0.27795374
? 0.45629296 -0.67087245 0.7803263 -0.21667945 -0.7832985 0.8566174 0.258022 1.2700213 -0.9799338 0.24600473
것 -0.60390276 -0.5116853 0.30961388 -0.72688013 -0.47648743 -0.52088004 0.80142254 0.8986964 -0.8143688 -0.651876
ㄹ -0.43590504 -0.41764218 0.57423127 -0.85635626 -0.46887276 -0.060514893 1.5860571 0.03795359 -0.25657213 -0.028494867
있 0.13877228 -0.3249086 0.5173463 -0.9951745 0.020818578 -0.14319727 1.1465703 -0.35867015 -1.0667788 -0.1603792
되 0.86073714 0.05240207 0.69901574 -0.4833977 -1.1755053 -0.24504551 0.92373884 0.20685853 -0.6258214 -0.232517
나 -0.03514859 -0.04013867 0.6862227 -0.3143209 -0.18926722 0.5385183 0.73359996 0.52903277 -0.63607234 -0.14838918
아 -0.2566693 -0.64253354 0.75680095 -0.25660008 0.5338905 0.6649561 1.0854512 0.822015 0.0432658 -0.20962779
게 0.08485764 -0.68177176 0.095178075 -0.99300104 -0.081577055 -0.10755649 1.0891224 0.96112156 0.061034 -0.98092127
의 0.095677614 -0.47638896 -0.30445 0.774434 -0.03222202 -0.4076537 1.4183265 0.2648301 -0.47250473 -0.38847625
를 0.28314024 -0.20392635 -0.23175798 -0.24606875 0.07216201 0.08149879 1.4803065 0.6934443 0.09209034 -0.3865653
네 -0.8430511 0.10442491 1.2141349 -0.14714469 -0.014335944 0.791047 0.6377632 0.62131464 -0.726619 -0.1719006
보 0.6562611 0.13256307 0.86880785 -0.7073886 -0.14667514 0.09241697 0.766108 0.588874 -0.6771296 -0.1038526
면 -0.0210868 -0.5464476 0.23462199 -0.36377397 -0.33362162 0.38438347 1.0712448 0.74039465 0.041971855 -0.5002939
었 0.023361713 -0.7171593 0.65667146 -1.0023644 0.3385235 0.32226542 0.8324285 -0.04046019 -0.5584535 -0.91422075
ㅂ니다 -0.41887054 0.35785663 1.1618919 0.5973647 -0.39261115 -0.6475127 1.3759179 0.5662357 0.39417312 -0.98054457
시 -0.16617848 0.85478115 1.251124 -0.26332143 0.6646859 -0.23308317 1.2160164 0.6060418 -0.007926981 -0.7761849
, 0.50965536 -0.20713681 -0.089336626 0.38334665 -0.3367025 0.20466857 1.3184327 -0.25774422 -0.58742166 -0.24789514
! 0.5360708 -0.21188027 1.8223712 0.9117868 -0.06410934 -0.022321064 1.4002402 0.44288844 0.034692544 0.4891203
없 -0.028388437 -0.4174282 0.4679987 -0.74691325 -0.13210982 -0.23377883 1.1463916 -0.46810353 -1.350092 0.09586538
만 0.104621105 -0.0075295144 0.27764702 -0.26132518 -0.08824692 0.6265023 0.97996247 0.19499089 -0.394253 -0.5274859
으로 0.33336106 -0.54006845 -0.4183753 -0.07607165 -0.052715514 0.0817901 1.3322389 0.19172248 -0.23031776 -0.70052737
거 -0.2676216 -0.71052593 0.5057391 -0.8071616 -0.3157558 -0.043390483 0.5826808 1.3018918 -0.7059497 -0.3503696
여 0.0012199973 0.283929 0.28776273 -0.37730905 0.3415588 0.1662384 1.4197116 1.2229519 0.39764792 -0.5120622
로 0.3049724 -0.24996194 -0.07796149 -0.2434119 -0.30544394 0.4677744 1.2456847 0.2523218 -0.22378728 -0.32951233
말 0.25846043 -0.12978937 0.63983274 -0.73650813 -0.073457405 -0.12417734 0.82759136 0.7915043 -0.517274 -0.2590462
ㅋ -0.66582876 -0.3242116 1.1519953 -0.44598132 0.89716756 1.2065188 0.55461645 0.7206328 -1.779586 0.3307165
안 0.51149243 -0.38035733 0.4084736 -0.783083 -0.62709236 0.23231936 0.858954 0.43069187 -0.2470827 -0.69573957
기 -0.24487147 0.075116664 0.209191 -0.40969104 0.14861171 0.36500335 1.0794631 0.701818 0.06727562 -0.9770071
주 0.53827 0.8672819 0.7317153 -0.5578942 0.48198345 0.23209554 1.0938851 0.957616 -0.20440428 -0.25424063
.. -0.061778262 -0.5458764 0.9265888 -0.2297848 -0.037129436 -0.10281742 0.6807136 0.39589888 -0.7694691 -0.20258449
아니 0.5251101 -0.2921204 0.43984723 0.024088245 -0.92712545 -0.07067282 0.683377 0.8297561 -1.3063619 0.6382111
ㄴ다 0.28514364 -0.3514697 0.72328585 -0.028866779 -0.56887364 0.30374882 1.3163191 0.77192265 0.66653323 -0.5266863
라 -0.21261513 0.23782791 0.41191596 0.27814126 -0.15980463 0.3400916 1.0242388 1.2938832 -0.3820914 0.30718148
사람 -0.5872411 -0.34837645 -0.17349702 -0.44995043 0.12439048 -0.52250904 0.9448246 0.91895604 -0.8781553 -0.6564719
님 -0.010098051 -0.042042136 1.048512 1.3435773 0.7417376 -0.87595457 0.9965376 0.7416755 -0.3486594 -1.158163
는데 -0.26630324 0.063652806 0.27111092 -0.6732897 -0.8501867 0.8133135 0.91774017 0.5644649 -0.33402973 -0.692036
니 0.062594585 -0.31907377 0.5682352 -0.1946365 -0.10769232 0.4147026 0.66616136 0.9617037 -0.3997742 -0.23588866
- -0.9357906 -0.77955395 1.612175 1.4744077 -1.5272226 0.69227004 2.206923 -1.2313796 -2.386074 -0.7407785
에서 0.24870805 -0.6472193 -0.40902144 -0.04877966 -0.058409013 0.31965235 1.1603259 0.3141183 -0.31351823 -0.67137706
... 0.12647271 -0.64937794 0.8402459 -0.2306934 -0.24361101 -0.0025862858 0.62628627 0.29603487 -0.94909513 -0.04580475
았 0.17007326 -1.7201627 0.72933346 -1.2699261 0.44979072 0.48193488 1.0932914 -0.13762031 -0.393611 -0.60217226
ㅋㅋ -0.28857625 -0.40823895 1.1320956 -0.36065617 0.6012827 1.0166204 0.39202696 0.69306725 -1.5146964 0.25191578
냐 -0.27769217 -0.12560254 0.54333514 -0.26948825 -0.7058525 0.93366313 0.6506909 1.7028228 -0.6442657 0.38043448
였 0.6365381 -1.0722685 0.4518135 -0.9363208 -0.26721013 -0.37018824 0.81132364 0.18097459 -0.33730355 -1.1868231
그 0.12442492 -0.12657313 0.16466877 -0.29019073 0.06520048 0.09068419 1.0202996 0.1922839 -0.83730155 -0.13878949
같 -0.2195534 -0.7253158 0.8306116 -0.35915756 0.41571814 -0.6732566 1.1076366 -0.09207648 -1.4172133 0.4108622
국민 0.0058044847 0.24432382 0.12870084 0.12359619 0.0933871 -0.7555936 1.3910165 0.85201544 -0.28551143 -0.3309702
겠 -0.13439676 -1.0151666 1.517094 -1.0848913 -0.059490554 0.039829135 0.7435628 0.13064872 -0.4730824 -0.7035219
~ 0.15818484 0.0153682865 1.4302845 0.6513129 0.011244564 0.4449529 0.6175196 0.24875954 -0.6511882 -0.14581499
않 0.50612205 -1.0752826 0.59617054 -1.0948014 -0.21136951 -0.082266144 1.1579173 0.18249857 -0.420131 -0.073918514
과 0.12267854 -0.5900691 -0.5537132 0.7237845 -0.14430867 -0.4882872 1.4720979 0.14315501 -0.406874 -0.8078323
잘 0.10794984 0.06296005 0.8277594 -0.67978895 0.024818856 -0.3532051 1.0740885 0.60719144 -0.1006449 -0.683791
ㅁ -0.20459725 -0.3044046 0.698234 0.17352809 -0.49214232 0.20479907 0.9349784 0.76903844 -0.11012092 -0.21878728
저 -0.014314701 -0.2567209 0.50299263 -0.03237614 0.09568494 -0.3663227 0.8159148 0.52165145 -1.1211499 0.1478345
적 -0.02808724 0.18463768 -0.6099093 0.16416174 -0.50143564 -0.36203325 1.5985827 0.027176863 -0.9008444 -0.16392455
대통령 0.44017154 -0.4046819 0.5105162 0.62554675 -0.25616035 -0.9222417 0.7559137 0.9369394 -0.41602466 -0.94538206
어요 -0.8689952 1.1682096 1.4150481 -0.056029238 0.57909507 0.24422345 1.1583482 1.1109651 0.13746503 -0.8613799
어서 -0.295391 0.04648062 -0.14007065 -0.46000674 0.08515697 0.55223566 1.3983896 0.6410846 0.078916185 -0.6812508
수 -0.78195745 0.36719552 0.3764605 -1.3043629 -0.61629117 0.038394026 1.0260891 0.042380713 -1.0860627 -0.96320105
살 0.59036714 0.07814735 0.57769156 -0.8182995 -0.013384512 -0.014975329 1.020656 0.10089047 -0.5831856 -0.398014
야 -0.21402463 0.045254648 0.94145626 0.3846162 -0.5367001 0.4167631 0.7481188 1.1800507 -0.715907 0.6123353
뭐 0.15596548 -0.54749984 0.56862193 -0.51990175 -0.73788595 -0.004931329 0.22914322 1.3453379 -1.214147 -0.10250237
일 -0.07665399 -0.043143716 0.09912246 -0.18131934 -0.6846018 0.09708847 0.8246616 0.3543856 -0.75256175 -0.6157814
알 0.22610094 0.06606622 0.82424045 -1.3437128 -0.33321315 -0.2811253 0.86981386 0.5005232 -1.1255238 -0.08738778
어야 0.48477218 0.41018596 0.57327604 -0.37938455 -0.74589443 0.26735583 1.2753237 0.9028713 0.49250603 -0.64290375
한 0.04553404 0.4818812 0.3272461 0.4827934 0.039829865 0.4159653 1.100227 0.31399885 -0.90504247 0.28806752
오 0.4918379 0.13318898 0.92827785 -0.56323117 0.33359635 0.34107122 0.48860884 0.46419534 -0.8916431 -0.3930216
아서 -0.38613445 -0.7965087 0.121267036 -0.754426 0.21609326 0.7102256 1.130463 0.5697006 0.025897084 -0.881706
왜 0.23306422 -0.7133823 0.31132975 -0.5500985 -0.04164732 0.15767491 0.5962457 1.1271503 -0.5954456 -0.28911108
내 0.4375638 0.50992 0.572762 -0.27576163 0.1931984 0.22892025 0.82702905 0.74958557 -0.46047273 -0.34468368
자 0.075654626 -0.16917576 0.29055995 0.12638398 0.15439469 0.10266861 1.1147802 0.88718104 -0.107151836 -0.18585114
못 0.0905923 0.1611071 0.39808163 -0.72496706 -0.2694824 0.20230082 0.98557156 0.5024962 -0.5142533 -0.35466915
받 0.63263845 0.042452138 0.2913228 -0.8086289 0.19869347 0.29500693 1.1021682 -0.09008479 -0.55219626 -0.55762506
좋 0.27712545 -0.2179949 1.418587 -0.80959475 -0.050468866 -0.4624668 0.8023242 -0.29685512 -1.0934932 -0.3137375
ㄴ데 -0.67979616 -0.31368595 0.11095383 -0.08619724 -0.5461424 0.20408924 0.8727388 0.760049 -0.95584536 -0.017988231
나라 0.4569664 -0.14390266 0.1435308 -0.23904443 -0.19384879 -0.22453003 0.8414679 1.1596482 -0.29600608 -0.53254473
습니다 -0.9998884 0.55865073 1.1729302 -0.1648319 -0.61766887 -0.044614505 1.3227787 -0.29914096 -0.22442515 -1.2105427
진짜 -0.26509914 -0.33621582 1.0014476 -0.15708156 0.20754743 0.039061975 0.5844489 0.61860764 -0.86189216 -0.11996252
으면 -0.6115979 -0.025098465 0.5807099 -0.9520172 -0.7058797 0.8379187 1.2394383 0.11637396 -0.12914851 -0.8979788
여서 0.13808043 -0.086425595 -0.42233607 -0.24730985 -0.2701927 -0.014447467 1.5836793 0.5732963 0.3132878 -0.9765446
먹 0.6771979 0.16584677 0.4733277 -0.85935503 0.4808325 0.83655304 1.2032493 0.13701281 -0.6029105 0.13151528
여야 0.88332754 -0.049066294 0.46285483 -0.03441224 -1.2155 -0.48562232 1.3239108 0.5954347 0.42130062 -0.8100912
생각 0.41969937 0.08575895 0.6245394 -0.66554826 -0.88167596 -0.7136572 0.944798 0.53633803 -0.6269267 -0.5008417
돈 -0.38933852 0.120030254 -0.29096758 -0.90870005 0.72349954 0.5560248 1.2638968 0.4328169 -0.9150141 -0.33682436
여자 -0.4472806 -0.53237754 -0.03610405 -0.096549615 0.15604357 -0.15221758 0.6431021 0.50282955 -1.3053126 -0.62356037
때 -0.22100167 0.18794414 -0.07427008 -0.7235731 -0.11565034 0.5236307 0.6665976 0.5671266 -0.6430652 -1.2883434
더 -0.32153022 -0.1856065 0.375977 -0.46009433 0.12800731 -0.20594327 1.1476424 0.43024355 -0.63639504 -0.15088668
라고 -0.18700413 0.12980653 0.4940905 -0.21244174 -0.49960697 0.0009876395 1.0017945 1.0367315 -0.36678165 0.011416299
까지 0.14744629 -0.025611771 0.30181938 -0.33978575 -0.06746677 0.27192044 0.9555643 0.03263061 -0.33063194 -1.0412575
나오 0.81458175 0.051885817 0.6961753 -0.74573267 -0.33050174 0.51077247 0.4498245 0.23168148 -1.0341662 -0.42725497
많 -0.29191932 -0.49169874 0.5894719 -0.6144676 0.67178655 -0.66294396 1.046798 -0.09177854 -1.4185307 -0.131953
음 -1.0761971 0.0814928 0.60397357 -0.6200063 -0.64069283 0.7379155 0.97372216 0.15089265 -0.80602443 -0.5869558
대 0.41866446 0.039976783 0.21785395 0.33369035 0.027267989 0.9006926 0.88715166 0.1720428 -0.67240006 -0.21548134
요 -0.18231682 0.08200932 1.4031963 0.27204847 0.40358162 0.18387878 0.6221733 0.5614277 -0.5904881 -0.28112623
다고 -0.3233824 -0.06814102 0.5990769 -0.88545704 -1.0311127 0.55168885 1.1045312 0.28671867 -0.13224958 -0.7982204
이런 -0.011008701 -0.2797555 0.28029642 -0.1662048 -0.2550294 -0.2482297 1.1388195 0.44460207 -0.949192 0.3991021
모르 0.28869805 -0.20039938 0.8905047 -1.1472298 -0.6595715 -0.22684747 0.6357554 0.25242946 -1.4212928 -0.10646381
인간 -0.32076776 -0.6267404 0.057856493 -0.09047767 -0.15574652 -0.32221016 0.8161411 0.7422282 -0.9331421 -0.3270166
년 0.37199 -0.6275452 -0.13035314 0.3784088 -0.4792985 1.3444632 0.43096903 -0.12784582 -1.2504175 -1.3113737
와 -0.12968573 -0.2178538 0.09514958 0.6455414 0.08011384 0.10969452 1.1803052 0.2710051 -0.52651685 -0.22355564
좀 0.3296766 0.061246 0.8471421 -0.44431 0.37873402 0.22210662 1.132815 0.96225685 0.10563089 -0.10038472
그냥 0.09494546 -0.102032736 0.44451106 -0.43872982 0.123899266 0.29691842 0.82608896 0.66425455 -0.69547254 -0.04943932
민주당 0.05846748 0.067379884 0.4151013 0.27117643 0.104745656 -0.2549112 0.8173577 0.7160977 -0.7464651 -0.26127318
만들 0.78487957 0.43697047 -0.3001934 -0.5856555 0.007070247 0.31769887 1.5783937 0.45679337 -0.42369646 0.123149484
네요 -0.84160864 -0.05458581 1.4000452 -0.32562834 -0.46706674 -0.026671344 0.8790663 0.31310162 -0.34805185 -0.6840022
ㄴ가 -0.40516636 -0.56889033 0.3593493 0.21514747 -0.7894441 0.39773682 0.7634077 1.5031447 -0.8787852 0.5476352
면서 -0.19955777 -0.44044304 -0.20001227 -0.5832682 0.2339951 0.32704246 1.3894603 0.59043413 -0.041678835 -0.5480853
윤석열 0.4746818 -0.07150398 0.1621009 0.74645966 -0.37305292 -0.36189884 1.0345253 0.45222667 -0.5551436 -0.5020956
쓰 0.45265132 0.26422602 0.23745726 -0.81002015 0.14618436 0.4366204 1.0997982 0.28913864 -0.8338622 0.09983374
서 -0.019793916 -0.25538102 0.5287124 -0.12106421 -0.14457804 0.67399806 0.70585394 0.38775286 -0.6321369 -0.28048068
대한민국 0.35774058 -0.13510293 0.35014772 0.659156 -0.28873777 -0.62381685 1.1064798 0.59850156 -0.5060653 -0.18820757
놈 -0.27656028 -0.6375903 0.013871598 0.09017999 0.052393015 -0.091957346 0.9882936 0.7677601 -0.84525985 0.019277139
너무 -0.5393693 -0.21073683 0.897559 -0.17099644 0.3479988 -0.46360093 0.7491455 0.28966004 -0.75311655 -0.7839111
너 0.29500535 -0.16829203 0.47804716 -0.059146058 -0.11348999 -0.00505453 0.6696441 0.89432263 -0.6824664 -0.13972905
참 -0.268314 -0.2288325 1.3041989 -0.120929495 -0.35407218 -0.22936086 0.6731271 0.36654735 -0.76297724 -0.120276175
던 -0.48996773 0.15030532 -0.10788876 -0.59149987 -0.6446665 0.54037607 1.0701324 0.17263179 -0.99895793 -0.39329317
시키 1.1093369 0.7636674 0.25345477 0.098468125 -0.2781162 0.33260462 1.3321296 0.60627973 -0.042875823 -0.12032933
누구 0.22924124 -0.40789968 0.32139033 -0.42734763 -0.20240058 0.02517087 0.4468871 1.2678365 -1.0500606 -0.04971888
애 -0.41315687 -0.54513615 0.028473582 -0.52318656 0.3854989 -0.16630955 0.78935367 0.9208197 -0.8636843 -0.534419
개 0.13401957 -0.29965338 0.2685519 0.1593386 0.17955358 0.44040024 0.8730871 0.09962415 -0.6793074 -0.34509334
싶 0.16053832 -0.16498607 1.2166054 -1.1818138 0.39889783 0.11180755 1.0943478 0.04976894 -0.5438675 -0.06577517
검찰 0.7167578 0.0883897 -0.49422318 0.5282386 -0.5518433 0.03315067 1.3983179 0.62827885 -0.36115724 -0.20390894
리 0.13194814 0.03348204 0.6107019 -0.11155868 0.26736253 0.5552887 0.87354803 0.763304 -0.4842227 0.08783584
지만 -0.70508844 -0.055045746 0.43291125 -0.37080732 -0.7432623 0.11293853 1.25246 0.050051805 -0.42844328 -0.55425614
에게 0.08075902 -0.0029001646 -0.25954092 -0.089064784 0.21938574 -0.30360052 1.3046567 0.50008184 -0.4914945 -0.4763481
정치 0.5620123 -0.15229295 -0.222973 -0.017043492 -0.40922377 -0.49603087 1.2198123 0.58660305 -0.56366605 -0.31939402
맞 0.39727786 -0.5988714 0.8452334 -0.59744966 -0.22609363 -0.34535822 0.88059205 0.16531889 -0.96412516 0.2008144
한테 0.02270784 -0.30205503 -0.09671861 -0.32213712 0.27536348 0.027116477 1.0671006 0.5413199 -0.54253554 -0.41199657
듯 -0.46432015 -0.13937414 0.5262704 -0.70077896 -0.3370165 0.13354403 0.6881241 0.81342757 -0.6487781 -0.54585105
ㅎ 0.901114 -0.7107919 2.1811967 -0.14229411 0.18376257 0.8365964 0.2646274 0.6379903 -0.5383048 -0.7248321
저런 -0.1954532 -0.375138 0.19668338 -0.084110826 0.17362297 -0.4524899 1.0796094 0.3899432 -1.1524564 0.18236023
ㅋㅋㅋ -0.32492226 -0.62477416 0.96911824 -0.3749195 0.43606904 0.9283274 0.4610547 0.7012154 -1.3831538 0.23311546
아야 0.113851614 -0.3872991 0.88142353 -0.582727 -0.35374743 -0.09022202 1.1935096 0.7198334 0.3340991 -0.55503947
이것 0.04933256 -0.26632783 0.63760024 -0.016536701 -0.56728786 -0.1655904 0.54476607 0.8792757 -0.9959125 -0.018598847
아라 -0.25594148 -0.26632366 0.8620556 -0.35418057 0.30147383 0.3366861 1.5504279 0.77770036 0.47699633 -0.052424308
우리 0.0693355 0.062533386 0.3543663 0.25607777 0.055165507 -0.6464316 1.0476341 0.4925067 -0.5753169 -0.5815979
정말 -0.26253748 -0.17927963 1.1057445 0.03542577 0.01905943 -0.6040684 0.9211933 0.13179235 -0.57301086 -0.5767866
명 0.30515563 0.50446135 0.22855693 0.9475502 0.0087257745 0.6505081 0.41113988 0.78749865 -0.8506734 -1.0352706
1 0.4272823 0.12457735 0.12875177 0.76052094 -0.3296421 0.9552489 0.95016015 -0.29621324 -1.0168859 -0.4417907
남자 -0.28862327 -0.36698925 -0.09606858 -0.21066394 0.15067479 -0.048288528 0.793 0.7488789 -0.8920186 -0.56451845
2 0.52422386 -0.049899016 0.38931224 0.9200351 -0.39327103 1.0466396 0.811845 -0.3474223 -0.9735688 -0.6403384
분 -0.5363452 0.11146509 0.3544097 0.07584925 0.2359006 -0.4887473 0.7383529 0.5233617 -0.7560376 -1.2480606
ㅡ -0.1204542 -0.1818668 0.8918506 -0.4379639 0.4724119 0.79020476 0.015083396 1.2286366 -0.82952946 -1.3966855
) 0.15804695 -0.23593347 0.34089097 1.0265548 -0.15203549 0.72777146 1.2060246 -0.77441317 -1.001223 -0.7358491
사 0.6560044 0.02506193 0.4998929 -0.3870472 0.3077872 0.48938853 0.5853285 0.7401308 -0.5631227 -0.47022554
치 0.646472 0.112127244 0.13092236 -0.52902 0.39495134 0.68843603 1.0111842 0.75824404 -0.6508531 0.21118644
원 0.49973494 0.53807956 0.2862695 0.45103392 -0.10453016 1.1758515 0.3367417 0.1943615 -1.04482 -1.1867523
이제 0.2635483 -0.049645487 0.2637884 -0.4292836 -0.21572109 0.15608639 0.66803116 0.39221925 -0.8100612 -0.60563344
ㄴ지 -0.58590287 -0.45034403 0.66939473 -0.5476274 -0.6741556 -0.15942982 0.88367283 0.9544657 -0.9202511 0.21797337
( 0.4958338 -0.2708503 0.40089807 0.9159555 -0.21430287 0.6939383 1.0488784 -0.62004465 -0.8516003 -0.65428823
.... 0.13844483 -0.4893055 0.95528007 -0.3472551 -0.22628888 0.10840531 0.6247026 0.1162554 -0.80928516 -0.30952823
전 0.6479442 -0.26235136 -0.37961745 0.2870129 -0.17888173 0.6404747 0.9517556 0.18833362 -0.7078278 -0.5861703
이재명 0.3156896 0.0015000625 0.4933416 0.47842592 -0.07556035 -0.3570529 0.92019194 0.6633274 -0.4803439 -0.37509835
데 -0.39637786 -0.17629075 0.2621233 -0.5139959 -0.4451784 0.33723795 0.5850116 0.5293295 -1.1645781 -0.40999675
: 0.40131563 0.14999238 0.89987326 1.320676 0.01957095 1.4472393 0.67424315 -0.31800956 -1.3354337 -0.6563273
그렇 0.3986894 -0.10545905 0.36704835 -1.2392772 -0.39781877 -0.27602383 1.060088 0.38087094 -0.86523235 -0.17671959
어도 -0.17411643 -0.15613832 0.24273616 -0.70673114 -0.46850115 1.0504078 1.0013971 0.8526922 -0.012405869 -0.58459175
당 0.06572136 0.02164118 0.3647585 0.30695608 -0.14224754 -0.0053714816 0.82737917 0.746095 -0.53793013 -0.30717787
지금 0.11041484 -0.021590283 0.34592006 -0.20573206 -0.22686529 -0.08720291 0.75078344 0.6610062 -0.6418577 -0.49864843
사기 1.0787647 -1.2173581 -0.19485277 0.4447935 0.24880609 -0.12637575 0.88690084 1.2338388 -0.9450674 0.26490664
~~ 0.22524713 -0.27456713 1.4707626 0.39210495 -0.021997863 0.23769058 0.58939844 0.63501495 -0.4724339 -0.047698937
씨 0.25812742 -0.52623844 0.64341563 0.55229396 0.18998548 -0.111061305 0.38835075 0.71853447 -0.606489 -0.81679976
위하 1.1351767 0.21278799 -0.7441975 -0.03842144 0.19898105 -0.70563114 2.085201 1.1488928 0.13561292 -0.25503486
어라 -0.010415493 0.2911814 0.6469332 -0.012592485 0.40791404 1.0019597 1.2884269 0.9681776 0.44771576 -0.31205395
짜 0.16131534 -0.28293034 1.4806952 -0.11276489 0.5813922 0.98070973 0.3178529 1.0182831 -0.5212465 -0.4501016
일본 0.28359818 0.11421237 -0.31836766 -0.022464374 -0.1411201 -0.0051649692 1.0612675 0.41399157 -0.7878828 -0.50264215
장관 0.159826 -0.054039553 1.1636729 1.4463905 0.33836627 -0.7194771 0.7266237 1.0947373 -0.6387213 -0.84216785
니다 -0.10356794 0.08811756 1.269696 0.6779681 0.4373366 -0.09004429 0.8185436 0.24966818 -0.097959645 -1.6322205
다는 -0.6096453 0.2754572 0.49126133 -0.6926507 -1.0585762 0.08182853 1.3467926 0.23758511 -0.6657874 -0.056358892
놓 0.815376 0.20799899 0.4081513 -0.6706879 0.6725188 1.0759721 1.2264268 0.39797756 -0.49982342 0.2661382
결혼 0.2957256 -0.2992671 0.0006895192 -0.4556379 -0.06228312 -0.34835625 0.8348506 0.49128762 -0.70823526 -0.81984264
라는 -0.45554736 -0.034148816 0.17692214 0.32103872 -0.39664757 -0.26829854 1.3283222 0.5804742 -0.8951574 0.5436504
그것 -0.16956867 -0.12086324 0.3848815 -0.6402804 -0.60638726 -0.25722033 0.69448763 0.7948139 -0.9043555 -0.44035578
이나 0.0811892 -0.1444383 0.02071326 0.01322799 0.06363259 0.42957756 0.8290644 0.47065535 -0.7017763 -0.43426406
보다 -0.12473616 -0.7121419 0.07130657 0.114937566 -0.0064800186 -0.3349025 1.1003039 0.32478935 -0.7422095 -0.16633582
보이 0.50427634 0.49929336 0.7644251 -0.700725 0.049555507 -0.037876006 1.0547807 0.5602398 -0.5842309 -0.0042399974
응원 0.22396307 0.7892705 1.84482 0.8015869 0.028075652 -0.9803324 1.3682433 0.23326442 0.0799929 -1.3905545
수사 1.0375121 0.17153311 -0.22332498 -0.014483214 -0.6680361 0.20838553 1.5358492 0.40382126 -0.036687396 -0.1813135
입 0.43697196 0.14644818 0.8863529 0.18925999 -0.013892558 0.065496646 0.61601746 -0.026675202 -0.5493466 -1.1253192
번 0.45645955 0.4706693 0.21292767 0.40262195 -0.1538646 1.0131791 0.62645805 0.56762004 -0.742357 -0.55070007
진 -0.28332418 -1.0168349 1.2446886 0.11363269 0.7724272 1.014219 0.7687753 0.85422456 -0.33742622 -0.25798023
의원 -0.1615582 -0.35919842 0.8592271 1.262472 0.31767857 -0.92524606 0.81149745 0.9954051 -0.58620125 -1.0105509
남 0.49097067 -0.16282935 0.16492702 -0.18143484 0.036583826 0.19781506 0.6638004 0.39273402 -0.9802385 -0.35776833
부터 0.30177063 -0.26145476 0.22944023 -0.0355718 0.010272842 0.43875277 0.850218 0.35026306 -0.4313904 -0.48773277
탄핵 0.68962145 0.3727118 0.5467909 0.51281744 -0.6483706 -0.21002585 0.9753828 0.8583261 -0.16812284 -0.36304843
이렇 0.41718438 0.3068433 0.35537705 -1.0571572 0.049080953 -0.2548132 1.0223029 0.757923 -0.7538604 -0.27937204
구 -0.098209575 -0.05402983 0.7915394 -0.13939 0.12355731 0.76307094 0.59046036 0.810059 -0.5464229 -0.22069578
꾼 0.2558878 -0.56927335 -0.42376405 0.62678707 0.1370108 -0.15537485 0.74912626 1.2773707 -1.603475 0.18869054
또 0.11402724 -0.27375844 0.40373373 -0.29677227 -0.16744654 0.33489504 0.723889 0.53449523 -0.5702761 -0.40251267
ㅠ 0.19848749 -0.5847137 2.0612338 -0.13326071 -0.20481902 -0.5527281 0.36821467 0.35241142 -0.6599292 -1.0392052
든 -0.18878126 -0.016582409 0.3774343 0.18275231 -0.47292757 -0.44322553 0.43668023 1.2757916 -0.78883255 -0.83842486
3 0.3517425 0.030434895 0.28012565 0.8880861 -0.42747316 1.1739014 0.79387134 -0.38218448 -1.1492251 -0.6160559
제 0.16347495 -0.39637327 0.5556023 0.3801983 -0.5645918 0.3001055 0.88117874 0.01267209 -0.6206924 -0.29215947
법 0.15484743 0.14991488 -0.3643122 0.0010372503 -0.32144362 -0.24561484 1.4159505 0.7049025 -0.4104382 -0.24234268
❤ -0.44434568 0.8653782 2.1475558 1.2807548 0.61901224 -0.4045891 1.2168319 -0.06334776 -0.6657121 -1.5517567
죽 0.6166722 0.061764464 0.5626362 -0.7505818 0.26401675 0.18876012 1.0053394 0.34197155 -0.62248 -0.131804
죠 -0.4350154 0.029635515 0.7895498 -0.25817725 -1.0324798 0.25478563 0.840483 0.7097198 -0.733164 0.05029216
버리 0.693748 0.44986618 0.7745873 -0.634033 0.24305817 0.6727919 1.0672199 0.56836027 -0.27989838 -0.06986136
?? 0.27316606 -0.5972782 0.941872 -0.44379154 -0.8550886 0.7114166 0.2178056 1.2444378 -1.1234224 0.16585329
한국 0.10238703 -0.2010145 -0.26593417 0.21982974 -0.030660052 -0.13626915 1.0969135 0.31783387 -1.021204 -0.15702687
ㄴ다고 0.22394854 -0.18770263 0.34673214 -0.573081 -0.6173191 0.059320234 1.1346036 0.9734741 0.18770547 -0.59410554
두 0.2193947 0.3654407 0.5276949 -0.08711262 0.15066491 0.061968014 1.1169856 0.20969824 -0.6445072 -0.003656353
어떻 0.6299547 0.062226966 0.2916112 -0.92840916 -0.22883402 -0.32453007 0.7259754 1.119637 -1.0207498 -0.057090577
문제 -0.08619983 -0.48404527 0.167235 -0.19684073 -0.7353587 -0.3916557 0.8901823 0.6825456 -0.917894 -0.083943956
줄 -0.444013 -0.39396107 0.80214083 -1.352486 -0.021770373 0.073027074 0.94908494 0.78656363 -0.5789992 -0.41923973
처럼 0.19666049 0.043737046 0.16764352 -0.09940786 0.19378158 0.051642638 1.0390955 0.63480574 -0.44918466 -0.2536154
며 0.21005566 0.094381995 -0.33705002 -0.04897066 -0.017930862 0.24016574 1.4548862 0.46107823 -0.003780768 -0.6164138
국가 0.5916191 -0.14997664 -0.535579 0.475632 -0.3927086 0.08554679 1.1204096 0.7037772 -0.55847585 -0.3319183
중 -0.114066385 -0.04705528 -0.08054605 0.36972588 -0.1484835 0.17040291 1.0313632 0.24643831 -0.8954175 -0.20634772
죄 0.073173754 -0.039728086 -0.23048705 -0.6514021 -0.45631263 0.021336183 1.0313926 0.75965667 -0.9679649 -0.05688158
한동훈 0.3872979 0.28289717 0.93191624 0.99915177 0.27464098 -0.23380397 0.7907175 0.78456116 -0.39821586 -0.74255496
는지 -0.49305993 -0.03397451 0.69496083 -1.1063167 -0.53811073 0.41894388 1.034873 0.96748126 -0.10088443 -0.52688277
잡 0.762713 -0.029045274 0.3691354 -0.7692284 0.268582 0.17328154 0.9261931 0.48982713 -0.68194777 -0.11487569
때문 0.19689853 -0.03910717 -0.24381514 0.034323674 -0.009444921 0.15763894 1.249698 0.12380028 -0.7146111 -0.25381872
대표 0.29681957 0.35773346 0.23202159 0.8992955 0.08265197 -0.331571 0.8292963 0.9780344 -0.54920524 -0.8433959
그러 0.83187985 -0.18761961 1.0084385 -0.91675615 -0.20989765 0.20765094 0.6549206 0.65599287 -0.6550927 -0.086922094
으니 -0.50622547 0.23822024 0.19242358 -0.7903655 -0.7252202 0.65091676 1.1605291 0.29519758 -0.45447534 -0.6688745
구속 1.1937965 0.26345193 0.3109038 0.36398715 -0.49754792 0.31701165 1.1019548 1.1485691 0.37648433 -0.6237827
니까 -0.017761858 -0.24857204 0.19071196 -0.5710315 0.2677401 0.48692244 0.99294204 0.81713325 -0.30523127 -0.35164395
짓 0.034824 -0.30924684 0.3193389 -0.4864582 -0.157526 -0.2301819 0.78423095 0.5804305 -1.0294782 -0.06058773
랑 -0.33231074 -0.3701615 0.24053991 -0.06644992 0.19226436 0.24387538 0.7861043 0.6621447 -0.88475204 -0.11176164
ㅋㅋㅋㅋㅋ -0.105584346 -0.25420523 0.8792411 -0.37262744 0.6564142 1.0407507 0.4593898 0.74629146 -1.4384865 0.2969704
무슨 -0.0012490979 -0.4795968 0.25079215 -0.21443194 -0.39769047 0.080861144 0.69053215 0.7711534 -1.1459726 0.1651789
자기 -0.13295154 -0.114972144 -0.04379825 -0.4055277 -0.09389559 -0.072648406 1.1605313 0.4749459 -0.61071175 -0.27471408
국회의원 -0.1581819 -0.26950046 0.43803713 0.32672656 -0.14005761 -0.48563507 0.80000836 0.5719776 -0.8400874 -0.33126095
" -0.11417572 -0.0933988 0.30499348 0.76806426 -0.2599901 0.22431086 0.93201643 0.5669854 -0.8217212 0.091382965
건 -0.079802364 -0.43413642 0.3923061 -0.22825457 -0.35227707 0.0010474169 0.5952263 0.63038933 -0.85666376 -0.43037608
근데 -0.20257233 -0.64840066 0.59646326 -0.40327203 -0.24139822 0.19054988 0.59357005 0.5205493 -0.87083286 -0.3134167
정부 0.04011893 -0.2518846 0.065767884 0.43383837 -0.5446765 -0.38571817 1.0430428 0.44641346 -0.73267424 -0.22668403
' 0.3467025 -0.23680964 0.25410932 0.9468667 0.37239474 0.548282 1.3151357 -0.5092332 -0.60260373 -0.84771
정신 0.06740746 0.2824513 0.9937235 0.16778484 -0.05184688 0.046231188 0.9656154 1.091343 -0.061020497 -0.0563238
믿 0.3313776 0.105384745 0.8176298 -0.56145364 0.13683398 -0.5096537 0.9101567 0.40687844 -0.73562187 -0.27457902
당하 0.5482631 0.096800365 0.123815276 -0.8162079 -0.31039494 -0.14885712 0.97229236 0.77928615 -0.5881857 -0.42171168
어디 0.32649082 -0.36418864 0.38801694 -0.7312233 -0.2950537 0.5827815 0.363631 0.5671964 -1.2115088 -0.30920509
많이 -0.0984467 0.21294187 0.5173357 -0.6780118 0.19340116 -0.04139519 1.1154084 0.32396093 -0.30393213 -0.7433146
본인 -0.14520177 -0.17911042 0.025240956 -0.30850497 -0.41053465 -0.20962782 0.88341165 0.6527038 -0.87358624 -0.30511057
잘못 0.14991716 -0.4422881 -0.0030955228 -0.53080344 -0.88127893 -0.36933228 0.88328135 0.81981075 -0.6785569 -0.5540177
다니 0.13368918 0.011683627 0.43975922 -0.59851366 -0.07580358 0.38095927 0.89865875 0.44879773 -0.6520795 -0.15263589
라도 -0.046910644 -0.034548484 0.13406645 -0.4598602 -0.16719933 0.07787928 0.98942417 0.7480743 -0.3963712 -0.47273177
크 0.038402464 -0.031505506 0.055284616 -0.49364516 -0.240554 -0.45845005 1.0309098 0.27161047 -0.92035306 -0.46785855
제발 -0.0067983293 0.237437 0.8097794 0.048678774 0.23263358 -0.13448703 1.0089768 0.83143 -0.2688622 -0.17680006
차 0.65805626 0.090179585 0.5892902 0.027491216 -0.11600556 0.35419986 0.87441456 0.105861306 -0.44084114 -0.43541408
윤 0.20595665 -0.31082016 0.633413 0.73165506 -0.17547028 -0.39196202 0.7436331 0.5904965 -0.7264422 -0.39903006
부모 -0.13760659 0.03353441 0.256576 0.16507469 0.09177403 -0.6844096 0.7574224 0.6146276 -0.94793165 -0.759283
답 -0.18451083 0.123909734 0.9562662 -0.01418557 -0.45133883 -0.120953634 0.7861287 0.5792692 -0.66000336 -0.10246985
뽑 0.53876597 -0.019571163 0.5025536 -0.66161495 0.0024668076 -0.25337586 1.0084027 0.6365554 -0.81360596 0.111966506
여도 0.13924012 -0.21823226 0.44144902 -0.38723424 -0.53900176 0.12699372 1.076612 0.4781295 -0.021917488 -0.5856609
이상 0.16693556 -0.08724333 0.08550148 0.21226896 -0.2950208 0.035056714 0.93555284 0.3062187 -0.86927116 -0.14584096
힘 0.17594357 0.7317811 0.509945 0.67019314 0.24513297 -0.4305516 1.0691419 1.0977335 -0.4958148 -0.21395159
듣 0.33265254 0.07972363 0.6413912 -0.9198151 0.019442009 0.17640023 1.1204343 0.20514546 -0.51370233 -0.1994965
여라 0.23853683 0.1578957 0.5249452 -0.06604922 -0.052539144 0.25653353 0.9874193 0.84053504 0.17158042 -0.6544157
ㄹ까 -0.050895657 -0.47801858 0.7193597 -0.267258 -0.38022926 0.24037984 0.596192 1.3178104 -0.503828 -0.04484459
못하 0.28392375 -0.10720977 0.1600359 -0.7664262 -0.15045051 -0.47396293 1.4057406 0.5377571 -0.3569587 -0.12232075
몇 0.50580573 0.13432866 -0.095558584 -0.00636958 -0.10949287 1.3508052 0.55849004 0.35097313 -0.97102386 -0.6905308
마 0.3655712 -0.17318395 0.87844104 0.16499351 0.18740962 0.4683415 0.82571125 0.5820433 -0.49372184 0.12624024
저렇 0.4223453 0.0963218 0.3259707 -1.3266522 -0.0646159 -0.29056698 0.92190766 0.8154555 -0.8589297 -0.315638
세금 0.18947609 0.39513683 -0.17089133 -0.01771548 0.14479738 0.083906785 1.61149 0.3216012 -0.38127157 -0.154547
만나 0.31282666 0.19831313 0.27605763 -0.749686 0.123739 -0.41710564 0.88235235 0.426165 -0.96806675 -0.6176167
… 0.15371381 -0.3940104 1.1534255 -0.25057906 -0.21474312 -0.13740231 0.5398072 0.61391145 -0.6276475 -0.27606007
걸 0.16717017 -0.24492174 0.0635128 -0.6364303 -0.04863352 0.20358545 0.77094316 1.1922796 -0.65439117 -0.21250278
인 0.19664434 -0.42511114 0.16749276 0.38553888 0.03323493 0.31030115 0.88920975 -0.0037984294 -0.98579097 -0.14112145
싫 0.5185354 -0.37554482 0.91361654 -0.77719903 0.38828382 -0.03411296 1.2507099 0.13699943 -0.3197846 -0.011982305
아요 -0.7101609 -0.8013286 1.3099693 -0.06455843 -0.31579998 -0.38330582 1.3020022 0.21093296 -0.078880824 -0.28152072
홍준표 0.12077869 -0.08160493 0.62139547 0.38506904 0.15735136 0.048474483 0.6737318 0.44997916 -0.70272 -0.39866912
질 0.5253616 -0.016449625 0.3033424 -0.14375791 -0.10473193 0.09595665 1.084453 0.33774552 -0.2798967 -0.3447286
쓰레기 -0.26894793 -0.7569205 0.19619013 -0.028513676 -0.16241257 -0.09269484 0.79981077 0.59951794 -1.0478985 -0.08793076
화 0.2317165 0.18474807 0.5589909 0.64011645 -0.3581988 -0.26733834 1.0482262 0.15168414 -0.32940373 -0.76528734
넘 0.384552 -0.034813892 0.6886258 -0.07226385 -0.010045822 0.4201467 0.7570291 -0.050594386 -0.67492473 -0.4576662
미치 0.03198035 -0.06247898 0.73494387 -0.37751073 -0.061079223 0.5339624 0.59928846 0.3345478 -1.3219597 0.2595479
집 0.19794303 0.21682289 -0.0749847 -0.22305177 0.2287402 0.47126648 0.79054755 0.41793 -0.9052377 -0.5722198
아도 -0.2604787 -0.36334398 0.61622727 -0.35896888 0.23172578 0.2872697 1.0814589 0.61190444 -0.26354092 -0.13242997
은데 -1.1100222 -1.1163472 0.6597962 -0.5561205 -0.6081651 -0.20047577 1.1996797 0.5385102 -0.92070717 0.026460476
꼭 0.19546501 0.19240567 0.6584907 0.008134894 0.19516447 -0.22171046 1.1418086 0.5976891 -0.10145328 -0.38706708
소리 0.11309191 -0.28884256 0.3502644 -0.48784646 -0.07740987 0.27643013 0.8550654 0.713151 -0.5567956 -0.11943832
까 0.2052497 -0.22664094 0.7383273 -0.56004876 0.1448815 0.65292066 0.60927105 0.63845634 -0.71954757 -0.1346402
려고 0.16620144 -0.16604118 0.16498715 -0.67318684 0.11574387 0.43352327 0.9761952 0.88632834 -0.18315218 -0.44517395
재명 -0.26654363 -0.058006793 0.4434391 0.15976065 -0.14706075 -0.09051807 0.8047173 0.58621836 -0.8409049 -0.266025
무 0.1765806 -0.09088597 0.29226154 -0.1637021 -0.17599644 0.18634124 0.8502783 0.32963592 -0.91055924 -0.046733927
ㅋㅋㅋㅋ -0.3223519 -0.4293081 0.9343558 -0.25598237 0.35915166 1.2906948 0.45862186 0.65842295 -1.5166715 0.37846237
러 0.07258621 -0.17273106 0.47981206 -0.33108822 0.117204174 0.105611436 0.77745205 0.92808396 -0.7563609 -0.009077968
스럽 0.24164525 -0.053968485 1.0335429 0.40021434 0.21937764 -0.81937903 1.0053836 -0.0088940235 -0.5399508 -0.6462598
같이 0.33446628 -0.04514346 0.27517563 -0.3150465 0.05382969 0.1093664 1.0978186 0.38206172 -0.26422963 -0.4738678
ㆍ 0.23358649 0.3661027 0.67218506 0.34625155 -0.41368252 -0.2001908 1.0582341 -0.01702975 -0.42683658 -0.6046339
아직 -0.2748839 -0.21860549 0.48575363 -0.2721711 -0.16731432 0.28074172 0.8227627 0.20100224 -0.8518605 -0.27220738
가족 0.1736344 0.016984656 0.053509533 0.30200943 0.237064 -0.43292767 0.9621895 0.777533 -0.69645256 -0.34306177
형 -0.0077241724 0.06707194 0.50988346 0.35869676 0.21976288 0.2202006 0.46240914 0.5881233 -0.9420475 -0.5622863
국 0.33496046 -0.3647364 0.7651078 1.0051873 -0.4172353 -0.236765 0.80263966 0.7122131 -0.54516953 -0.120170824
방송 0.27357233 -0.11135945 0.44765303 -0.027291566 0.10283056 0.24471244 0.6338205 0.6967938 -0.62814516 -0.4078326
우 0.12980919 -0.095892884 0.7752222 -0.03177507 0.20772128 0.5217603 0.7695436 0.5778299 -0.5727585 -0.018385531
해 0.2544045 -0.071225144 0.44040552 -0.0021084228 0.13028418 0.46456736 0.8692674 0.88024116 -0.36578265 -0.12442544
앞 0.1433044 0.35182664 -0.18497519 0.12254132 -0.028636253 -0.39925307 1.2980028 0.12388452 -0.7819505 -0.58419245
이유 -0.00429277 -0.36109743 0.20674247 -0.25040612 -0.8601078 0.13447763 0.84921956 0.17151546 -0.77756613 -0.45219788
범죄 0.4998846 -0.34952304 -0.25318065 0.19726086 -0.4490272 0.0343369 0.965277 0.45117417 -0.7382418 -0.29571807
가지 0.07376979 0.099857815 -0.12265756 -0.2979358 0.07533594 0.3260419 1.1133449 0.21138662 -0.8406645 -0.20231692
재 0.19666961 0.15302144 0.41973963 0.5965444 0.30267057 0.3859589 0.42335683 0.6627845 -1.04977 -0.6247164
이준석 0.027723655 -0.37977308 0.40902016 0.32447606 0.13448372 0.06649346 0.75614464 0.73467773 -0.5746782 -0.25605464
힘들 0.25194782 0.04912535 0.9983995 -0.83979195 0.11106326 -0.25436345 1.2240027 0.018072981 -0.3861994 -0.30035442
세상 -0.40015578 -0.23594177 0.39816523 -0.21426061 0.15826519 0.024201581 0.86443526 0.44758052 -0.83960307 -0.26393482
판사 0.07975202 -0.2195191 0.34300312 0.41288543 -0.11771731 -0.2347979 0.8162617 0.8110741 -0.617773 -0.17891066
성 -0.20234552 -0.023771042 -0.011036021 0.119484425 -0.19224666 0.20258817 0.95481026 0.23519696 -0.914789 -0.23804618
다가 0.021329796 0.016743647 0.18710507 -0.876736 -0.066627525 1.0697749 1.0306802 0.47958285 -0.28842634 -0.53702414
다른 0.14315514 -0.093997054 -0.15726997 -0.17227569 -0.036342446 -0.2308734 1.2043355 0.33676738 -0.7894824 -0.16044733
달 0.6118491 0.07246195 0.066133104 0.11292304 0.103948236 0.8157669 0.7052962 0.7679892 -0.7398809 -0.16301394
얼마나 -0.06297873 -0.1491841 0.65758204 -0.5514974 -0.2879504 -0.33087432 0.73488456 0.52597684 -0.7647855 -0.45354956
터 -0.16332026 -0.12245984 0.26297125 -0.52778196 -0.67940164 -0.078764044 0.3358561 0.9114141 -1.3041482 -0.7058883
모든 0.32811913 -0.02393805 -0.17784937 0.2529283 -0.2826831 -0.50934035 1.2119125 0.33230206 -0.5994344 -0.5291457
속 0.30552056 0.30648506 0.6676883 -0.11918335 -0.21212247 -0.19428304 0.7377369 0.34154576 -0.8235864 -0.41718733
찍 0.1964942 0.11407174 0.373772 0.22715162 0.27646738 0.6648632 0.832354 -0.048301138 -0.9406147 -0.34909326
권 0.42534366 -0.057137437 -0.349198 0.37848753 -0.31677142 0.18247312 1.209909 0.003056004 -0.67898035 -0.50700855
그런 0.1471984 0.015337007 0.21908496 -0.5311031 -0.37256348 -0.027300734 1.1474664 0.33670244 -0.8637156 0.13609032
다시 0.29041392 0.020164426 0.65790945 -0.48539507 0.11572316 0.29802555 0.89311403 0.43214703 -0.3911408 -0.36321345
남현희 -0.058110256 -0.40760574 0.3066119 0.13423012 -0.16483632 0.29891235 0.6780826 0.56690323 -0.9481173 -0.06059998
감사 0.15595306 0.7542214 1.6048702 0.3371227 0.1591846 -0.82630104 1.1248093 0.09690678 -0.23600073 -1.2600251
보내 0.69737893 0.5887679 0.5731015 -0.2697997 -0.007289676 0.050529275 1.0191704 0.6475097 -0.30181238 -0.2424387
5 0.19963104 0.07446494 0.26736125 0.86895585 -0.15844434 1.349603 0.76884437 -0.2828922 -1.0066708 -1.0264333
구나 -0.5652792 0.030423867 0.717336 -0.5316422 -0.6429715 0.64152944 0.70695007 0.444722 -0.8434844 -0.37795764
조 0.2461807 -0.14948566 0.11104035 0.43678233 -0.18600017 1.0640696 0.6109402 0.26932564 -1.1837275 -0.11360249
😂 -0.17916732 0.5257275 1.8305024 0.79217154 0.6706358 0.32103354 0.5598775 0.385648 -0.8394464 -0.58844537
필요 -0.26859328 0.14974067 0.50146073 -0.36320654 -0.54658586 -0.41109502 0.9803313 0.2182144 -0.83657104 -0.42550644
그리고 0.09626443 -0.22320437 0.61739016 0.25711668 0.10174381 -0.20304443 0.7522272 0.23237959 -0.8091961 -0.37218243
하나 0.035248082 0.0629417 -0.14807378 -0.13960052 -0.36465362 0.21593478 1.0586513 0.5369006 -0.76176614 -0.15036711
사실 0.11299826 -0.22135155 0.12942246 -0.12202175 -0.2849998 -0.21332116 0.9412709 0.47165263 -0.801853 -0.1158335
저것 -0.04163254 -0.33537173 0.552718 -0.3529843 -0.28703484 -0.07053261 0.40566614 1.1473031 -1.0714015 -0.08303519
사랑 0.16411197 0.4376175 0.7279393 0.29850137 0.14261329 -0.65205836 1.0783128 0.5367103 -0.2698149 -0.766446
^ 0.36558732 -0.35530692 2.51245 0.66872466 -0.38640165 0.49954996 0.63024634 0.0017155454 -0.38240498 -1.1662307
정도 0.35997912 0.13360792 0.23484278 -0.2180374 -0.6273982 0.34178522 0.61006296 0.31889004 -0.8782673 -0.6755445
거짓말 0.45565644 -0.13535805 0.44986567 -0.1460278 -0.33647123 -0.36260325 0.843269 0.5059547 -0.61419094 -0.3686251
사건 0.3461779 -0.12633407 -0.47309908 0.16841565 -0.2843249 0.07318306 1.0533059 0.36155367 -0.8473645 -0.4476975
우리나라 0.23115106 -0.041714463 0.43247733 0.38259774 -0.09991024 -0.13469279 0.7964855 0.4346811 -0.7979345 -0.21187977
나요 0.012596536 -0.19810434 0.724875 -0.7893125 -0.9444641 0.5772615 0.7458595 1.119383 -0.43735364 -0.033030648
대단 -0.19304332 -0.11200641 1.208745 0.099779226 0.22704731 -0.4754515 0.59979135 0.64263755 -0.55687684 -0.6384154
계속 0.36478838 0.0903738 0.32230675 -0.374578 -0.08568443 0.05114086 0.86244583 0.4359434 -0.5730927 -0.4931296
바 0.24709469 -0.02600036 0.89705426 -0.23969196 -0.1752441 -0.05324668 0.6193442 0.5517539 -0.5959055 -0.47422743
런 -0.3502297 -0.45205113 0.3172265 -0.060346417 -0.0006486062 -0.30593777 1.0262614 0.9917783 -1.0577238 0.40815377
나가 0.4917672 0.010710985 0.6803576 -0.7547903 0.0069140303 0.31769937 0.72548985 0.57815593 -0.5782463 -0.3256818
증거 0.44744986 -0.28025135 0.30430898 -0.51610124 -0.75573254 0.2300061 0.85080665 0.20039406 -0.5243474 -0.5561537
국회 0.55214196 0.15798733 -0.09852568 0.1556795 -0.3189813 -0.19985342 1.135885 0.78199357 -0.43013433 -0.20160219
망하 0.5936103 0.08276071 0.34010422 -0.69560474 -0.5447688 -0.4103505 1.0523038 0.50676346 -0.54241437 -0.39887086
최고 0.29877368 0.20010884 1.15112 1.2445053 -0.024954956 -0.40147746 0.81705636 0.46637052 -0.5032872 -0.88582313
얼굴 0.09337512 -0.15911345 0.30483758 -0.65144193 0.111860365 0.40305376 0.7178467 0.5877132 -0.7522063 -0.37098554
ㅂ 0.1287048 0.40356368 1.384519 0.14725417 0.5027768 0.12090604 0.4331856 0.7202639 -0.49213246 -0.94425243
4 0.2597592 -0.15115304 0.03825215 1.1052227 -0.12082122 1.1339844 0.81890017 -0.052587852 -1.2110133 -0.5442603
!! 0.26006 -0.26050487 1.763758 1.0555321 -0.47032267 0.12857011 1.0770698 0.47207174 -0.20672433 0.22215545
끝 0.074251585 0.45142558 0.7635471 0.1572828 -0.1371944 0.10217674 0.8199707 -0.13653472 -0.5033554 -1.3276963
ㅉ 0.5163425 -0.58708113 0.9261376 0.32032415 0.12806702 1.0505749 -0.12692761 0.6970052 -1.256847 -0.80065924
없이 -0.008064332 -0.012688506 -0.14445369 -0.39760137 -0.2920307 0.17264262 1.408929 -0.040572625 -0.50206405 -0.3688211
길 0.15360221 0.24530753 0.5151763 -0.5975122 0.09698638 -0.25386885 0.9978087 0.439978 -0.4048453 -0.69674647
노 -0.42525625 -0.36407414 0.8398935 -0.10093715 -0.15936403 0.80301756 0.68306583 0.71666205 -0.70272374 0.08855946
을까 -0.25938746 -0.06132634 0.64099735 -0.9471475 -0.92398 0.7715871 0.94843835 0.60921204 -0.5704916 -0.06411658
검사 0.28534317 0.014926969 0.1987086 0.52562225 -0.2768759 -0.21941172 1.1472999 0.4223884 -0.43877086 -0.26006782
눈 -0.11041461 -0.08662723 -0.059027843 -0.5846748 0.0258487 0.20297942 1.0484267 0.15460433 -0.8561612 -0.47606766
피 0.2536943 0.05034993 0.12169993 -0.25699767 0.15253028 0.017880524 1.104495 0.5094514 -0.38723055 -0.490082
마음 0.252068 0.11674892 0.33745962 -0.109392725 0.11684391 -0.35363764 1.0360638 0.39293024 -0.5206213 -0.45954064
벌 0.3378262 0.14440466 -0.06625348 -1.0274593 0.53238213 0.5356355 1.1569022 0.42084867 -0.8549235 -0.2940642
미 0.13083802 -0.37574932 0.26356083 0.41893196 0.011562432 0.7202916 0.61606693 0.73333675 -0.92713845 0.05200582
생기 0.3131413 0.16332972 0.51938826 -0.82403266 -0.15384941 0.07752641 1.003744 0.32336393 -0.7176534 -0.077948995
억 0.40328532 -0.06755189 -0.038552098 0.18115757 0.033100344 1.3133209 0.78384453 -0.02481346 -1.0004462 -0.40856934
둘 -0.17187355 -0.31843296 0.58042914 -0.32396036 0.0065074633 0.15685323 0.72342336 0.32848734 -0.9612317 -0.12474744
중국 0.18745473 -0.090051696 0.56138265 0.5095709 -0.14999431 -0.07466183 1.0924047 0.26048398 -0.31042206 -0.25683892
아이 -0.07853995 -0.21858405 0.20764224 -0.4348225 0.047265578 -0.2932236 0.982205 0.36372662 -0.6768979 -0.55898166
인생 0.06737754 -0.1324882 0.22998337 -0.18828769 -0.068845764 -0.2545122 0.83404917 0.713601 -0.6586589 -0.4316812
곳 -0.20246892 -0.08842532 -0.041324373 -0.47073942 -0.36583182 0.026909646 0.90419304 0.43427813 -0.9130329 -0.46953106
어야지 0.034935124 0.22775233 0.6337069 -0.52431 0.10680927 0.7359375 0.8011126 0.8732375 -0.2505499 -0.39082018
지키 0.36287907 0.67168766 0.20239544 -0.6206519 0.1090651 -0.50313807 1.4979575 0.6545523 -0.3672982 -0.18757066
수준 -0.23093058 -0.093916334 0.23506944 0.070360586 -0.10268698 0.06276763 0.7879947 0.6504119 -0.9424812 -0.11995243
이거 -0.06691617 -0.47819245 0.72199273 -0.18840133 -0.119577035 0.34715107 0.7063158 0.5252529 -0.683457 -0.09882291
영상 0.061411235 -0.12364626 0.29862452 -0.36449558 -0.15745562 0.38988808 0.76428515 0.54426455 -0.6490328 -0.37228698
대하 0.72296137 0.22437385 -0.38891295 0.03364532 0.028543424 -0.4628205 1.3870078 0.56685156 -0.48377815 -0.4039456
10 0.46421078 -0.16985926 0.31956092 0.58736295 -0.32340637 1.2632834 0.6159658 -0.25887525 -1.169944 -0.8013409
물 0.5360368 -0.16285905 0.11044874 -0.46017748 0.19891995 0.48038846 1.0774442 0.33350345 -0.46325064 -0.24008165
제대로 0.23388416 0.106707096 0.47318843 -0.6953973 -0.15354261 -0.03526994 1.0673735 0.6983485 -0.27673867 -0.3631188
으 -0.018933563 0.104791276 0.91828954 -0.21360308 0.0009803125 0.33370954 0.56966966 0.49374402 -0.70540005 -0.49081144
용혜인 0.21721672 0.03338728 0.8129199 1.2613629 0.23531096 -0.6709057 0.9598758 0.70833826 -0.70808595 -0.8747865
함 0.273204 0.077962115 0.7148222 -0.17724274 -0.11567291 0.430121 1.0704939 0.51628566 -0.099839926 -0.16322398
막 0.54057103 0.09319587 0.31904107 -0.62694424 -0.29536438 -0.02543959 1.3672426 0.2932327 -0.31960467 0.019712862
요즘 -0.12815464 -0.22518012 0.49057165 -0.006751998 -0.004080387 0.10202339 0.6181281 0.4307402 -0.9473348 -0.31453785
어떤 0.05707571 -0.3593299 0.0071423203 -0.10035405 -0.16399738 -0.15780208 1.1344715 0.13671048 -0.9220826 -0.06308113
범죄자 0.30196506 -0.08093829 0.02224128 0.12934731 0.016706219 -0.13473903 0.9637583 0.80766946 -0.5059664 -0.29052883
다르 0.100959025 -0.22709993 0.53839666 -0.06492499 -0.38064945 -0.1309639 0.47456205 0.5208054 -1.3279926 -0.07249563
팔 0.56053936 -0.0791945 0.33411926 -0.5467054 0.2916575 0.40613857 1.0051814 0.57067794 -0.48523992 -0.110585734
란 -0.20233996 -0.15456846 0.09709014 0.27087083 -0.18717007 -0.36995864 1.1001185 0.4821264 -0.96425885 0.08775992
뿐 -0.19670895 0.07005854 0.36395147 0.094536446 -0.41596112 -0.16542722 0.7416968 0.45231628 -1.2488004 -0.112485446
다면 -0.20553568 0.14418365 0.40781757 -0.69000965 -0.89781773 0.2713102 1.0466475 0.32160303 -0.46156412 -0.62735766
ㄴ다는 -0.059106156 -0.14589307 0.34665477 -0.49800923 -0.34549147 -0.20742053 1.2914835 0.5798089 -0.30624893 -0.01744593
~~~ 0.24354656 -0.043999203 1.1810471 0.53141797 0.27379993 0.2812255 0.5179357 0.5959751 -0.5439401 -0.3803905
죽이 0.69337636 0.36438364 0.10681351 -0.7018137 -0.099266924 0.052093044 1.2335488 0.36414358 -0.42531276 -0.41109094
친 0.226804 -0.10264633 0.08370985 0.48290622 -0.3625803 0.29832232 1.1256822 0.20196621 -0.6830069 -0.08266001
등 0.33321804 -0.1733752 -0.23286946 0.26583374 -0.032454308 0.4649225 1.0911554 0.14733121 -0.86145574 -0.12210739
신 0.07001063 -0.1862193 0.3347728 0.28357908 0.06310065 -0.041244656 0.79944205 0.4742189 -0.7779027 -0.30525422
지지 0.23921284 0.4823644 0.90235126 0.45688275 -0.116271324 -0.44938767 1.1312854 0.17447637 -0.1131049 -0.8594235
올리 0.3929616 0.119033486 0.36875778 -0.6488065 0.11791584 0.28386346 0.88191247 0.42480904 -0.6621632 -0.27386132
정권 0.32475904 -0.08446961 -0.15250704 0.19035256 -0.33859378 0.10614815 0.9950733 0.279429 -0.56139123 -0.7387365
자식 -0.03097347 -0.1649422 -0.08642852 0.099322 -0.08775776 -0.6177087 1.0443199 0.58675134 -0.8454918 -0.3879416
웃기 -0.06980283 -0.21155058 0.86984855 -0.28700575 0.36688206 0.40288702 0.59507656 0.39583793 -1.2137804 0.2253574
👍 0.6054441 0.44583884 1.94297 1.264538 0.5216113 -0.076527424 0.8624053 0.17592888 -0.5979944 -1.5094899
한심 -0.20013873 -0.23623982 1.2023125 -0.044005793 -0.2346397 -0.25618565 0.6765784 0.5841878 -0.5800004 -0.22565399
날 0.009704313 -0.08985545 0.28549334 -0.15731579 -0.11129551 0.34473842 0.73060423 0.37953827 -0.5977594 -0.69085
정 0.03515131 0.06260435 0.452942 0.38049796 -0.06572482 0.027561136 0.78120905 0.38063842 -0.67195714 -0.49575537
역시 -0.035130672 -0.17559451 0.8805069 0.7636058 0.25530845 0.12613764 0.5754305 0.46128964 -0.80776423 -0.32448602
모두 0.23289506 0.122868255 0.07358935 -0.015898565 -0.034597903 -0.22910766 1.2879596 0.42732403 -0.33728632 -0.36736494
아야지 -0.1528432 -0.16940387 0.64459306 -0.5208323 -0.045593623 0.15111452 1.11312 0.85856175 -0.033934284 -0.24076617
이해 0.41989547 -0.053442523 0.51692677 -0.8999838 -0.57410496 -0.30409607 1.0037973 0.55161285 -0.49769 -0.39781547
나쁘 -0.023777867 -0.35623494 0.16933078 -0.32594693 -0.18240932 -0.25470895 1.0291346 0.2615773 -1.2092211 0.2511928
% 0.6427868 -0.027097126 0.39563936 1.1441915 -0.28638577 0.73295355 0.6827855 -0.14783779 -0.95886564 -0.6933482
위 0.46678033 -0.04680167 -0.10169917 0.49162117 -0.044204134 0.40097207 0.9791089 0.21061276 -0.7039571 -0.52325374
처벌 0.7325519 0.2957731 0.35237464 -0.43572465 -0.1642553 -0.33530062 1.5704422 0.7578236 0.30473343 -0.44772628
으시 -0.6475255 0.5306623 1.1487141 -0.24568826 0.32838568 -0.4552854 1.1142155 0.1377978 -0.589472 -0.80109423
얘기 0.28727236 -0.13710842 0.40346062 -0.5764375 -0.16029613 0.021402942 0.7971243 0.48139328 -0.7092005 -0.3921788
세계 0.4491131 -0.16403688 -0.46115553 0.54672843 -0.27512455 -0.025371635 0.89994127 0.4544984 -0.8934843 -0.8301194
지방 0.10104395 -0.14485635 0.17021675 0.23142785 -0.31388828 0.11788707 1.0663049 -0.16617437 -0.795822 -0.30760878
시간 0.13293597 0.19197686 0.22368337 -0.3082247 -0.22548372 0.28820434 0.95962495 0.24775456 -0.564191 -0.5294529
조사 0.7104532 0.31381655 0.20191997 -0.17066501 -0.24170093 0.13849275 1.0984669 0.5376704 -0.22381774 -0.49238554
피해자 0.022541823 -0.21891014 0.2091529 -0.17188804 -0.2141753 -0.08728039 0.8683148 0.6514461 -0.586642 -0.3558712
엄마 0.012503677 -0.09098667 0.43054798 0.019710416 0.041634742 0.08171639 0.6244023 0.51813954 -0.86187744 -0.3778003
모 0.28225338 -0.03937779 0.40111852 0.17056118 -0.20521694 -0.1676869 0.58229923 0.6059098 -0.8418205 -0.49476048
세요 0.07012715 0.56713265 1.1631256 0.56608206 0.33168033 -0.16431716 1.0261937 0.7963254 0.17486759 -1.2004366
바라 0.46556985 0.8300108 1.1393994 -0.51680386 -0.389315 -0.61033624 1.1012248 0.5532215 -0.19379847 -0.73940855
다음 0.41195825 -0.06975158 0.014093504 0.3426179 0.22567038 -0.15499818 0.9698264 0.5811689 -0.57560384 -0.43708292
= 0.60696036 -0.32990712 0.086853825 1.4682513 -0.11190891 0.899516 1.0591019 -0.43856153 -1.2267158 -0.51935816
결국 0.13499872 -0.19479044 0.0120411385 -0.37151575 -0.29967985 -0.037451465 0.9878107 0.3419298 -0.726343 -0.4071625
20 0.3880723 -0.08278075 0.38769072 0.9658906 -0.22987765 1.3039479 0.7979865 -0.116440564 -0.9800039 -0.44589925
열 0.38683572 -0.1330189 0.6571772 -0.3542993 -0.089760564 0.3449712 0.7406133 0.42677158 -0.4596101 -0.4614953
/ 0.30458248 -0.25438786 0.40400988 1.2405512 -0.22248408 0.6330446 0.8637915 -0.49625865 -1.1289872 -0.7977498
배우 0.22594236 0.17921934 0.6702991 -0.4669565 0.08726204 -0.13514526 0.88146305 0.50691664 -0.6045842 -0.3210482
타 0.54380524 -0.05098069 0.4165238 -0.16592358 0.015812978 0.09865723 0.8984 0.32188344 -0.49523106 -0.45464763
라면 -0.38232753 -0.1800204 0.049485378 -0.047946658 -0.16810809 -0.02418764 1.0109732 0.6148801 -0.9124224 0.018365331
ㅂ시다 0.1310512 0.38227442 0.70409566 0.0928809 0.049377646 -0.102133855 1.3573446 0.58520013 0.24577679 -0.45194194
그만 0.40456396 0.1523271 0.6828427 -0.52174103 0.17670746 0.059462488 1.0233197 0.67358035 -0.17805897 -0.3440996
상 -0.175407 -0.34983662 0.19337587 0.037832167 -0.122879855 0.06824452 0.8571157 0.3446808 -0.83850443 -0.22733612
키우 0.28521612 0.2873238 0.095876016 -0.7314714 0.30850133 -0.05986165 1.1313218 0.5247132 -0.6304078 -0.38871935
비 0.08429772 -0.14598161 -0.050963044 0.09057586 -0.06908339 0.13493726 0.9703058 0.39982048 -0.71332926 -0.3004227
찾 0.5396503 -0.038301032 0.61464924 -0.91466576 -0.2021042 -0.047261856 1.097612 0.36403942 -0.39234033 -0.31113034
장 0.2120067 -0.106717475 0.37116885 0.54987985 0.029675048 0.5961875 0.36960983 0.47135973 -1.0272207 -0.64613086
뻑 0.4413102 -0.28034872 0.84585387 -0.08658003 -0.006359505 0.37517133 0.45565715 0.6858786 -0.81992817 -0.02234938
행동 -0.036822706 0.047673173 0.1008777 -0.19058363 -0.34916878 -0.42757764 0.9977951 0.71781474 -0.70732963 -0.37576544
ㅂ니까 -0.046201095 0.027290652 0.56629264 -0.2331451 -0.2558691 -0.05722875 0.77337646 1.2894202 -0.5024742 0.01632434
자신 0.013810998 0.10292764 -0.065709114 -0.25220945 -0.15911879 -0.10124981 1.2718445 0.32610694 -0.6070195 -0.24245618
제주도 0.3539556 0.06411677 0.34778357 0.07685048 0.061205335 0.23483954 0.8251407 0.28770345 -0.6740509 -0.45109603
경제 0.40351027 -0.0741175 -0.2469781 0.23082612 -0.30228698 0.17456156 1.0800433 0.062959515 -0.6781591 -0.5334268
기업 0.022677165 0.10894049 -0.053587526 0.18137479 -0.43755835 0.34850597 0.9961093 0.41461933 -0.7374589 -0.26668012
세 0.27738005 0.15228212 0.64350456 0.4803372 0.23065665 0.351448 0.8509996 0.34739834 -0.37732273 -0.6029542
언론 0.31081748 0.16699429 -0.19574983 0.16640997 -0.11624106 -0.102197886 1.2355812 0.35409954 -0.56374556 -0.3240033
이러 0.27010366 -0.06408034 0.7063637 -0.5211593 0.05562505 0.25434938 0.6742875 0.5058314 -0.8079611 -0.094849505
계 0.071238995 0.48747233 0.6836846 0.21451046 0.3656181 -0.061976504 0.7869264 0.5146584 -0.48601124 -0.8246517
뒤 0.5632016 0.108778216 -0.26097512 -0.123373605 0.07032659 0.49473763 0.88318264 0.2764853 -0.87805635 -0.6093188
키 0.32121307 0.3524401 0.7420945 -0.49559605 0.15353717 0.41633302 0.6932324 1.0098816 -0.39253342 -0.39963433
사회 0.2451699 -0.12371004 -0.19831043 -0.13517237 -0.10856439 -0.027940363 1.099631 0.6320819 -0.6104856 -0.24998946
똑같 0.16020784 -0.5296332 0.6359007 0.046150643 0.10808458 -0.3394552 0.71078914 0.07641886 -1.2466052 -0.08802563
빨리 0.68631554 0.18968141 0.80666435 -0.030310264 -0.09841578 0.14729163 0.83850473 0.7345533 -0.025289949 -0.66234845
는다 0.073986515 -0.273041 0.6330979 -0.34633088 -0.2604455 0.5756588 1.2339207 0.21591994 -0.097744636 -0.08322554
말씀 0.017982969 0.39860895 0.8100014 0.4677819 0.26293448 -0.6644596 0.9158206 0.32979518 -0.5103383 -1.1642289
자리 -0.028033242 0.01781242 -0.076993324 -0.34219602 -0.14528415 -0.18367192 1.0537444 0.5179047 -0.7881053 -0.40816003
꼴 0.018383216 -0.26478022 0.8744886 -0.29309186 -0.18111043 0.06543887 0.8283948 0.9926392 -0.318897 -0.06910692
건강 -0.0056466223 0.67101234 0.8678578 -0.01612725 0.35195336 -0.5255141 1.1081512 0.38922668 -0.31229722 -0.9797058
생 0.16362558 -0.03669731 0.37543753 0.041497156 -0.040399097 0.8580572 0.5745153 0.19013295 -0.83802617 -0.5971095
뉴스 0.38616574 0.075302064 0.2774526 0.10655304 0.011374196 0.27546883 0.85597384 0.44783688 -0.5094276 -0.4716465
간 0.20600988 -0.31876376 -0.125691 0.22995512 -0.102666125 0.6504056 0.7076167 0.19670974 -1.0037415 -0.5880113
래 -0.2610188 -0.10462868 0.64034337 -0.33955222 0.09309693 0.42338905 0.84278274 0.4906545 -0.5952728 -0.3154542
ㄴ가요 -0.21268813 -0.3211139 0.5186555 0.084034435 -0.518051 0.19160694 0.56319064 1.770398 -1.0976974 0.50405556
후 0.29955825 0.012702341 0.1397331 0.2727901 -0.1885932 0.38711718 0.896884 0.17829114 -0.52673954 -0.5952183
미국 0.16028874 0.029296955 -0.078431584 0.20486565 -0.102908224 0.109312125 1.0474585 0.13607046 -0.873232 -0.3262243
려 0.3588704 0.18089415 0.36766165 -0.08327907 -0.124669455 0.24342617 0.89786804 0.7058269 -0.19526577 -0.6288999
거짓 0.34768003 0.12229974 -0.18049435 0.37410915 -0.03755593 -0.29299098 1.1819657 0.31196922 -0.7029011 -0.49039343
바로 0.3722881 -0.18453157 0.23576845 -0.3619375 -0.13819447 0.25186446 0.9094063 0.51654094 -0.49730572 -0.31067094
부 0.1616925 -0.09816517 0.38686532 0.04988034 -0.05848678 0.1664805 0.8579941 0.4862022 -0.3496871 -0.56302166
😢 0.05613343 -0.090565234 1.6554761 0.095178515 0.18417133 0.30234832 0.4401406 -0.17903858 -0.98950535 -0.46773663
불 -0.067370705 -0.16768774 0.21551229 -0.10627901 0.119401686 0.11274915 0.93313676 0.42015445 -0.5870673 -0.47676638
디 0.20250376 -0.25294873 0.74780566 -0.35502803 0.06583678 -0.052188396 0.73197067 0.63082194 -0.620493 -0.14138588
당신 -0.032527402 0.05522086 0.47342482 -0.110532135 0.028538693 -0.5664101 1.0227044 0.5391818 -0.61236286 -0.552866
스 0.20118393 -0.20595735 0.50770557 0.25440326 0.11968899 0.4948735 0.76663357 0.4157295 -0.6287137 -0.13088736
는가 -0.15177134 -0.09206815 0.3472075 -0.80373114 -0.72227174 0.2630292 0.84060514 0.7909766 -0.64175105 -0.29414278
새끼 -0.03560754 -0.3873523 0.029844197 0.17365848 -0.06877504 -0.07247482 0.8051128 0.91497445 -1.0004756 0.11709196
웃 0.1665695 -0.15773249 0.7952736 -0.54042405 0.24453858 0.53797895 0.6997718 0.12870319 -0.9283761 -0.16136315
시장 0.23575541 0.054250803 0.39673388 0.86986357 0.12937064 -0.2628094 0.83331794 0.30342144 -0.656176 -0.7897686
,, 0.41724905 -0.15502603 0.2743295 -0.09427911 -0.09202421 0.3498511 0.7477295 0.42901468 -0.62564117 -0.47204137
더니 0.15180083 -0.039540496 0.6229704 -0.44258934 -0.36543182 0.55892634 0.75067484 0.5304277 -0.32726955 -0.61628926
자체 -0.18613683 -0.22722732 0.13894829 -0.41558415 -0.18613328 -0.080362275 0.9500145 0.6544057 -0.94844264 0.08355919
저러 0.1437339 -0.2898948 0.860094 -0.9954551 -0.13446026 0.25137708 0.76190674 0.4636922 -0.9181879 0.07046591
임 -0.099001266 -0.20631261 0.4380934 -0.13875957 -0.31114626 0.31437454 0.77618086 0.40762866 -0.851419 -0.08794172
뉴스타파 0.25302333 0.29554984 0.84604347 0.6243118 0.16189821 -0.34649304 0.9795282 0.30793786 -0.235069 -0.89061034
발 0.27138478 -0.067548 0.38115802 0.004547365 -0.0853875 0.47354957 0.764056 0.33670384 -0.60486174 -0.3979258
거나 0.20605807 -0.084807806 -0.00039718693 -0.52534676 -0.16206637 0.06483672 1.1839628 0.7774594 -0.23860456 -0.324434
..... 0.106099345 -0.4391505 0.72515637 -0.14153127 -0.42765433 0.029280728 0.7855883 0.22686155 -0.62555295 -0.28889847
뭔 0.05694904 -0.26869333 0.28530526 -0.16221352 -0.24018718 0.19312654 0.639564 0.80792147 -1.0334471 0.07242379
죄명 -0.009815605 -0.12738459 0.4765597 0.22117351 -0.01266652 0.06342501 0.74728227 0.72375995 -0.77869517 0.016949736
서울 0.23073699 -0.07336396 0.15362895 0.41294613 -0.24997157 0.11222522 0.95358956 0.052446958 -0.72668874 -0.4865575
마약 0.23548464 -0.0813821 -0.009408708 -0.23158118 -0.3595037 0.065735064 0.8725402 0.5982243 -0.9043368 -0.1279322
머리 0.06219445 -0.17666484 0.30309904 -0.1793216 0.07527923 0.16992925 0.76517504 0.45940828 -0.8584941 -0.26290452
이미 0.1400514 -0.20107703 0.2359583 -0.39083052 -0.30804816 0.08450926 0.9257717 0.34024876 -0.6989657 -0.36775956
100 0.50707424 0.16279678 0.41922134 0.5891195 -0.0670566 0.7200718 0.6243396 0.094313264 -0.8501676 -0.65269643
그래서 0.07250727 -0.19715169 0.6128556 -0.22039866 -0.1232722 0.100244746 0.73447776 0.5425726 -0.65213007 -0.2401918
정상 0.11799723 -0.35179505 -0.2060838 0.018793054 -0.70015603 -0.34901842 1.0601629 0.7754632 -0.8857851 -0.00355171
지구 0.34335744 -0.20975427 0.28025123 -0.11880381 -0.26174882 -0.15354724 0.90263647 0.40585786 -0.5873133 -0.45854905
무섭 0.26082367 -0.3005641 0.69924635 -0.6460913 -0.07133115 -0.25258446 0.81971526 0.4540158 -0.9486009 0.015202884
운전 0.603703 0.026181316 0.39094496 0.17071041 -0.32668176 0.25019968 0.9566686 0.413882 -0.2637792 -0.28268436
늘 0.28440404 0.34080377 0.80525637 0.043178167 -0.05120617 -0.17887026 0.7953684 0.30274987 -0.44027635 -0.83224386
나이 -0.033655394 0.029805033 0.33559224 -0.40328285 0.05412325 -0.016422749 0.7504967 0.32629958 -0.85861427 -0.7201678
여기 0.0130356345 -0.02356295 0.80417466 -0.17131765 -0.23451228 0.30352822 0.5423542 0.48433468 -0.8636 -0.30369484
부르 0.49503133 0.26615137 0.43945697 -0.6075083 0.028875055 0.2278226 0.9117284 0.55565083 -0.4981994 -0.29318044
아주 0.12722594 -0.26620823 0.79689384 -0.16726041 -0.09137696 0.102204554 0.8287119 0.32456213 -0.5627555 -0.16013296
따르 0.75458 -0.002405376 0.06195058 -0.31313437 0.15037587 -0.030531164 0.7833354 0.60503775 -0.8886103 -0.23939882
욕 0.122128285 0.009876094 0.3786371 -0.3158173 -0.28763717 0.5823753 0.7967166 0.5306567 -0.52172583 -0.378442
영화 0.018940361 -0.3076603 0.09469607 -0.19032627 -0.29942095 0.057262667 0.91103864 0.56042224 -0.6845506 -0.33898354
지요 -0.21186072 0.005399383 0.8306534 -0.19119094 -0.484734 0.086174145 0.7552944 0.52113074 -0.56357646 -0.31114668
음주 0.26855293 -0.21622834 0.25929517 0.2790142 -0.1912482 0.246048 0.85682976 0.50233525 -0.5531334 -0.28136837
시대 0.15336893 -0.19943622 0.19030492 0.034440715 -0.19221564 0.34069952 0.6184454 0.40416744 -0.8996601 -0.49334177
떠나 0.762978 0.04091735 0.28478175 -0.36303473 -0.12397845 -0.027971976 0.83560205 0.5810414 -0.638772 -0.37162784
그럼 0.32992032 -0.21049468 0.49082816 -0.26949677 -0.28666946 0.64853734 0.6084575 0.8037753 -0.80962306 0.13847142
너희 0.16834034 0.0798357 0.08585537 -0.24831231 0.0045031016 -0.11337643 1.0806979 0.55881387 -0.39672697 -0.57854474
어찌 0.087546416 -0.4451938 0.37579226 -0.50859284 -0.4040012 -0.12447132 0.76421416 0.41829944 -0.835543 -0.4005401
똑똑 -0.07615681 0.027357196 0.6668048 0.1650566 0.30940032 -0.61757964 0.8802629 0.5701877 -0.52126926 -0.6829315
가장 -0.02399696 -0.3287166 -0.18750405 0.09139805 -0.4115274 -0.30442658 1.1656402 0.4364044 -0.71949565 -0.2888298
파 0.22080411 0.058838543 0.6711041 0.18351409 -0.18038858 0.03284627 0.9589002 0.20649253 -0.32671607 -0.5874658
민 0.16372783 0.009578411 0.5570314 0.8604258 -0.13026294 -0.19199638 0.85105115 0.70472914 -0.6007713 -0.2533148
김건희 0.62245905 -0.027456354 0.24499822 0.8163915 -0.09082606 -0.05386888 0.93902373 0.30164322 -0.68364155 -0.53326714
땅 0.37901318 0.19567126 -0.014794048 0.2629093 0.037149828 -0.052778117 1.1026448 0.33143896 -0.59893644 -0.50685173
언제 0.12074663 -0.16753688 0.37722212 -0.18535425 -0.084546655 0.36396974 0.5884696 0.68471384 -0.7749337 -0.4083317
이재 0.2963997 0.42521605 0.5143798 0.7033921 0.31725666 0.29720607 0.6043792 0.47322264 -0.9209783 -1.0205942
빨 0.45052794 0.2555688 0.4054714 -0.29778412 0.16808248 0.49307927 0.91815716 0.68935627 -0.3853212 -0.2679122
질문 0.12753679 -0.06607809 0.46319297 -0.36614144 -0.10427575 -0.12452143 0.6567478 0.78251064 -0.77580297 -0.36051816
30 0.2807216 -0.09455247 0.24268515 0.7169285 -0.20077041 1.0646446 0.924836 -0.2309205 -0.8735751 -0.8036828
경찰 0.16047111 -0.08140984 0.22507332 -0.022628902 -0.2551994 -0.09103369 0.8443088 0.43699923 -0.7318009 -0.31317815
어느 0.37117192 -0.30155164 0.2855791 -0.22449575 -0.036338173 0.18538935 0.9235815 0.45272288 -0.60179996 -0.19590032
절대 0.23601091 -0.23099028 0.274058 -0.55384046 -0.5145171 0.05769719 1.1460006 0.36161062 -0.47332415 -0.122020245
썩 0.37488374 -0.11545993 0.46962819 -0.13986729 0.024475044 0.20983727 0.9699344 0.5065777 -0.46262938 -0.019208515
정치인 -0.22302854 -0.09846796 0.31575444 -0.0033677337 -0.12263424 -0.41047648 0.99953693 0.57333755 -0.53306395 -0.4240164
존경 0.2643031 0.42405182 1.2477692 0.7531759 0.05149476 -0.75425875 1.0226287 0.21544969 -0.3426894 -1.1155685
낳 0.44481716 -0.122217044 0.23857437 -0.6743245 0.016308721 -0.09968377 0.90988123 0.5073738 -0.9994894 -0.057396237
가능 0.060352005 -0.16445872 0.18569688 -0.24453945 -0.5038301 -0.0941487 0.83859956 0.4101726 -0.7191165 -0.4875768
이용 0.5142781 0.22166237 -0.022058755 -0.47882628 -0.19718024 0.00081843004 1.1790454 0.46047464 -0.3579798 -0.6040325
북한 0.3836738 -0.12020307 0.21522677 0.08795941 -0.103728846 -0.0013330266 0.8080406 0.4404848 -0.7238645 -0.26159614
경 0.43236068 -0.09181421 0.2543514 0.8803596 0.012591928 0.5189151 0.7232781 0.11943175 -1.0651466 -0.44748813
걱정 0.21735314 -0.031432357 0.81549466 -0.18609473 -0.3832058 -0.40681678 0.8839368 0.50515485 -0.44863886 -0.30535102
항상 0.037516586 0.37966773 0.7660003 0.24409096 0.10313355 -0.66481245 1.0381147 0.3870244 -0.439087 -0.8060678
용 0.23916648 -0.04985386 0.5740054 0.3474703 0.2564405 0.015919691 0.7660696 0.49281037 -0.5898431 -0.44087705
힘내 0.21191253 1.0471569 1.6661861 0.7585155 0.54925615 -0.8183552 1.2066246 0.7375919 -0.25683004 -1.4146554
잇 0.22929777 -0.23275419 0.59470534 -0.31730068 0.04975918 0.111403525 0.9985287 0.081434235 -0.65335363 -0.03783186
겁 0.32172975 -0.020881321 0.8677623 -0.32593045 -0.042385276 0.24280693 0.56633425 0.26522106 -0.5632937 -0.75599444
하나님 0.06914056 0.39432222 -0.057885822 0.604049 0.30073538 -0.48212662 1.0886 0.25578627 -0.7623496 -1.1222281
감옥 0.42028555 0.22568095 0.34606168 -0.1449495 -0.25142094 -0.012569972 1.0914055 0.6774794 -0.33376467 -0.26586303
돌아가 0.15973587 0.025075167 0.62897044 -0.6204704 -0.025675956 0.09754317 0.94375414 0.37539482 -0.6411633 -0.15608348
어쩌 -0.011459126 -0.21644989 0.92561626 -0.92902726 -0.5062066 0.029548308 0.7032201 0.32301274 -1.0480521 -0.24726908
여야지 -0.057294343 0.0142175825 0.3927793 -0.2909486 -0.0072458917 0.19381395 1.0380305 0.52553225 -0.22037697 -0.4608371
손 0.3930064 0.09029482 0.17821397 0.05988858 0.15348898 -0.031712107 0.8785082 0.31649882 -0.60352916 -0.6863936
밝히 0.67376554 0.66788185 0.6668022 -0.3646896 0.055464823 -0.19160691 1.1414547 0.55209804 -0.20655105 -0.4546062
들어가 0.68120015 -0.029166833 0.32829508 -0.28367108 0.059069816 0.2712174 0.67884916 0.6758949 -0.6717125 -0.3683211
조작 0.38725877 -0.088387124 0.1761496 0.5026731 -0.007970847 0.5560345 0.8102435 0.5641017 -0.6085289 -0.12875304
상황 -0.067105785 -0.34664825 0.1452893 -0.34726906 -0.54818004 0.039788682 0.8051213 0.52326125 -0.861819 -0.4001548
서로 0.27748013 -0.075142115 0.11144502 -0.5040861 -0.011184774 -0.09967812 1.1334054 0.34952024 -0.5623822 -0.3758834
밖 -0.048313446 0.255274 0.043341782 -0.75356835 -0.27544624 0.28317088 1.1930925 -0.012023781 -0.82594866 -0.41222033
회사 0.41059586 -0.07171166 0.10038921 -0.38925657 0.04642227 0.20777158 0.9291522 0.5295951 -0.57622796 -0.26077127
윤석렬 0.16332838 -0.23254639 0.5508235 0.21495624 -0.09242201 -0.1929851 0.84025323 0.5199131 -0.5986987 -0.38644597
라니 -0.3256721 -0.31118137 0.5586397 0.6421358 -0.055537917 -0.19957402 0.6130863 0.613767 -0.9891959 -0.31643572
무식 0.054182213 -0.17072897 0.38799435 0.13145758 -0.19366123 -0.34820428 0.84828216 0.5226286 -0.71941555 -0.2771678
께서 0.28272325 0.24226642 0.33703667 0.799844 0.41696995 -0.54078996 1.1444875 0.5969967 -0.4002764 -1.0045903
능력 -0.36427733 0.051886007 0.16464071 -0.563303 -0.5465138 -0.16023946 1.010351 0.31112096 -0.86564296 -0.46173686
야당 0.14681314 -0.035941284 0.026354332 0.37994662 -0.027847126 -0.3976913 1.1214437 0.5891767 -0.65469867 -0.3499198
딱 0.13433605 -0.3953628 0.7394919 -0.113611475 0.025705094 0.4503974 0.61052924 0.61454517 -0.5975186 -0.27895653
지나 0.6457453 -0.18634824 0.18637642 -0.15311614 -0.3684617 0.74345976 0.57454306 0.30361694 -0.89928013 -0.50969857
군 -0.026946954 0.054476887 0.6253095 0.20789477 -0.4205719 0.20251022 0.70472246 0.40162432 -0.7815426 -0.23857334
끝나 0.34760985 -0.22092432 0.4181249 -0.7471377 -0.5997043 0.3068124 0.71490824 0.4286273 -0.8754918 -0.27765393
던데 -0.14339843 -0.23046024 0.5765185 -0.56383204 -0.10500506 0.58807147 0.66424125 0.55317235 -0.56825817 -0.5025174
싸우 0.37092137 0.327205 0.17748505 -0.32955143 0.15294044 0.07279385 1.1099852 0.2128449 -0.65687335 -0.3853758
이번 0.19810005 -0.19144869 0.2249473 0.07841567 0.033096634 -0.03201858 0.726684 0.40850967 -0.8132305 -0.46632862
내용 0.052678183 -0.30902693 0.2770437 -0.59231937 -0.0919832 0.0019105902 0.84754616 0.34126064 -0.84743464 -0.40752718
도록 0.064532466 0.08188631 0.15696041 -0.40482742 -0.4101961 0.021592947 1.3649162 0.37692064 -0.090937525 -0.48856544
처음 0.22867501 -0.14295478 0.2176823 -0.07654971 -0.0955816 0.10947742 0.6255274 0.45578828 -1.0008422 -0.41060862
전청조 0.03554066 -0.40763447 0.19575748 -0.10220153 -0.19953272 0.12063901 0.65024334 0.50026727 -1.0512359 -0.29696083
모습 -0.12566306 -0.07891216 0.2764116 -0.15516576 -0.16489416 -0.25157797 1.0860418 0.3195811 -0.45389298 -0.5496424
* 0.009679439 -0.018812457 0.7482293 1.1837445 0.079341 1.0352721 1.0567273 -0.16587543 -0.87246025 -0.39051175
ㄷ 0.70868033 -0.4173566 0.9060659 0.22176269 0.23342441 1.0841519 0.23549375 0.38450944 -0.9300803 -0.44502336
차리 0.4814087 0.5204382 1.2883854 -0.20971759 0.34114057 -0.29963538 0.9026985 1.0689282 -0.12702812 -0.5220731
내리 0.5400334 0.3514116 0.4505947 -0.49373788 0.13716498 0.21414238 1.01172 0.554676 -0.4339135 -0.2954103
놀 0.17512959 -0.055997003 0.6090752 -0.63915044 0.02006266 0.42902067 0.8869634 0.2816377 -0.7087382 -0.16792212
소 0.25431627 -0.10461995 0.8629647 0.089657545 0.1559049 0.251515 0.73389626 0.4508582 -0.45629406 -0.2941118
따 0.1269558 -0.15451275 0.3632314 -0.19311568 0.027126167 0.50619954 0.8786103 0.64597803 -0.67956704 0.08822508
불쌍 -0.12287651 -0.36053646 0.66042185 -0.27979332 0.11701078 -0.108042285 0.7936769 0.5096581 -0.5091488 -0.47986805
이야기 0.2171635 -0.1348627 0.13979149 -0.5462925 -0.23224047 -0.12700468 0.75881845 0.537857 -0.863598 -0.48578963
팅 0.27343976 0.14628485 1.5165572 1.1284025 -0.20928368 -0.28401825 0.9015099 0.23313192 -0.29852563 -0.9181576
싸 0.15380552 -0.17337605 0.58653504 -0.18436807 -0.08656599 0.20090857 0.72362113 0.55997896 -0.6368242 -0.20676681
르 0.08846162 0.06368118 0.5620531 -0.20176814 -0.18995441 0.12550654 0.8590921 0.5100499 -0.59090674 -0.23329842
봐 0.027291011 -0.104714945 0.25571337 0.01683669 0.001198157 0.19618145 0.92472416 0.8313481 -0.6535013 0.09457934
도대체 -0.121591 -0.34903073 0.38056892 -0.25900942 -0.32998648 0.0959066 0.62949157 0.8968687 -0.92105526 -0.14284119
진실 0.13270867 0.117027774 0.424793 -0.24946919 -0.26589707 -0.24779475 1.0075111 0.65934205 -0.3635338 -0.33306926
ㅈ 0.15867253 -0.37274122 0.43557397 -0.24466698 0.0032695027 0.55153316 0.65878296 0.3823613 -0.7458378 -0.27972877
넣 0.5646664 0.23615792 0.6768186 -0.5368166 0.24818139 0.41412124 1.1655121 0.79409516 -0.16419859 0.08083942
ᆢ 0.28755328 -0.101401486 0.8000438 -0.15527043 0.05801758 -0.08829903 0.86995375 0.22717907 -0.38261673 -0.5775266
뻔뻔 0.20183282 0.04905157 0.6978379 -0.12164981 -0.2400514 -0.2563337 0.8388772 0.57041335 -0.46882018 -0.30485797
묻 0.40113485 0.15048726 0.60446006 -0.7332999 -0.21862672 0.088131726 1.1402962 0.33383662 -0.5517827 -0.05169546
화이팅 0.24590045 0.34661126 1.6812167 0.8149698 0.3912986 -0.23378219 0.8717604 0.38409314 -0.166121 -0.88015646
0 0.4269665 -0.09119388 0.74950045 0.92562705 -0.16879185 1.1068318 0.6599963 -0.19691584 -1.1142523 -0.4675619
완전 0.17713046 0.019542918 0.57671666 0.15059237 0.09276209 0.17654885 0.6637489 0.43227604 -0.68942434 -0.36273438
집단 0.13404311 -0.25624266 -0.15522805 0.48530847 -0.020133588 -0.028442943 0.89305073 0.6408008 -0.88651866 -0.22128098
걍 0.2966784 -0.12600796 0.22070262 -0.29005757 -0.025233176 0.49252963 0.6652977 0.78982157 -0.72808117 -0.1498863
현실 0.03348924 -0.16080874 0.0784334 -0.071278304 -0.40947524 -0.22602805 0.96887827 0.4245693 -0.8679556 -0.18217845
중요 0.092776574 -0.19809406 0.4504505 -0.20483458 -0.39137563 -0.33702102 1.0287999 0.41387227 -0.70018685 -0.058682293
딸 0.025796596 -0.36130688 0.1989808 0.05577976 -0.017668016 0.20396744 0.7483078 0.4268368 -0.88906395 -0.26476622
해결 0.18908675 0.053850792 0.38732117 -0.9830084 -0.624921 -0.3980024 1.1890959 0.48735827 -0.41096756 -0.47780496
사진 0.14652002 -0.06303444 0.20166743 -0.2469401 0.28818166 0.6440943 0.68182546 0.57446295 -0.829398 -0.2777729
월급 0.13162166 -0.007928473 0.14559063 0.23355107 -0.17121264 0.46587148 1.0133862 -0.05949299 -0.7098868 -0.5215484
시작 0.43329802 -0.093120106 0.41078 -0.20582323 -0.36866188 0.1163061 1.0023932 0.21617745 -0.32814932 -0.5487941
심판 0.30868652 0.33234897 0.1280476 -0.0826143 -0.18376535 -0.35434243 1.2743741 0.40578613 -0.31652775 -0.6453258
삼 0.08507424 -0.19171463 0.61369264 -0.44616905 -0.28801337 0.5055989 0.815359 0.037857026 -0.84342813 -0.11564746
냐고 -0.10411514 -0.1460153 0.71297693 -0.6244948 -0.05560683 0.6465811 0.69159365 0.8268861 -0.57887775 -0.13575347
멀 0.21915533 -0.113444924 0.15588182 -0.67236435 -0.24756072 0.20242716 0.94416 0.57350487 -0.69209194 -0.24673757
마다 0.22429602 -0.1845657 0.25360367 -0.23349452 0.09534442 0.5665906 0.95964086 0.121496975 -0.54599833 -0.3961549
거기 0.049532473 -0.18438654 0.54475033 -0.13025779 0.016184187 0.46511438 0.52114725 0.48630568 -0.92860776 -0.28564578
🎉 0.3636311 0.4317976 1.2297407 1.0294259 0.23901711 -0.027704148 0.8492865 0.24888676 -0.37837264 -0.96120054
인구 0.35181788 -0.17785536 0.057962555 0.27212575 -0.23430753 0.37514675 0.9696011 -0.064763404 -0.7408813 -0.51615834
여성 0.04568782 -0.16383208 0.0940411 0.3616376 -0.06488797 -0.06747549 0.8664055 0.2719217 -0.9095183 -0.41427657
아무 -0.24470922 -0.12819567 0.27640334 -0.8477405 -0.35000294 -0.03663498 1.1303016 0.4053399 -0.8138096 -0.08556102
드 0.10545737 0.2435522 0.6606746 -0.24306393 0.16627277 0.18552727 0.8111969 0.47030744 -0.6066515 -0.4064764
목소리 0.03570336 -0.1749267 0.58326256 -0.086659685 0.1556907 0.13152292 0.6956004 0.34604406 -0.67089194 -0.4657726
개인 0.13334003 -0.07836103 -0.08605889 0.24953255 -0.35782844 -0.30236888 1.0396297 0.2662523 -0.9130199 -0.3442899
절 0.38558862 0.19598529 0.33007744 0.38003865 0.10335673 0.48569506 0.9623419 0.09933276 -0.63550246 -0.40495053
쉽 0.1829505 -0.07157466 0.49161312 -0.9115447 -0.2415634 -0.18673047 1.1230494 0.49709353 -0.612601 -0.07090331
단 0.092215255 -0.030547524 0.6533714 0.27046603 -0.2440245 0.24089745 0.8663151 0.27890885 -0.5089399 -0.37044397
혼자 0.20426513 -0.03253972 0.42440376 -0.57571954 -0.16788708 0.22379518 0.946663 0.39645654 -0.45359227 -0.36360845
멍청 0.11548397 -0.33374214 0.51936585 -0.30128297 -0.05774117 -0.16121252 0.84000874 0.4846305 -0.71038204 -0.07832831
상대 0.38695776 0.021381542 -0.07156068 -0.29286748 -0.0782447 -0.021517823 1.2207408 0.49844092 -0.5609702 -0.18661542
재판 0.24656156 -0.06635073 -0.099117026 -0.07497924 -0.13089819 0.23141508 1.0416656 0.40180913 -0.5646677 -0.47827125
얘 0.030982522 -0.3373205 0.58854544 -0.19797169 -0.014847808 0.250418 0.75736207 0.5853387 -0.7509894 -0.014871488
기자 0.11175203 0.13129261 0.36627924 0.74965847 0.27695426 -0.36319876 0.72212446 0.6207038 -0.8052232 -0.8178768
시민 0.15020855 0.008071482 -0.042195383 0.2254745 -0.022882117 -0.055813275 1.0251653 0.40215278 -0.65494055 -0.4843012
박 0.17835268 -0.03638199 0.4290441 0.17003176 -0.15105692 0.40604034 0.73138684 0.2636645 -0.7958284 -0.3047544
젊 0.004096563 -0.24201483 0.15499191 0.10975672 -0.003929951 -0.33482158 0.89868885 0.40504402 -0.9276725 -0.30979097
이기 0.37730867 0.20715815 0.25271124 -0.16611248 -0.18650442 -0.1646844 1.2094468 0.22409588 -0.5163395 -0.29930314
느끼 0.32365382 0.112445004 0.39013106 -0.6859651 -0.18738274 -0.12418987 1.0820577 0.46160826 -0.75831515 0.037814405
배 0.29909185 0.19501777 0.2240818 0.21429384 0.06024149 0.60349095 0.87084436 0.11135119 -0.6552064 -0.54361475
바꾸 0.62883896 0.38442865 0.5451099 -0.19669889 -0.07320551 0.12805215 1.1663815 0.3974072 -0.29683766 -0.08505013
존 0.28499663 -0.27149403 0.9688241 -0.15992959 0.2954251 0.33067247 0.5741983 0.5241971 -0.79812926 -0.025160696
천 0.44831365 -0.1681688 0.25852278 0.49019623 0.04040366 1.0897193 0.65456986 0.01916026 -0.994644 -0.7436958
지옥 -0.013706683 -0.32201815 -0.014781395 0.5633703 -0.20787519 0.2567434 0.8307189 -0.013458439 -1.0154642 -0.47173998
께 0.06357223 0.28449768 0.7712539 0.35326672 0.2538641 -0.32405776 0.7871098 0.6584713 -0.4782718 -0.7059878
김진태 -0.06354617 -0.25764394 0.7436151 0.2851128 -0.008320834 0.103198245 0.7278213 0.45888296 -0.53016335 -0.29927325
권력 0.09081306 0.06861398 0.014357602 0.020735526 -0.05103528 -0.06045973 1.1006988 0.3263159 -0.7219106 -0.32214442
술 0.10723037 0.025946304 0.28179663 -0.22948816 -0.22155946 0.32745418 1.1671661 0.36146054 -0.36071742 -0.11640197
아들 0.041862182 -0.036573675 0.18264738 0.031631563 0.06283696 0.03863989 0.72334796 0.5814842 -0.72481555 -0.6231012
😊 0.06895794 0.0050710524 1.1388359 0.3611637 0.22940904 0.09779317 0.6659017 0.121068075 -0.5498412 -0.52053887
비리 0.26470357 -0.08339637 -0.23436484 0.3011781 -0.2613483 -0.14729299 1.14555 0.3872144 -0.66412956 -0.3429755
자꾸 0.20050965 -0.20164742 0.4029843 -0.592077 -0.49330118 0.015447287 0.88503075 0.48535278 -0.6843475 -0.22058788
드리 0.35714674 0.39596266 1.045787 0.42647654 0.21091299 -0.34580737 1.0328759 0.28883392 -0.19353141 -0.7962415
배달 0.36287558 0.08528246 0.33560747 -0.36331657 -0.16276371 0.3326981 0.91333276 0.20850292 -0.57955015 -0.5279188
자격 -0.23880225 0.14089563 0.30599752 -0.39106846 -0.7255438 -0.007570781 0.89667755 0.5262643 -0.76863754 -0.32013798
무조건 0.33539292 0.09073217 0.42027372 -0.24681029 -0.14868438 0.17143007 0.9308697 0.44710988 -0.44632283 -0.3205529
표 0.21388341 0.08661703 0.463747 0.44411963 0.20332424 0.049487878 0.81179184 0.28346553 -0.522275 -0.7317858
더라 0.045155816 -0.078408055 0.6244262 -0.6927324 -0.13685186 0.19589691 0.92087126 0.52810174 -0.37290248 -0.45461297
역사 0.21901712 -0.08944921 0.007327414 0.14933847 -0.25273654 -0.21696101 0.9417395 0.5600955 -0.6896873 -0.4029463
반성 0.31483275 0.105604 0.5037008 -0.54520404 -0.17036425 0.06330703 0.81146026 0.5594066 -0.6040692 -0.4167063
좌파 0.24040939 -0.18132822 0.17996787 0.2024207 0.07633073 0.09114809 0.69294834 0.65117776 -0.8277748 -0.27678823
대로 0.15524897 -0.14944215 0.41567108 -0.11796666 -0.09978844 -0.15238544 0.9901187 0.5490869 -0.49388283 -0.1563641
안타깝 -0.02379663 -0.3385544 0.9620693 -0.47434416 0.09016222 -0.37067512 0.83963996 -0.03569313 -0.91953236 -0.40680128
으면서 -0.22343719 0.04384728 0.30757663 -0.65628076 -0.08104454 0.7863147 0.9265991 0.39496934 -0.55245215 -0.5078827
ㅋㅋㅋㅋㅋㅋ -0.36085227 -0.3251074 0.67843926 -0.026738802 0.42756078 1.0391699 0.6196056 0.55039734 -1.3961489 0.14148752
부끄럽 0.05884003 -0.35586736 0.8437754 -0.53638834 -0.1130289 -0.2706754 0.89593524 0.24657486 -0.61627585 -0.24602734
14 0.24543177 -0.46529788 0.4115396 1.2719948 -0.028164092 0.85540485 1.0532984 -0.6285201 -1.3901203 -0.5993981
공무원 0.03128529 -0.1572334 0.08191051 0.24584511 -0.018924503 0.26486924 0.7860852 0.4032236 -0.83003587 -0.41154286
옳 0.0851498 0.08050748 0.70222926 0.19722264 0.013329913 -0.47603822 1.0041897 0.16806588 -0.48485738 -0.6435477
쪽 0.16192533 -0.19611502 0.4144462 -0.019098058 0.038872417 0.19329786 0.8139744 0.46908385 -0.56092817 -0.35009348
국방부 0.27328375 -0.20095287 0.37588403 0.48775944 -0.031012883 -0.054267775 0.6208277 0.64959574 -0.6796924 -0.46152875
정의 0.45955756 -0.03491043 0.1666625 0.1076854 -0.19480011 -0.24487792 1.0494328 0.64740217 -0.3788634 -0.35954395
함께 0.2849481 0.28870386 0.23209547 0.4645333 0.07273791 -0.26183861 1.2138237 0.28182146 -0.44566634 -0.6474828
사라지 0.16137655 0.064387575 0.5139056 -0.5277696 -0.22049427 0.05035359 0.9173196 0.43045804 -0.6530684 -0.16289034
저거 0.2588477 -0.092241704 0.397091 -0.05301535 -0.1575939 0.49008137 0.7182753 0.81929857 -0.7248209 -0.04419919
척 -0.026268195 -0.06769493 0.44068038 -0.7210616 -0.31392178 -0.034698963 1.0036834 0.63895655 -0.38204837 -0.33105215
궁금 0.046126537 -0.2504151 0.8585061 -0.49272415 -0.10267342 -0.027535705 0.60825557 0.57207596 -0.8253687 -0.1991506
아무리 0.135987 -0.1699414 0.6598373 -0.2731033 -0.0658702 0.15675233 0.7275497 0.4801182 -0.52124125 -0.33622807
상식 0.2006225 -0.16144875 -0.32484847 0.12863366 -0.46973696 -0.2483764 1.1636252 0.25681767 -0.8694162 -0.2747647
안보 0.4251536 -0.13912438 0.22641751 -0.05073192 -0.1573952 0.16039677 0.8370761 0.42054895 -0.6989713 -0.35530305
렇 -0.041427217 -0.04432065 0.35267338 -0.36128888 0.067343436 0.09714807 0.8873229 0.81035066 -0.8271448 -0.030415112
징역 0.5956347 -0.13756683 0.3494977 0.34953728 -0.07214077 0.6783258 0.6496173 -0.08191918 -0.76697594 -0.8068811
반대 0.20590936 0.03851771 -0.071684964 -0.046105232 -0.16281743 -0.07756926 1.0796498 0.2557591 -0.6737411 -0.39029035
자랑 0.03917 0.22099501 0.7437917 0.27711654 -0.024844022 -0.59393907 0.95554644 0.27239722 -0.5278397 -0.8413012
새 0.23030782 -0.14540827 0.20733738 -0.116153404 -0.022850247 0.42470282 0.9047665 0.5248094 -0.5568998 -0.1817058
돌 0.3787029 -0.11329264 0.8125072 -0.4691615 0.14515708 0.51755524 0.63725907 0.33996248 -0.6765867 -0.3583135
좋아하 0.331151 -0.18381475 0.16087763 -0.40061212 -0.3864575 -0.15217975 0.9495089 0.2650844 -0.8590462 -0.3249103
스스로 0.33174896 0.026639203 0.13417068 -0.34044144 -0.31764603 -0.09291978 1.0739492 0.3415672 -0.48894352 -0.40330508
그런데 0.09610613 -0.11185464 0.45199868 0.16513874 -0.28444988 0.1391837 0.7103755 0.42114887 -0.70397794 -0.50379056
유 0.056305643 0.012930216 0.42496592 0.53758216 0.07267853 0.16107139 0.6774749 0.31285217 -0.8564324 -0.5040332
기본 0.25811118 -0.079308465 0.23479034 0.1832956 -0.015560381 0.16350877 0.77159977 0.29799005 -0.75105566 -0.37447914
간첩 0.079034 -0.13069017 0.33215687 0.14895624 -0.21225512 0.22671983 0.69696486 0.658568 -0.69075066 -0.3602509
관상 -0.17188546 -0.47276136 0.46797517 0.16919124 0.14688618 0.42009723 0.6113116 0.61427367 -0.8856802 -0.028263543
반 0.43382367 0.09194301 0.23337638 0.24240603 0.0049763652 0.3120136 0.89071614 0.43818107 -0.5300915 -0.46111012
굥 0.19134466 0.013936467 0.20238902 0.008343134 -0.033386774 0.10150968 0.9070441 0.62291455 -0.63872683 -0.2988994
챙기 0.3458957 0.46624103 0.4870719 -0.35077313 0.24618495 -0.024362905 1.1928222 0.4998624 -0.2463864 -0.40801844
책임 0.0087255975 0.101586685 0.21387756 -0.2734041 -0.14473656 -0.042777527 1.0268558 0.60293746 -0.65999615 -0.13171268
[ 0.23788661 0.19096158 0.08916963 0.7747405 0.17084254 0.15560256 0.9851347 0.32944727 -0.5228663 -0.87629235
평생 0.23158096 0.14648405 0.44253874 -0.1271241 0.14377546 0.1972266 0.94386 0.26667428 -0.55469704 -0.45137277
친구 0.20514674 -0.09199858 0.14276771 -0.27353784 -0.060816504 0.14214118 0.85708827 0.3858847 -0.676378 -0.57295805
자유 0.35369608 0.008862336 -0.13586697 0.4571373 -0.37649375 -0.33367705 0.9927103 0.50776154 -0.6541698 -0.5234037
글 -0.0033885585 0.06896315 0.33595714 -0.12948397 -0.010691632 -0.101496615 0.97286344 0.5024709 -0.56732357 -0.4665811
비싸 0.20133254 -0.1265461 0.33206123 -0.33382314 -0.030427596 0.07680862 0.73133266 0.42986044 -0.83809936 -0.4763384
밖에 -0.21752918 -0.08177979 0.5863344 -0.5797931 -0.7552005 0.017810617 1.0990199 -0.05329369 -0.63951 -0.4998848
인정 0.22562133 -0.024048707 0.66221774 -0.59937 -0.3573986 -0.12546918 0.9172438 0.6312326 -0.37242675 -0.34690362
낫 0.026107384 -0.14255433 0.6012614 -0.38070345 0.10277328 -0.0879298 0.9520477 0.27159563 -0.6739165 -0.21808659
국힘 0.15858723 -0.042308334 0.26055756 0.12036943 0.06999202 0.056125015 0.8443327 0.42266977 -0.7554401 -0.46134472
걸리 0.36991012 -0.08391967 0.31627285 -0.31366727 -0.18054034 0.36861467 0.7724606 0.25992128 -0.8720824 -0.3033836
ㅅ 0.13458796 0.08757501 0.7329003 0.09510083 0.30492684 0.37816563 0.5882795 0.5925499 -0.7201264 -0.20794426
열심히 0.39939684 0.1868019 0.34715074 -0.3669083 -0.20699786 -0.23069774 1.2465954 0.4894182 -0.1777625 -0.64984757
선거 0.32056275 -0.0012502788 0.014353723 0.06803024 0.15268059 0.24653065 0.9965898 0.26591495 -0.6086846 -0.5948035
솔직히 0.12911645 -0.16285479 0.28061378 0.08025214 -0.13076906 -0.061062556 0.8720331 0.56336343 -0.68267083 -0.26313445
돌리 0.45718068 0.16594322 0.3034592 -0.36946815 -0.2076881 0.35139465 0.90686935 0.4509221 -0.5974757 -0.2511393
보도 0.31734803 -0.109889425 0.23336163 -0.50448453 -0.21943387 0.024515823 0.93749785 0.47062552 -0.58675337 -0.34886178
끌 0.46260592 0.26109517 0.39645123 -0.6214655 0.049393784 0.3259502 1.0643076 0.4855005 -0.39987475 -0.26590407
노무현 0.3409895 -0.24031833 0.81782794 0.49849087 -0.0028355788 -0.5351082 1.0631613 0.3636327 -0.5084213 -0.82625896
] 0.23768328 0.24266347 0.15188882 0.93223095 0.3694051 0.30839705 1.0443202 0.25327608 -0.42984322 -0.8479274
뻔 0.0047003375 -0.026901025 0.6818068 -0.32837796 -0.24199563 0.12407048 0.7802854 0.52489424 -0.4408082 -0.4492444
입장 0.11497712 -0.039867524 0.09954176 -0.01663227 -0.039798856 -0.30866048 1.0229551 0.40077224 -0.78826755 -0.37827122
공감 0.20518848 0.28509423 0.56543076 0.1551821 -0.014898021 -0.37459323 0.9797342 0.27737066 -0.52659196 -0.58010554
;; 0.13674244 -0.30822986 0.6664871 -0.18052454 0.026977342 0.44364452 0.6536985 0.48164037 -0.73453027 -0.13572283
ㅎㅎ 0.48751533 -0.4115735 1.2041979 -0.07314499 0.1408944 0.5794035 0.41989768 0.4564658 -0.5451541 -0.4523961
지역 0.19501598 -0.16723515 0.03516837 -0.04168754 -0.02154996 0.19607794 0.9175241 0.37407526 -0.7180274 -0.29289627
히 0.27140987 0.048000585 0.5789461 0.3090861 -0.24133836 0.23633534 0.7956021 0.44154862 -0.6127496 -0.1970961
시원 0.2495662 0.15309358 1.0977441 0.2977319 0.031963043 -0.07216608 0.93054193 0.22923392 -0.17736757 -0.61797297
??? 0.18543437 -0.4389198 0.5653695 -0.36364397 -0.36833864 0.37545717 0.6355119 0.78977937 -0.7761601 0.043125384
반드시 0.51115 0.36320975 0.3572746 0.19967668 -0.25493395 -0.3602692 1.2423358 0.50313133 -0.056791734 -0.77121204
씩 0.38448203 0.15458436 0.20385478 0.23240699 0.21957122 0.7509614 0.8587736 0.30890182 -0.644148 -0.4570789
50 0.328417 -0.13257374 0.3045071 0.51470035 -0.12227607 0.906379 0.7198892 0.043541268 -0.9214874 -0.36187318
행위 0.42702952 -0.008790405 -0.16069084 0.2746079 -0.37419683 -0.07703671 1.1540033 0.5831378 -0.41045377 -0.41613126
차관 0.13882205 -0.11938419 0.6919884 0.3592513 0.004447085 -0.11609309 0.56647 0.5337026 -0.7313093 -0.56625295
빠지 0.39288023 0.044582143 0.3283599 -0.42791086 0.00095696247 0.024345191 1.0264097 0.24440835 -0.707568 -0.18202427
당연 0.07094495 -0.2104837 0.55661744 -0.5831803 -0.3469216 -0.26816902 0.8856267 0.7520171 -0.6542639 -0.030598847
대선 0.1807395 0.12426574 0.056535702 0.18737009 -0.041343138 0.33306238 0.7689299 0.3672629 -0.7070758 -0.7878491
고생 0.18110825 0.11992921 0.6376995 0.110430144 -0.08744663 -0.19053026 0.9935575 0.31423533 -0.2839289 -0.6488719
관 0.44302258 0.37560964 0.6393121 0.81798965 0.5496145 -0.6068388 1.0555956 0.360905 -0.4949518 -1.0076658
+ 0.41034764 -0.5014027 0.28602803 0.60947806 -0.08540822 0.44876027 0.49213934 0.33646822 -1.0694497 -0.29654098
사법 0.58187324 0.019750586 -0.45104367 0.5582493 -0.2078238 0.13416831 1.1768707 0.33963898 -0.76647377 -0.3710095
어렵 0.26010057 0.05669167 0.13996124 -0.44084623 0.06415551 -0.13632435 1.1062703 0.47457218 -0.59593695 -0.3150369
롭 0.28888044 0.008503879 0.16999863 0.012212166 -0.18445006 -0.22206241 1.0896646 0.43845442 -0.5690289 -0.22169818
지랄 0.29433787 0.058381777 0.5605372 -0.2978622 0.035696734 0.10640919 0.7882745 0.44711074 -0.6012959 -0.32047188
여요 0.24820745 0.16342038 0.57696396 0.049380925 0.081664085 -0.1901242 1.078921 0.56818676 -0.05176658 -0.5612641
이름 0.07589728 0.03934248 -0.012648445 0.09928904 0.012331851 -0.0046228725 1.0908169 0.42883235 -0.5976519 -0.43913537
수박 -0.028246539 0.08619071 0.29439047 0.2272592 0.042276885 -0.19452234 1.0507667 0.50666606 -0.4255518 -0.44574657
인성 0.02722623 -0.065176435 0.48507077 -0.099841446 -0.16826653 -0.058199324 0.675656 0.4986341 -0.8282046 -0.31807283
공개 0.4866962 -0.00057574944 0.20016828 -0.33899158 -0.26144105 -0.039073195 0.8254971 0.6486379 -0.5345904 -0.47119713
진심 -0.00042276806 0.28703204 0.6885026 -0.06463119 0.22253495 -0.14113626 0.92733747 0.3284412 -0.63516045 -0.40216893
멋지 0.28012887 0.21648489 1.2089702 0.35393757 0.31771842 -0.3955326 0.7765748 0.37075874 -0.51491624 -0.7452762
당장 0.3106242 -0.051869664 0.3787394 0.12855731 -0.06918081 0.0109779 0.8087098 0.8760203 -0.47610688 -0.43884867
꺼 -0.0036248986 -0.24354143 0.43180066 -0.48286384 -0.37411934 0.21557562 0.6962542 0.5454573 -0.8175811 -0.4137821
던가 0.07666405 -0.08630665 0.34060112 -0.32713076 -0.0971303 0.52804863 0.83120304 0.56512827 -0.5061743 -0.32057106
스윙스 0.01387547 -0.08332869 0.80041516 -0.08791774 -0.11046085 0.10811877 0.69806683 0.55620867 -0.5336557 -0.33841205
미래 0.17980693 -0.11877494 0.16516103 0.13378625 -0.26674068 -0.35654 1.0531102 0.4675387 -0.549848 -0.39038426
6 0.20327993 -0.08413879 0.6758462 0.95477825 0.109852865 1.0043108 0.71872634 -0.17477909 -1.0499846 -0.7377859
존재 0.14988935 -0.18613815 -0.0050961347 0.028512478 -0.34578976 -0.28850886 1.0162547 0.4996725 -0.5629828 -0.37306374
구만 -0.052610192 -0.22158651 0.87342674 -0.3517877 -0.45323083 0.3385981 0.5936515 0.38743475 -0.6409026 -0.44349048
더럽 0.05362823 -0.06565849 0.52234113 -0.25495613 -0.045052655 -0.089942686 0.8541385 0.41276723 -0.88879585 0.0050964854
무엇 0.04449845 -0.105317555 0.27168572 -0.29545605 -0.41338995 -0.2923241 0.82209736 0.70895815 -0.8815857 -0.24915096
알리 0.52142835 0.46980646 0.5472309 -0.779711 0.061147414 0.26048464 1.2374432 0.7945658 -0.1385283 -0.18724416
남편 0.26545158 -0.027189054 0.012439724 -0.14978167 0.05929147 -0.016636232 1.0116044 0.41123733 -0.5690338 -0.61745155
처먹 0.5378461 0.16775262 0.4675181 -0.26550278 -0.09460402 0.46792275 0.9472203 0.33007476 -0.5352897 -0.0349676
이혼 -0.072682485 0.062838286 0.29092142 -0.14322284 -0.14425269 0.03384141 0.96833754 0.17926688 -0.6618755 -0.5645335
없애 0.54065853 0.0793387 0.35665554 0.098498814 -0.23627876 0.12546304 1.0268416 0.6378302 -0.29394606 -0.17955947
개월 0.26953658 -0.35628724 0.3290985 0.640069 -0.019039374 1.013029 0.65525633 -0.17331219 -1.1622379 -0.7998043
싫어하 0.12603688 -0.23704574 0.34698474 -0.6820963 -0.457603 -0.00205651 1.0149312 0.43906677 -0.65851325 -0.1179975
사형 0.52676785 0.17703809 0.45375255 0.083467364 -0.13034308 0.32857186 1.1473495 0.6965682 -0.03699264 -0.3231571
녀 0.15035889 -0.18467426 0.28922382 0.43955007 0.22111638 0.33976224 0.6332573 0.64240533 -1.0076591 -0.29458213
선수 0.22272786 -0.08802462 0.124436885 0.087860234 0.053601425 0.30883273 0.7573525 0.48654044 -0.7650583 -0.37038547
통 0.119746216 -0.04545037 0.60631996 0.23674394 -0.030233543 0.02630419 0.88406926 0.3854579 -0.46675074 -0.46658233
무시 0.28624615 0.08700922 0.06805667 -0.27792573 -0.3474872 -0.35613182 1.150829 0.5073685 -0.37815082 -0.5791639
카 0.28797883 -0.0583046 0.051935453 -0.10481604 -0.18566194 0.30225343 0.9712467 0.39052498 -0.6127106 -0.41548213
살리 0.41875935 0.31828532 0.44775262 -0.0964036 0.09311653 -0.01798049 1.0301325 0.47784844 -0.37256324 -0.39410478
댓글 0.22560905 -0.07973748 0.49881262 -0.07950069 0.04632092 0.24387202 0.84434384 0.4595088 -0.4987088 -0.19248113
,,, 0.17814025 -0.23201339 0.5145533 -0.28490764 -0.10986755 0.26919413 0.7687884 0.32370564 -0.6625726 -0.25631872
ㄹ지 -0.02478311 -0.09216013 0.5282016 -0.5479562 -0.29309583 -0.06755154 1.0745604 0.598945 -0.24745345 -0.43042082
떨어지 0.3049593 0.030950977 0.45007977 -0.10400601 -0.00026020245 0.24069992 0.74364966 0.21192288 -0.82888794 -0.36091396
석열 0.13640955 -0.09452148 0.48492908 -0.0054945005 -0.019790672 -0.07662746 0.7651097 0.56176376 -0.71557504 -0.32693994
머 0.22531883 -0.44119394 0.7514414 -0.30839565 -0.24920002 0.29144248 0.5658664 0.59217155 -0.71021116 -0.24596156
바보 0.024032414 -0.099394284 0.42811298 -0.03521367 -0.17446923 -0.07042258 1.0441394 0.7385256 -0.54941404 0.024567435
견주 0.38640803 0.1837208 0.26777682 -0.101106405 0.13407318 0.2035924 1.0029998 0.6345559 -0.30023786 -0.48640537
대부분 0.1401943 -0.1902348 -0.14719059 0.038551047 -0.03831318 -0.032497868 1.0528834 0.5567168 -0.67814374 -0.22758542
선 0.20308726 -0.09797402 0.5543494 0.14558882 -0.031000987 0.43239316 0.6264013 0.16467714 -0.75834215 -0.5065515
총선 0.3544591 -0.14123085 0.1530073 0.083962545 0.13863721 0.26428264 0.976291 0.08987678 -0.5705008 -0.55342054
급 0.22243942 -0.11793628 0.29980394 0.30660057 -0.22582962 0.44761434 0.52410805 0.3271087 -0.98008007 -0.48623365
용서 0.27225867 0.261347 0.47069603 -0.4385351 -0.120197244 -0.1475596 1.0716734 0.7273407 -0.35190237 -0.26543793
어리 0.08040834 -0.043365806 -0.005395797 -0.31748718 0.07402343 -0.058709726 0.9445931 0.3349207 -1.0092 -0.40667573
끼 0.1775966 -0.1457178 0.3557729 -0.18377793 0.07719939 0.48160508 0.7093406 0.65383005 -0.83142346 -0.21034002
딴 -0.12504569 -0.33149496 0.57089037 -0.23869167 -0.11997683 -0.105452895 0.7653849 0.7961415 -0.6302843 -0.2597431
욕하 0.33741516 0.06098481 0.3304992 -0.54353696 -0.29691982 0.11162185 0.7846336 0.7231065 -0.6392636 -0.36120746
준석 0.3188845 -0.055375602 0.730131 0.31421602 0.19309038 0.12293957 0.6592289 0.5515998 -0.6633267 -0.29978535
관련 0.23532213 -0.1946349 -0.023113383 0.09765128 -0.29295483 0.08211321 0.9996886 0.45044026 -0.54615754 -0.4392425
심각 0.2676874 -0.112295054 0.4832745 -0.28790155 -0.21776898 -0.27413815 0.8173687 0.5009422 -0.65825826 -0.291192
선동 0.5833726 -0.0012097312 -0.13428932 -0.034460682 0.11356703 0.09782425 0.966359 0.44729796 -0.6146121 -0.5516727
떨 0.4397886 -0.07726549 0.46801415 -0.4334901 0.063153744 0.34577823 0.7962888 0.34650066 -0.6453846 -0.25132534
행복 0.114838734 0.17855683 0.6825776 -0.4095599 -0.027053148 -0.3508752 1.085792 0.29217786 -0.29831752 -0.6442184
물가 0.2567105 -0.17595631 0.24568129 -0.22138384 -0.21797983 0.28180858 0.80399215 0.4548485 -0.6095268 -0.3903434
하늘 0.36856988 0.17095387 0.40904224 0.15994495 0.13790457 0.11121243 0.8324948 0.38292968 -0.472603 -0.64708096
민주 0.13039808 -0.21216214 0.23406047 0.12509559 -0.08785689 -0.025128253 0.8785564 0.5292752 -0.6166806 -0.3605184
탓 0.16482209 -0.086532146 0.23981681 -0.0651902 -0.15202253 0.10965641 0.90478635 0.44413537 -0.7474208 -0.18148595
홍 0.14517634 -0.06535358 0.6467614 0.69275665 0.31255227 -0.31520605 0.82289135 0.14807604 -0.76043767 -0.7598231
설명 0.039751597 0.054340836 0.6823839 -0.6944722 -0.15356228 -0.099091485 0.92121565 0.53804076 -0.3776936 -0.58840483
던지 0.14535421 0.03937488 0.41926426 -0.27847826 0.00937639 0.18314555 0.9948524 0.35948128 -0.43020824 -0.28988647
51 0.2644899 -0.2733845 0.34932312 0.2802645 -0.30921483 0.89787704 0.5787447 0.24424598 -1.2071083 -0.16545166
오늘 0.16492714 -0.18132943 0.37734282 -0.02917289 0.10352408 0.25175795 0.69478667 0.47360757 -0.6572573 -0.4763342
경우 -0.033163715 -0.1323205 -0.033076953 -0.34740785 -0.23692064 -0.016289761 1.0282694 0.39038602 -0.71929795 -0.4960258
식 0.034256425 -0.12731789 0.4291765 -0.08765654 -0.01818519 -0.030462433 0.9033638 0.51052725 -0.6311744 -0.2716691
높 0.047251232 -0.25745314 0.27321747 -0.2277973 0.016857687 -0.059924908 0.91659355 0.21666591 -0.893745 -0.2597993
각 0.1423831 -0.16622582 0.18862303 0.3806058 -0.0458382 0.24036662 0.8038947 0.1100086 -0.73668456 -0.5626177
망 0.4291724 -0.0050961594 0.45937243 -0.10342002 -0.17098191 0.29102883 0.784124 0.66323286 -0.49862716 -0.26258126
동 0.18294899 -0.11311447 0.2636533 0.4238785 0.15846387 0.27867448 0.77825594 0.29219887 -0.69894767 -0.45542872
일어나 0.37066355 -0.0874919 0.012280572 -0.122486725 -0.3950393 0.12148478 1.0839964 0.40563342 -0.69108063 -0.14471725
정당 0.13268529 -0.15295155 0.3848924 -0.12141452 -0.45799884 0.061168723 0.9307071 0.3309589 -0.658428 -0.28069577
이랑 0.05971669 -0.30185726 0.12039665 0.22746173 -0.001934415 0.21311535 0.74310887 0.37193996 -0.793046 -0.40627584
군대 0.18234615 -0.14853376 0.3124372 -0.2461356 -0.08898235 0.20249347 0.63591635 0.5405246 -0.88371897 -0.37638316
카드 0.46109876 0.12347012 0.27042967 0.4936191 0.03288953 0.77956903 0.8880534 -0.12554528 -0.71417683 -0.6618664
버 0.35458842 -0.2448507 0.57653743 -0.3274014 0.122776546 0.4526537 0.9211828 0.46581772 -0.50245714 -0.11944715
때리 0.5501385 0.08849506 0.40412793 -0.30098823 0.03158771 0.27768227 0.917731 0.38648245 -0.48099777 -0.3810701
귀엽 -0.0057774475 0.045097094 0.7009483 0.04793001 0.39628854 0.26445398 0.6949234 0.42992297 -0.6114012 -0.4515237
편 0.34896436 -0.025203828 0.3716077 0.18086454 0.028990649 -0.14072654 0.99273026 0.40701747 -0.5908824 -0.20991209
심 0.19773127 0.0020637934 0.28900805 0.032587312 0.19659832 0.6284575 0.84565336 0.27809423 -0.66073596 -0.44496852
전쟁 0.11333932 -0.0038336723 0.23536271 0.0033350594 -0.10749039 0.11116216 0.96750236 0.23762804 -0.57735926 -0.5310081
조폭 0.20495181 -0.17723243 0.27002963 0.038086396 -0.11745296 -0.1451591 0.7801901 0.6057886 -0.72220814 -0.26628026
사과 0.24003947 0.08384835 0.36801034 -0.5799609 -0.48056743 -0.10507447 1.0006338 0.5335899 -0.4499122 -0.45079142
똥 0.034256887 -0.056146227 0.45691264 0.019733263 -0.11474734 0.271173 0.74649763 0.36409655 -0.82357335 -0.19856784
기각 0.28235862 -0.1166184 0.46738565 -0.53568673 -0.49657184 0.00333966 0.81863266 0.71995676 -0.49238348 -0.29817414
7 0.18552947 -0.1349287 0.43723553 0.9742914 -0.17844696 0.905003 0.7679265 -0.20231472 -1.04645 -0.73862827
허 0.128373 -0.01143537 0.7321262 0.007155839 0.026229948 0.35158533 0.8235449 0.5024754 -0.4600287 -0.1017918
전부 0.16783407 -0.18731706 0.1951763 0.30929816 -0.12096008 -0.023596229 0.81694454 0.3601904 -0.8191828 -0.3694461
조금 0.35147032 0.08817586 0.26067895 -0.33485988 -0.12732457 0.03408101 0.8885244 0.27347547 -0.6287507 -0.60639054
답답 0.05480414 -0.050235353 0.9828595 -0.31764013 -0.06631995 -0.020544257 0.62760717 0.46398455 -0.59438294 -0.56520593
출신 0.1431607 -0.032991655 0.20587519 0.4061344 -0.031932313 0.048406262 0.91284496 0.47111553 -0.6639713 -0.3150494
나중 0.43011183 -0.02871591 0.22076443 -0.22213817 0.003252491 0.2674761 0.81656116 0.41908985 -0.6613904 -0.40556815
세대 0.20552723 -0.00022013627 0.068152346 0.19240071 -0.07686592 -0.3264866 0.98056895 0.5551181 -0.6241941 -0.51982623
ㅜㅜ -0.007871613 -0.19731621 0.7170049 0.0947158 -0.034340166 -0.13837828 0.73937005 0.30588445 -0.5904686 -0.5158614
이야 0.14686891 -0.13936836 0.16056499 -0.0968843 -0.19255702 0.0060830587 0.8992993 0.6165112 -0.71029353 -0.16898964
음식 0.24561797 0.006763037 0.27070877 -0.2456545 -0.026493262 0.40989742 1.0797443 0.45728275 -0.36542115 -0.34733006
찌 0.32990608 -0.09730623 0.44116676 -0.051268183 0.02167237 0.064212754 0.7724786 0.5185518 -0.80704784 -0.10182296
바뀌 0.27722803 -0.14695103 0.3193294 -0.1448974 -0.19345355 0.059008848 0.80404323 0.33385602 -0.7115018 -0.36978745
악마 0.10135144 -0.251016 0.17345594 0.1111985 -0.14635043 -0.11366355 0.92553616 0.5091829 -0.6414389 -0.39828882
들어오 0.2987545 -0.043611467 0.37058643 -0.38372222 -0.05129702 0.02694574 0.8598239 0.36350825 -0.7910955 -0.2423565
당대표 0.18596071 -0.19433163 0.3247367 0.25241393 -0.042995617 0.030057337 0.7344085 0.47787818 -0.5889041 -0.66731745
; -0.0010324238 -0.34187818 0.7652008 -0.16506708 0.062679276 0.6879146 0.5307012 0.32339516 -0.9441126 -0.06963107
밥 0.29563043 0.16651972 0.16469747 -0.46368656 0.12540257 0.5500623 1.0874206 0.451242 -0.51761675 -0.26675344
판단 0.19934222 0.04941758 0.29517856 -0.3124766 -0.46227014 -0.3074605 0.9571961 0.56696904 -0.4918933 -0.51138234
공정 0.15701534 -0.120669685 0.19566698 0.3042204 -0.084591225 -0.15077087 1.0094676 0.45539975 -0.56231123 -0.40020025
석 0.20251991 -0.07124857 0.28020018 0.057229675 -0.1694168 0.24051766 0.79133755 0.36189505 -0.6683601 -0.37331644
